\data\
ngram 1=9842
ngram 2=36911
ngram 3=47643

\1-grams:
-1.0 put -0.5
-1.0 down -0.5
-1.0 a -0.5
-1.0 resolution -0.5
-1.0 on -0.5
-1.0 the -0.5
-1.0 subject -0.5
-1.0 and -0.5
-1.0 he -0.5
-1.0 is -0.5
-1.0 to -0.5
-1.0 be -0.5
-1.0 backed -0.5
-1.0 by -0.5
-1.0 mr. -0.5
-1.0 will -0.5
-1.0 nominating -0.5
-1.0 any -0.5
-1.0 more -0.5
-1.0 labour -0.5
-1.0 life -0.5
-1.0 peers -0.5
-1.0 m -0.5
-1.0 ps -0.5
-1.0 tomorrow. -0.5
-1.0 michael -0.5
-1.0 foot -0.5
-1.0 has -0.5
-1.0 griffiths, -0.5
-1.0 p -0.5
-1.0 for -0.5
-1.0 manchester -0.5
-1.0 exchange -0.5
-1.0 . -0.5
-1.0 made -0.5
-1.0 at -0.5
-1.0 meeting -0.5
-1.0 of -0.5
-1.0 move -0.5
-1.0 stop -0.5
-1.0 gaitskell -0.5
-1.0 from -0.5
-1.0 0m -0.5
-1.0 tommorow -0.5
-1.0 griffiths -0.5
-1.0 , -0.5
-1.0 which -0.5
-1.0 would -0.5
-1.0 appear -0.5
-1.0 " -0.5
-1.0 prop -0.5
-1.0 up -0.5
-1.0 an -0.5
-1.0 out-dated -0.5
-1.0 though -0.5
-1.0 they -0.5
-1.0 may -0.5
-1.0 gather -0.5
-1.0 some -0.5
-1.0 left-wing -0.5
-1.0 support -0.5
-1.0 into -0.5
-1.0 existence -0.5
-1.0 should -0.5
-1.0 not -0.5
-1.0 that -0.5
-1.0 take -0.5
-1.0 steps -0.5
-1.0 now -0.5
-1.0 forward -0.5
-1.0 nominees -0.5
-1.0 believes -0.5
-1.0 large -0.5
-1.0 majority -0.5
-1.0 are -0.5
-1.0 likely -0.5
-1.0 house -0.5
-1.0 lords -0.5
-1.0 abolished -0.5
-1.0 institution -0.5
-1.0 opposed -0.5
-1.0 government -0.5
-1.0 bill -0.5
-1.0 brought -0.5
-1.0 turn -0.5
-1.0 foot-griffiths -0.5
-1.0 foot's -0.5
-1.0 line -0.5
-1.0 as -0.5
-1.0 out- -0.5
-1.0 foot- -0.5
-1.0 govern- -0.5
-1.0 ment -0.5
-1.0 get -0.5
-1.0 together -0.5
-1.0 face -0.5
-1.0 challenge -0.5
-1.0 sir -0.5
-1.0 members -0.5
-1.0 two -0.5
-1.0 rival -0.5
-1.0 african -0.5
-1.0 nationalist -0.5
-1.0 roy -0.5
-1.0 welensky -0.5
-1.0 federal -0.5
-1.0 premier -0.5
-1.0 parties -0.5
-1.0 northern -0.5
-1.0 rhodesia -0.5
-1.0 have -0.5
-1.0 agreed -0.5
-1.0 peeresses -0.5
-1.0 been -0.5
-1.0 created -0.5
-1.0 most -0.5
-1.0 adequate -0.5
-1.0 number -0.5
-1.0 sentiment -0.5
-1.0 # -0.5
-1.0 still -0.5
-1.0 favour -0.5
-1.0 abolition -0.5
-1.0 but -0.5
-1.0 while -0.5
-1.0 it -0.5
-1.0 remains -0.5
-1.0 since -0.5
-1.0 1958 -0.5
-1.0 13 -0.5
-1.0 party -0.5
-1.0 ( -0.5
-1.0 280,000 -0.5
-1.0 ) -0.5
-1.0 harry -0.5
-1.0 nkumbula's -0.5
-1.0 discuss -0.5
-1.0 common -0.5
-1.0 course -0.5
-1.0 action -0.5
-1.0 delegates -0.5
-1.0 kenneth -0.5
-1.0 kaunda's -0.5
-1.0 united -0.5
-1.0 national -0.5
-1.0 independence -0.5
-1.0 violently -0.5
-1.0 africans -0.5
-1.0 getting -0.5
-1.0 elected -0.5
-1.0 in -0.5
-1.0 colonial -0.5
-1.0 secretary -0.5
-1.0 congress -0.5
-1.0 400,000 -0.5
-1.0 meet -0.5
-1.0 london -0.5
-1.0 today -0.5
-1.0 iain -0.5
-1.0 macleod -0.5
-1.0 insisting -0.5
-1.0 policy -0.5
-1.0 change -0.5
-1.0 chief -0.5
-1.0 aide -0.5
-1.0 julius -0.5
-1.0 greenfield -0.5
-1.0 telephoned -0.5
-1.0 his -0.5
-1.0 report -0.5
-1.0 talks -0.5
-1.0 with -0.5
-1.0 fall -0.5
-1.0 through -0.5
-1.0 there -0.5
-1.0 bound -0.5
-1.0 demonstrations -0.5
-1.0 yesterday -0.5
-1.0 roy's -0.5
-1.0 future -0.5
-1.0 said -0.5
-1.0 nkumbula -0.5
-1.0 last -0.5
-1.0 night -0.5
-1.0 : -0.5
-1.0 macmillan -0.5
-1.0 chequers -0.5
-1.0 we -0.5
-1.0 want -0.5
-1.0 what -0.5
-1.0 do -0.5
-1.0 if -0.5
-1.0 boycotting -0.5
-1.0 protectorate's -0.5
-1.0 british -0.5
-1.0 gives -0.5
-1.0 liberals -0.5
-1.0 attending -0.5
-1.0 these -0.5
-1.0 function -0.5
-1.0 seeking -0.5
-1.0 studying -0.5
-1.0 them -0.5
-1.0 conference -0.5
-1.0 plans -0.5
-1.0 give -0.5
-1.0 overall -0.5
-1.0 proposed -0.5
-1.0 chiefs -0.5
-1.0 lancaster -0.5
-1.0 despite -0.5
-1.0 crisis -0.5
-1.0 had -0.5
-1.0 went -0.5
-1.0 blown -0.5
-1.0 revealed -0.5
-1.0 full -0.5
-1.0 majo- -0.5
-1.0 rity -0.5
-1.0 secret -0.5
-1.0 negotiations -0.5
-1.0 rhodesia's -0.5
-1.0 minister -0.5
-1.0 central -0.5
-1.0 federation -0.5
-1.0 commons -0.5
-1.0 week-end -0.5
-1.0 denied -0.5
-1.0 representatives -0.5
-1.0 prime -0.5
-1.0 boycotted -0.5
-1.0 main -0.5
-1.0 settlers' -0.5
-1.0 - -0.5
-1.0 dominion -0.5
-1.0 britain -0.5
-1.0 obligation -0.5
-1.0 consult -0.5
-1.0 refusing -0.5
-1.0 sit -0.5
-1.0 round -0.5
-1.0 table -0.5
-1.0 i -0.5
-1.0 no -0.5
-1.0 knowledge -0.5
-1.0 final -0.5
-1.0 decision -0.5
-1.0 remained -0.5
-1.0 james -0.5
-1.0 callaghan -0.5
-1.0 labour's -0.5
-1.0 spokesman -0.5
-1.0 right -0.5
-1.0 delay -0.5
-1.0 progress -0.5
-1.0 was -0.5
-1.0 told -0.5
-1.0 member -0.5
-1.0 fede- -0.5
-1.0 ration -0.5
-1.0 representative -0.5
-1.0 sent -0.5
-1.0 were -0.5
-1.0 unsatisfac- -0.5
-1.0 che- -0.5
-1.0 day -0.5
-1.0 called -0.5
-1.0 cease -0.5
-1.0 tory -0.5
-1.0 yester- -0.5
-1.0 refused -0.5
-1.0 attend -0.5
-1.0 thought -0.5
-1.0 rhodesian -0.5
-1.0 regarded -0.5
-1.0 growing -0.5
-1.0 anger -0.5
-1.0 gross -0.5
-1.0 unconstitutional -0.5
-1.0 interference -0.5
-1.0 quers -0.5
-1.0 because -0.5
-1.0 found -0.5
-1.0 messages -0.5
-1.0 unsatisfactory -0.5
-1.0 racial -0.5
-1.0 discrimination -0.5
-1.0 defended -0.5
-1.0 appointment -0.5
-1.0 negro -0.5
-1.0 strong -0.5
-1.0 opposition -0.5
-1.0 anti-negro -0.5
-1.0 housing -0.5
-1.0 aroused -0.5
-1.0 state -0.5
-1.0 projects -0.5
-1.0 informal -0.5
-1.0 b.kaufmann -0.5
-1.0 senators -0.5
-1.0 deep -0.5
-1.0 south -0.5
-1.0 resume -0.5
-1.0 president -0.5
-1.0 kennedy -0.5
-1.0 robert -0.5
-1.0 weaver -0.5
-1.0 new -0.5
-1.0 york -0.5
-1.0 one -0.5
-1.0 tasks -0.5
-1.0 see -0.5
-1.0 once -0.5
-1.0 communist -0.5
-1.0 affiliations -0.5
-1.0 another -0.5
-1.0 southern -0.5
-1.0 senator -0.5
-1.0 willis -0.5
-1.0 robertson -0.5
-1.0 off -0.5
-1.0 telling -0.5
-1.0 television -0.5
-1.0 virginia -0.5
-1.0 met -0.5
-1.0 closed -0.5
-1.0 session -0.5
-1.0 audience -0.5
-1.0 current -0.5
-1.0 washington -0.5
-1.0 gossip -0.5
-1.0 later -0.5
-1.0 disclosed -0.5
-1.0 letter -0.5
-1.0 saying -0.5
-1.0 received -0.5
-1.0 several -0.5
-1.0 complaints -0.5
-1.0 about -0.5
-1.0 weaver's -0.5
-1.0 loyalty -0.5
-1.0 allen -0.5
-1.0 ellender -0.5
-1.0 louisiana -0.5
-1.0 sparked -0.5
-1.0 senate -0.5
-1.0 banking -0.5
-1.0 committee -0.5
-1.0 headed -0.5
-1.0 affilia- -0.5
-1.0 tions -0.5
-1.0 bureau -0.5
-1.0 in- -0.5
-1.0 believed -0.5
-1.0 perform -0.5
-1.0 outstanding -0.5
-1.0 concerned -0.5
-1.0 rushed -0.5
-1.0 pass -0.5
-1.0 alleged -0.5
-1.0 association -0.5
-1.0 organisations -0.5
-1.0 black- -0.5
-1.0 service -0.5
-1.0 post -0.5
-1.0 robertson's -0.5
-1.0 vestigation -0.5
-1.0 reported -0.5
-1.0 nomination -0.5
-1.0 before -0.5
-1.0 can -0.5
-1.0 con- -0.5
-1.0 sidered -0.5
-1.0 listed -0.5
-1.0 immediately -0.5
-1.0 investigation -0.5
-1.0 considered -0.5
-1.0 black-listed -0.5
-1.0 mention -0.5
-1.0 personal -0.5
-1.0 dr. -0.5
-1.0 over -0.5
-1.0 west -0.5
-1.0 germany's -0.5
-1.0 cash -0.5
-1.0 offer -0.5
-1.0 help -0.5
-1.0 germany -0.5
-1.0 pay -0.5
-1.0 did -0.5
-1.0 good -0.5
-1.0 enough -0.5
-1.0 indicated -0.5
-1.0 357million -0.5
-1.0 bluntly -0.5
-1.0 adenauer -0.5
-1.0 german -0.5
-1.0 chancellor -0.5
-1.0 america's -0.5
-1.0 balance -0.5
-1.0 payments -0.5
-1.0 position -0.5
-1.0 ready -0.5
-1.0 tough -0.5
-1.0 try -0.5
-1.0 due -0.5
-1.0 next -0.5
-1.0 week -0.5
-1.0 big -0.5
-1.0 useful -0.5
-1.0 probably -0.5
-1.0 anyway -0.5
-1.0 states -0.5
-1.0 officials -0.5
-1.0 quickly -0.5
-1.0 point -0.5
-1.0 out -0.5
-1.0 problem -0.5
-1.0 brentano -0.5
-1.0 payment -0.5
-1.0 210million -0.5
-1.0 debt -0.5
-1.0 america -0.5
-1.0 level -0.5
-1.0 than -0.5
-1.0 past -0.5
-1.0 might -0.5
-1.0 discussions -0.5
-1.0 higher -0.5
-1.0 slice -0.5
-1.0 aid -0.5
-1.0 early -0.5
-1.0 foreign -0.5
-1.0 who -0.5
-1.0 this -0.5
-1.0 money -0.5
-1.0 flatly -0.5
-1.0 rejected -0.5
-1.0 attempts -0.5
-1.0 eisenhower -0.5
-1.0 unimpressed -0.5
-1.0 germans' -0.5
-1.0 claim -0.5
-1.0 cannot -0.5
-1.0 or -0.5
-1.0 present -0.5
-1.0 without -0.5
-1.0 upsetting -0.5
-1.0 their -0.5
-1.0 own -0.5
-1.0 economy -0.5
-1.0 sum -0.5
-1.0 towards -0.5
-1.0 cost -0.5
-1.0 keeping -0.5
-1.0 american -0.5
-1.0 regular -0.5
-1.0 paying -0.5
-1.0 americans -0.5
-1.0 say -0.5
-1.0 having -0.5
-1.0 too -0.5
-1.0 troops -0.5
-1.0 answer -0.5
-1.0 once-and-for-all -0.5
-1.0 increase -0.5
-1.0 taxation -0.5
-1.0 administration -0.5
-1.0 rejection -0.5
-1.0 painful -0.5
-1.0 blow -0.5
-1.0 so -0.5
-1.0 run -0.5
-1.0 obvious -0.5
-1.0 risks -0.5
-1.0 dollar -0.5
-1.0 reserves -0.5
-1.0 adenauer's -0.5
-1.0 kennedy's -0.5
-1.0 costs -0.5
-1.0 drain -0.5
-1.0 waiting -0.5
-1.0 senior -0.5
-1.0 military -0.5
-1.0 spot -0.5
-1.0 joyce -0.5
-1.0 egginton -0.5
-1.0 cables -0.5
-1.0 press -0.5
-1.0 ference -0.5
-1.0 admitted -0.5
-1.0 know -0.5
-1.0 february -0.5
-1.0 20 -0.5
-1.0 whether -0.5
-1.0 lagging -0.5
-1.0 behind -0.5
-1.0 election -0.5
-1.0 year -0.5
-1.0 aides -0.5
-1.0 come -0.5
-1.0 russia -0.5
-1.0 missile -0.5
-1.0 power -0.5
-1.0 personality -0.5
-1.0 dominated -0.5
-1.0 children -0.5
-1.0 men -0.5
-1.0 poles -0.5
-1.0 apart -0.5
-1.0 slackness -0.5
-1.0 surprising -0.5
-1.0 statement -0.5
-1.0 sharp -0.5
-1.0 about- -0.5
-1.0 best -0.5
-1.0 avoid -0.5
-1.0 giving -0.5
-1.0 pressmen -0.5
-1.0 nuclear -0.5
-1.0 development -0.5
-1.0 caused -0.5
-1.0 lag -0.5
-1.0 warnings -0.5
-1.0 during -0.5
-1.0 presidential -0.5
-1.0 campaign -0.5
-1.0 claimed -0.5
-1.0 direct -0.5
-1.0 george -0.5
-1.0 brown -0.5
-1.0 passionate -0.5
-1.0 warm-hearted -0.5
-1.0 led -0.5
-1.0 always -0.5
-1.0 first -0.5
-1.0 issue -0.5
-1.0 health -0.5
-1.0 ; -0.5
-1.0 other -0.5
-1.0 tried -0.5
-1.0 show -0.5
-1.0 balance-sheet -0.5
-1.0 must -0.5
-1.0 angry -0.5
-1.0 uproar -0.5
-1.0 dealt -0.5
-1.0 human -0.5
-1.0 ended -0.5
-1.0 inciting -0.5
-1.0 unemotional -0.5
-1.0 replied -0.5
-1.0 statistical -0.5
-1.0 state- -0.5
-1.0 charges -0.5
-1.0 powell -0.5
-1.0 white-faced -0.5
-1.0 outwardly -0.5
-1.0 attack -0.5
-1.0 people -0.5
-1.0 far -0.5
-1.0 beyond -0.5
-1.0 ranks -0.5
-1.0 undermining -0.5
-1.0 censure -0.5
-1.0 motion -0.5
-1.0 result -0.5
-1.0 vote -0.5
-1.0 able -0.5
-1.0 bear -0.5
-1.0 doubt -0.5
-1.0 tories -0.5
-1.0 massed -0.5
-1.0 monstrous -0.5
-1.0 offended -0.5
-1.0 many -0.5
-1.0 placing -0.5
-1.0 heavy -0.5
-1.0 burdens -0.5
-1.0 those -0.5
-1.0 least -0.5
-1.0 declared -0.5
-1.0 under -0.5
-1.0 whips -0.5
-1.0 defeat -0.5
-1.0 supporters -0.5
-1.0 whole -0.5
-1.0 principle -0.5
-1.0 my -0.5
-1.0 party's -0.5
-1.0 proposal -0.5
-1.0 prostitute -0.5
-1.0 practised -0.5
-1.0 medicine -0.5
-1.0 43 -0.5
-1.0 years -0.5
-1.0 chiefly -0.5
-1.0 conservative -0.5
-1.0 am -0.5
-1.0 horrified -0.5
-1.0 amazed -0.5
-1.0 doctors -0.5
-1.0 public -0.5
-1.0 render -0.5
-1.0 hardship -0.5
-1.0 poor -0.5
-1.0 background -0.5
-1.0 doctor -0.5
-1.0 68 -0.5
-1.0 panel -0.5
-1.0 lifelong -0.5
-1.0 denouncing -0.5
-1.0 proposals -0.5
-1.0 quoted -0.5
-1.0 quantity -0.5
-1.0 surveyor -0.5
-1.0 descended -0.5
-1.0 after -0.5
-1.0 lifetime -0.5
-1.0 helping -0.5
-1.0 others -0.5
-1.0 increased -0.5
-1.0 wicked -0.5
-1.0 healing -0.5
-1.0 sick -0.5
-1.0 opinion -0.5
-1.0 anybody -0.5
-1.0 supporting -0.5
-1.0 needs -0.5
-1.0 imaginative -0.5
-1.0 architect -0.5
-1.0 old -0.5
-1.0 bills -0.5
-1.0 dealing -0.5
-1.0 noble -0.5
-1.0 edifice -0.5
-1.0 improve -0.5
-1.0 got -0.5
-1.0 real -0.5
-1.0 problems -0.5
-1.0 fiddling -0.5
-1.0 never -0.5
-1.0 interrupted -0.5
-1.0 retorted -0.5
-1.0 attainable -0.5
-1.0 remain -0.5
-1.0 believe -0.5
-1.0 comprehensive -0.5
-1.0 medical -0.5
-1.0 free -0.5
-1.0 patient -0.5
-1.0 need -0.5
-1.0 standard -0.5
-1.0 all -0.5
-1.0 jackals -0.5
-1.0 bay -0.5
-1.0 when -0.5
-1.0 nothing -0.5
-1.0 better -0.5
-1.0 conception -0.5
-1.0 social -0.5
-1.0 services -0.5
-1.0 wholly -0.5
-1.0 korean -0.5
-1.0 war -0.5
-1.0 wretched -0.5
-1.0 comfortable -0.5
-1.0 nor -0.5
-1.0 easy -0.5
-1.0 answering -0.5
-1.0 jeers -0.5
-1.0 ceiling -0.5
-1.0 spending -0.5
-1.0 started -0.5
-1.0 reminded -0.5
-1.0 hostile -0.5
-1.0 benches -0.5
-1.0 provide -0.5
-1.0 ambulance -0.5
-1.0 absolutely -0.5
-1.0 different -0.5
-1.0 fundamentally -0.5
-1.0 done -0.5
-1.0 1950 -0.5
-1.0 financial -0.5
-1.0 strain -0.5
-1.0 ruthless -0.5
-1.0 against -0.5
-1.0 drug -0.5
-1.0 making -0.5
-1.0 per -0.5
-1.0 cent. -0.5
-1.0 eight -0.5
-1.0 unsmiling -0.5
-1.0 demanded -0.5
-1.0 instead -0.5
-1.0 then -0.5
-1.0 swung -0.5
-1.0 directly -0.5
-1.0 needy -0.5
-1.0 make -0.5
-1.0 fact -0.5
-1.0 worse -0.5
-1.0 taking -0.5
-1.0 patients -0.5
-1.0 industry -0.5
-1.0 whose -0.5
-1.0 profits -0.5
-1.0 risen -0.5
-1.0 400 -0.5
-1.0 percentage -0.5
-1.0 expenditure -0.5
-1.0 fallen -0.5
-1.0 28.5 -0.5
-1.0 23.1 -0.5
-1.0 welfare -0.5
-1.0 food -0.5
-1.0 scheme -0.5
-1.0 maintained -0.5
-1.0 conditions -0.5
-1.0 commented -0.5
-1.0 icily -0.5
-1.0 let -0.5
-1.0 us -0.5
-1.0 owed -0.5
-1.0 much -0.5
-1.0 affluence -0.5
-1.0 seemed -0.5
-1.0 could -0.5
-1.0 carried -0.5
-1.0 inquiry -0.5
-1.0 drugs -0.5
-1.0 pharmaceutical -0.5
-1.0 vast -0.5
-1.0 finds -0.5
-1.0 easier -0.5
-1.0 mothers -0.5
-1.0 details -0.5
-1.0 improving -0.5
-1.0 hospital -0.5
-1.0 indeed -0.5
-1.0 minute -0.5
-1.0 even -0.5
-1.0 bitterest -0.5
-1.0 opponents -0.5
-1.0 changes -0.5
-1.0 net -0.5
-1.0 exchequer -0.5
-1.0 mr -0.5
-1.0 sat -0.5
-1.0 cheered -0.5
-1.0 three -0.5
-1.0 defence -0.5
-1.0 joined -0.5
-1.0 devoted -0.5
-1.0 half -0.5
-1.0 speech -0.5
-1.0 basic -0.5
-1.0 cuts -0.5
-1.0 foods -0.5
-1.0 families -0.5
-1.0 adjustment -0.5
-1.0 being -0.5
-1.0 financing -0.5
-1.0 receiving -0.5
-1.0 assistance -0.5
-1.0 decided -0.5
-1.0 adjust -0.5
-1.0 underpinning -0.5
-1.0 limited -0.5
-1.0 continue -0.5
-1.0 either -0.5
-1.0 grants -0.5
-1.0 economic -0.5
-1.0 taken -0.5
-1.0 friendly -0.5
-1.0 gesture -0.5
-1.0 whitehall -0.5
-1.0 de -0.5
-1.0 gaulle's -0.5
-1.0 official -0.5
-1.0 welcome -0.5
-1.0 picked -0.5
-1.0 brains -0.5
-1.0 trust -0.5
-1.0 gaulle -0.5
-1.0 month -0.5
-1.0 smooth -0.5
-1.0 way -0.5
-1.0 general -0.5
-1.0 abandoned -0.5
-1.0 visit -0.5
-1.0 team -0.5
-1.0 negotiate -0.5
-1.0 terms -0.5
-1.0 joining -0.5
-1.0 market -0.5
-1.0 britain's -0.5
-1.0 moves -0.5
-1.0 six -0.5
-1.0 same -0.5
-1.0 paris -0.5
-1.0 dropped -0.5
-1.0 safeguard -0.5
-1.0 interests -0.5
-1.0 france -0.5
-1.0 back -0.5
-1.0 edward -0.5
-1.0 heath -0.5
-1.0 lord -0.5
-1.0 privy -0.5
-1.0 seal -0.5
-1.0 charged -0.5
-1.0 conduct -0.5
-1.0 pierson -0.5
-1.0 dixon -0.5
-1.0 ambassador -0.5
-1.0 idea -0.5
-1.0 mission -0.5
-1.0 commonwealth -0.5
-1.0 governments -0.5
-1.0 every -0.5
-1.0 facility -0.5
-1.0 possible -0.5
-1.0 rely -0.5
-1.0 time -0.5
-1.0 offered -0.5
-1.0 hand-picked -0.5
-1.0 leadership -0.5
-1.0 relations -0.5
-1.0 wish -0.5
-1.0 kept -0.5
-1.0 countries -0.5
-1.0 arrange -0.5
-1.0 observers -0.5
-1.0 advise -0.5
-1.0 touch -0.5
-1.0 canada -0.5
-1.0 australia -0.5
-1.0 monday -0.5
-1.0 seven -0.5
-1.0 sandys -0.5
-1.0 negotiating -0.5
-1.0 zealand -0.5
-1.0 delegations -0.5
-1.0 opening -0.5
-1.0 fortnight's -0.5
-1.0 market's -0.5
-1.0 council -0.5
-1.0 ministers -0.5
-1.0 draws -0.5
-1.0 procedure -0.5
-1.0 days -0.5
-1.0 un -0.5
-1.0 dele- -0.5
-1.0 son -0.5
-1.0 wide -0.5
-1.0 reputation -0.5
-1.0 represented -0.5
-1.0 roderick -0.5
-1.0 barclay -0.5
-1.0 fisheries -0.5
-1.0 office -0.5
-1.0 tary -0.5
-1.0 ministry -0.5
-1.0 agriculture -0.5
-1.0 gate -0.5
-1.0 second -0.5
-1.0 command -0.5
-1.0 composed -0.5
-1.0 experienced -0.5
-1.0 negotiators -0.5
-1.0 fields -0.5
-1.0 pier- -0.5
-1.0 skilful -0.5
-1.0 backstage -0.5
-1.0 negotiator -0.5
-1.0 eric -0.5
-1.0 roll -0.5
-1.0 53-year-old -0.5
-1.0 deputy -0.5
-1.0 secre- -0.5
-1.0 held -0.5
-1.0 commission -0.5
-1.0 wherever -0.5
-1.0 decide -0.5
-1.0 william -0.5
-1.0 goes -0.5
-1.0 brussels -0.5
-1.0 headquarters -0.5
-1.0 treasury -0.5
-1.0 g. -0.5
-1.0 h. -0.5
-1.0 andrew -0.5
-1.0 board -0.5
-1.0 trade -0.5
-1.0 leading -0.5
-1.0 henry -0.5
-1.0 lintott -0.5
-1.0 corell-barnes -0.5
-1.0 r. -0.5
-1.0 bell -0.5
-1.0 accompany -0.5
-1.0 fated -0.5
-1.0 fly -0.5
-1.0 trouble -0.5
-1.0 abroad -0.5
-1.0 reviewed -0.5
-1.0 riots -0.5
-1.0 istanbul -0.5
-1.0 enlivened -0.5
-1.0 nato -0.5
-1.0 between -0.5
-1.0 m. -0.5
-1.0 couve -0.5
-1.0 murville -0.5
-1.0 french -0.5
-1.0 man -0.5
-1.0 troubles -0.5
-1.0 home -0.5
-1.0 seems -0.5
-1.0 selwyn -0.5
-1.0 lloyd -0.5
-1.0 strikes -0.5
-1.0 ghana -0.5
-1.0 coinciding -0.5
-1.0 com- -0.5
-1.0 monwealth -0.5
-1.0 consultative -0.5
-1.0 ter -0.5
-1.0 24-strong -0.5
-1.0 delegation -0.5
-1.0 landed -0.5
-1.0 stores -0.5
-1.0 largest -0.5
-1.0 town -0.5
-1.0 africa -0.5
-1.0 only -0.5
-1.0 few -0.5
-1.0 hours -0.5
-1.0 af- -0.5
-1.0 demonstrated -0.5
-1.0 outside -0.5
-1.0 british-owned -0.5
-1.0 kingsway -0.5
-1.0 accra -0.5
-1.0 morning -0.5
-1.0 hundreds -0.5
-1.0 shop -0.5
-1.0 assistants -0.5
-1.0 including -0.5
-1.0 compulsory -0.5
-1.0 savings -0.5
-1.0 introduced -0.5
-1.0 july -0.5
-1.0 ghana's -0.5
-1.0 here -0.5
-1.0 storm -0.5
-1.0 nkrumah -0.5
-1.0 contribution -0.5
-1.0 neutrals' -0.5
-1.0 hit -0.5
-1.0 strike -0.5
-1.0 wave -0.5
-1.0 belgrade -0.5
-1.0 resumed -0.5
-1.0 holiday -0.5
-1.0 black -0.5
-1.0 root -0.5
-1.0 discontent -0.5
-1.0 austerity -0.5
-1.0 budget -0.5
-1.0 return -0.5
-1.0 sea -0.5
-1.0 professes -0.5
-1.0 paralysed -0.5
-1.0 port -0.5
-1.0 takoradi -0.5
-1.0 absence -0.5
-1.0 lieutenants -0.5
-1.0 raised -0.5
-1.0 strikers -0.5
-1.0 beginning -0.5
-1.0 him -0.5
-1.0 arm -0.5
-1.0 authority -0.5
-1.0 supreme -0.5
-1.0 law -0.5
-1.0 reports -0.5
-1.0 urged -0.5
-1.0 immediate -0.5
-1.0 ac- -0.5
-1.0 tell -0.5
-1.0 today's -0.5
-1.0 ghanaian -0.5
-1.0 times -0.5
-1.0 motto -0.5
-1.0 tion -0.5
-1.0 deal -0.5
-1.0 ruthlessly -0.5
-1.0 nkrumah's -0.5
-1.0 convention -0.5
-1.0 powerful -0.5
-1.0 addresses -0.5
-1.0 becomes -0.5
-1.0 offence -0.5
-1.0 punishable -0.5
-1.0 imprisonment -0.5
-1.0 essential -0.5
-1.0 ensure -0.5
-1.0 supplies -0.5
-1.0 thus -0.5
-1.0 maintain -0.5
-1.0 anyone -0.5
-1.0 publishes -0.5
-1.0 cause -0.5
-1.0 deeds -0.5
-1.0 followed -0.5
-1.0 words -0.5
-1.0 comrades -0.5
-1.0 krobo -0.5
-1.0 edusei -0.5
-1.0 tawia -0.5
-1.0 adamafio -0.5
-1.0 urge -0.5
-1.0 came -0.5
-1.0 activists -0.5
-1.0 alarm -0.5
-1.0 prejudicial -0.5
-1.0 safety -0.5
-1.0 emergency -0.5
-1.0 ? -0.5
-1.0 gave -0.5
-1.0 centre -0.5
-1.0 react -0.5
-1.0 convicted -0.5
-1.0 sabotage -0.5
-1.0 stern -0.5
-1.0 measures -0.5
-1.0 police -0.5
-1.0 16 -0.5
-1.0 armoured -0.5
-1.0 cars -0.5
-1.0 how -0.5
-1.0 holding -0.5
-1.0 presence -0.5
-1.0 1,400 -0.5
-1.0 ten -0.5
-1.0 years' -0.5
-1.0 imposed -0.5
-1.0 desired -0.5
-1.0 effect -0.5
-1.0 kumasi -0.5
-1.0 where -0.5
-1.0 you -0.5
-1.0 dispersed -0.5
-1.0 o'clock -0.5
-1.0 drove -0.5
-1.0 faced -0.5
-1.0 posse -0.5
-1.0 arrived -0.5
-1.0 less -0.5
-1.0 minutes -0.5
-1.0 crowd -0.5
-1.0 gone -0.5
-1.0 9.40 -0.5
-1.0 transport -0.5
-1.0 pro- -0.5
-1.0 demonstrators -0.5
-1.0 shopgirls -0.5
-1.0 overalls -0.5
-1.0 ' -0.5
-1.0 act -0.5
-1.0 five -0.5
-1.0 bably -0.5
-1.0 toughest -0.5
-1.0 occasion -0.5
-1.0 worthy -0.5
-1.0 suggested -0.5
-1.0 muster -0.5
-1.0 travels -0.5
-1.0 * -0.5
-1.0 threatened -0.5
-1.0 counter-revolution -0.5
-1.0 bring -0.5
-1.0 pressure -0.5
-1.0 disarming -0.5
-1.0 100 -0.5
-1.0 honours -0.5
-1.0 host -0.5
-1.0 capacity -0.5
-1.0 left -0.5
-1.0 however -0.5
-1.0 goka -0.5
-1.0 finance -0.5
-1.0 openly -0.5
-1.0 intimidating -0.5
-1.0 earl -0.5
-1.0 russell's -0.5
-1.0 nuclear- -0.5
-1.0 associates -0.5
-1.0 country -0.5
-1.0 reception -0.5
-1.0 tonight -0.5
-1.0 accra's -0.5
-1.0 hotel -0.5
-1.0 orders -0.5
-1.0 cabinet -0.5
-1.0 going -0.5
-1.0 pretext -0.5
-1.0 whatsoever -0.5
-1.0 except -0.5
-1.0 anti-apartheid -0.5
-1.0 agitation -0.5
-1.0 visiting -0.5
-1.0 phones -0.5
-1.0 tapped -0.5
-1.0 warned -0.5
-1.0 connection -0.5
-1.0 bow-street -0.5
-1.0 clark -0.5
-1.0 russell -0.5
-1.0 lady -0.5
-1.0 plain-clothes -0.5
-1.0 committee-member -0.5
-1.0 extraordinary -0.5
-1.0 things -0.5
-1.0 happening -0.5
-1.0 fifty -0.5
-1.0 third -0.5
-1.0 man's -0.5
-1.0 watched -0.5
-1.0 four -0.5
-1.0 boyd-orr -0.5
-1.0 rev. -0.5
-1.0 scott -0.5
-1.0 packing -0.5
-1.0 case -0.5
-1.0 chelsea -0.5
-1.0 american-born -0.5
-1.0 ralph -0.5
-1.0 schoenman -0.5
-1.0 putting -0.5
-1.0 affairs -0.5
-1.0 order -0.5
-1.0 persevere -0.5
-1.0 such -0.5
-1.0 unlawful -0.5
-1.0 peace -0.5
-1.0 breach -0.5
-1.0 disturbing -0.5
-1.0 required -0.5
-1.0 why -0.5
-1.0 89 -0.5
-1.0 summonses -0.5
-1.0 hopes -0.5
-1.0 allowed -0.5
-1.0 writing -0.5
-1.0 plant -0.5
-1.0 call -0.5
-1.0 suspect -0.5
-1.0 phone -0.5
-1.0 discussed -0.5
-1.0 sit-down -0.5
-1.0 watford -0.5
-1.0 5.30 -0.5
-1.0 p.m. -0.5
-1.0 none -0.5
-1.0 mean -0.5
-1.0 jail -0.5
-1.0 frail -0.5
-1.0 very -0.5
-1.0 fit -0.5
-1.0 rigours -0.5
-1.0 prison -0.5
-1.0 stride -0.5
-1.0 agree -0.5
-1.0 planned -0.5
-1.0 turned -0.5
-1.0 longer -0.5
-1.0 accepted -0.5
-1.0 faith -0.5
-1.0 parliament -0.5
-1.0 salisbury -0.5
-1.0 lawlessness -0.5
-1.0 among -0.5
-1.0 unip -0.5
-1.0 until -0.5
-1.0 outlawed -0.5
-1.0 1959 -0.5
-1.0 record -0.5
-1.0 monster -0.5
-1.0 vicious -0.5
-1.0 zambia -0.5
-1.0 long -0.5
-1.0 kaunda -0.5
-1.0 cited -0.5
-1.0 cases -0.5
-1.0 creating -0.5
-1.0 disturbances -0.5
-1.0 arrested -0.5
-1.0 500 -0.5
-1.0 167 -0.5
-1.0 weeks -0.5
-1.0 287 -0.5
-1.0 incidents -0.5
-1.0 province -0.5
-1.0 alone -0.5
-1.0 repeated -0.5
-1.0 statements -0.5
-1.0 compelled -0.5
-1.0 stimulated -0.5
-1.0 violence -0.5
-1.0 doing -0.5
-1.0 name -0.5
-1.0 non-violence -0.5
-1.0 don't -0.5
-1.0 accept -0.5
-1.0 followers -0.5
-1.0 mau -0.5
-1.0 kenya -0.5
-1.0 seem -0.5
-1.0 like -0.5
-1.0 true -0.5
-1.0 again -0.5
-1.0 absent -0.5
-1.0 child's -0.5
-1.0 picnic -0.5
-1.0 indulged -0.5
-1.0 pointed -0.5
-1.0 its -0.5
-1.0 happen -0.5
-1.0 months -0.5
-1.0 ago -0.5
-1.0 scotland -0.5
-1.0 summoned -0.5
-1.0 constitution -0.5
-1.0 provided -0.5
-1.0 john -0.5
-1.0 dickie -0.5
-1.0 writes -0.5
-1.0 top -0.5
-1.0 hold -0.5
-1.0 door -0.5
-1.0 open -0.5
-1.0 modifications -0.5
-1.0 duncan -0.5
-1.0 priority -0.5
-1.0 clash -0.5
-1.0 admiralty -0.5
-1.0 expected -0.5
-1.0 hour's -0.5
-1.0 nationalists -0.5
-1.0 ample -0.5
-1.0 evidence -0.5
-1.0 liberal -0.5
-1.0 leader -0.5
-1.0 bulk -0.5
-1.0 risk -0.5
-1.0 suggestion -0.5
-1.0 fresh -0.5
-1.0 concessions -0.5
-1.0 unless -0.5
-1.0 modified -0.5
-1.0 moderates -0.5
-1.0 reject -0.5
-1.0 moffat -0.5
-1.0 reaction -0.5
-1.0 set -0.5
-1.0 exacting -0.5
-1.0 airliner's -0.5
-1.0 airport -0.5
-1.0 gloucester -0.5
-1.0 kneeling -0.5
-1.0 heads -0.5
-1.0 bowed -0.5
-1.0 princess -0.5
-1.0 buganda -0.5
-1.0 king -0.5
-1.0 freddie -0.5
-1.0 aged -0.5
-1.0 24 -0.5
-1.0 history -0.5
-1.0 cambri- -0.5
-1.0 royal -0.5
-1.0 kabaka -0.5
-1.0 forty -0.5
-1.0 greeted -0.5
-1.0 dge -0.5
-1.0 she -0.5
-1.0 friend -0.5
-1.0 prince -0.5
-1.0 elizabeth -0.5
-1.0 bagaya -0.5
-1.0 toro -0.5
-1.0 settle -0.5
-1.0 relationships -0.5
-1.0 hereditary -0.5
-1.0 rulers -0.5
-1.0 question -0.5
-1.0 status -0.5
-1.0 independent -0.5
-1.0 uganda -0.5
-1.0 rest -0.5
-1.0 recognised -0.5
-1.0 rights -0.5
-1.0 recommended -0.5
-1.0 form -0.5
-1.0 native -0.5
-1.0 kingdoms -0.5
-1.0 thorniest -0.5
-1.0 week's -0.5
-1.0 constitutional -0.5
-1.0 opens -0.5
-1.0 kings -0.5
-1.0 yet -0.5
-1.0 presented -0.5
-1.0 mass -0.5
-1.0 rally -0.5
-1.0 anti-nuclear -0.5
-1.0 arms -0.5
-1.0 head-on -0.5
-1.0 biggest -0.5
-1.0 ban-the-bomb -0.5
-1.0 leave -0.5
-1.0 group -0.5
-1.0 sunday -0.5
-1.0 parliament-square -0.5
-1.0 views -0.5
-1.0 transmitted -0.5
-1.0 cancelled -0.5
-1.0 prepared -0.5
-1.0 wait -0.5
-1.0 hear -0.5
-1.0 conference's -0.5
-1.0 butler -0.5
-1.0 jailed -0.5
-1.0 committee's -0.5
-1.0 61-year-old -0.5
-1.0 wife -0.5
-1.0 each -0.5
-1.0 imprisoned -0.5
-1.0 89-year-old -0.5
-1.0 bolt -0.5
-1.0 flowering -0.5
-1.0 cherry -0.5
-1.0 playwrights -0.5
-1.0 arnold -0.5
-1.0 wesker -0.5
-1.0 kitchen -0.5
-1.0 32 -0.5
-1.0 authorised -0.5
-1.0 invoke -0.5
-1.0 1936 -0.5
-1.0 used -0.5
-1.0 square -0.5
-1.0 st. -0.5
-1.0 pancras -0.5
-1.0 rent -0.5
-1.0 declare -0.5
-1.0 illegal -0.5
-1.0 commissioner -0.5
-1.0 joseph -0.5
-1.0 simpson -0.5
-1.0 possibility -0.5
-1.0 draw -0.5
-1.0 battle -0.5
-1.0 750 -0.5
-1.0 policemen -0.5
-1.0 posted -0.5
-1.0 area -0.5
-1.0 end -0.5
-1.0 call-out -0.5
-1.0 special -0.5
-1.0 constables -0.5
-1.0 cannon-row -0.5
-1.0 outlying -0.5
-1.0 districts -0.5
-1.0 stations -0.5
-1.0 include -0.5
-1.0 1 -0.5
-1.0 particularly -0.5
-1.0 intensified -0.5
-1.0 nations -0.5
-1.0 exchanges -0.5
-1.0 known -0.5
-1.0 favoured -0.5
-1.0 joint -0.5
-1.0 nesia -0.5
-1.0 guest -0.5
-1.0 yugoslav -0.5
-1.0 seen -0.5
-1.0 wider -0.5
-1.0 basis -0.5
-1.0 tito -0.5
-1.0 example -0.5
-1.0 indo- -0.5
-1.0 activity -0.5
-1.0 neutralist -0.5
-1.0 leaders -0.5
-1.0 casablanca -0.5
-1.0 particular -0.5
-1.0 approval -0.5
-1.0 coordinate -0.5
-1.0 political -0.5
-1.0 extended -0.5
-1.0 also -0.5
-1.0 sphere -0.5
-1.0 difficult -0.5
-1.0 uncommitted -0.5
-1.0 world -0.5
-1.0 inter-african -0.5
-1.0 assembly -0.5
-1.0 apparent -0.5
-1.0 comments -0.5
-1.0 ripe -0.5
-1.0 frequent -0.5
-1.0 consultations -0.5
-1.0 work -0.5
-1.0 situation -0.5
-1.0 especially -0.5
-1.0 view -0.5
-1.0 facing -0.5
-1.0 stands -0.5
-1.0 various -0.5
-1.0 both -0.5
-1.0 subjects -0.5
-1.0 congo -0.5
-1.0 algeria -0.5
-1.0 topics -0.5
-1.0 feels -0.5
-1.0 changed -0.5
-1.0 international -0.5
-1.0 identical -0.5
-1.0 ideas -0.5
-1.0 earlier -0.5
-1.0 laos -0.5
-1.0 souvanna -0.5
-1.0 phouma -0.5
-1.0 former -0.5
-1.0 min- -0.5
-1.0 join -0.5
-1.0 ister -0.5
-1.0 phnom -0.5
-1.0 penh -0.5
-1.0 cambodia -0.5
-1.0 invite -0.5
-1.0 boun -0.5
-1.0 oum -0.5
-1.0 considering -0.5
-1.0 asking -0.5
-1.0 emissaries -0.5
-1.0 laotian -0.5
-1.0 strict -0.5
-1.0 neutrality -0.5
-1.0 1951 -0.5
-1.0 pro-western -0.5
-1.0 kingdom -0.5
-1.0 virtual -0.5
-1.0 partition -0.5
-1.0 recent -0.5
-1.0 himself -0.5
-1.0 legal -0.5
-1.0 pro-communist -0.5
-1.0 north -0.5
-1.0 indicate -0.5
-1.0 regards -0.5
-1.0 haksat -0.5
-1.0 officers -0.5
-1.0 souphannouvong -0.5
-1.0 occupying -0.5
-1.0 xieng -0.5
-1.0 addressed -0.5
-1.0 souvanna's -0.5
-1.0 claims -0.5
-1.0 neo -0.5
-1.0 lao -0.5
-1.0 forces -0.5
-1.0 khouang -0.5
-1.0 emphasized -0.5
-1.0 information -0.5
-1.0 quinim -0.5
-1.0 pholsena -0.5
-1.0 suggests -0.5
-1.0 well -0.5
-1.0 communists' -0.5
-1.0 base -0.5
-1.0 60 -0.5
-1.0 miles -0.5
-1.0 pro-communists -0.5
-1.0 emphasis -0.5
-1.0 legality -0.5
-1.0 firmly -0.5
-1.0 hands -0.5
-1.0 tactically -0.5
-1.0 plain -0.5
-1.0 jars -0.5
-1.0 recapture -0.5
-1.0 vang -0.5
-1.0 vieng -0.5
-1.0 vientiane -0.5
-1.0 160 -0.5
-1.0 speeches -0.5
-1.0 80 -0.5
-1.0 constituencies -0.5
-1.0 10 -0.5
-1.0 grass -0.5
-1.0 roots -0.5
-1.0 village -0.5
-1.0 correspondent -0.5
-1.0 travelled -0.5
-1.0 within -0.5
-1.0 lester -0.5
-1.0 pearson -0.5
-1.0 chosen -0.5
-1.0 sunning -0.5
-1.0 jamaica -0.5
-1.0 2,000 -0.5
-1.0 gathering -0.5
-1.0 ways -0.5
-1.0 testing -0.5
-1.0 concentrate -0.5
-1.0 laying -0.5
-1.0 foundations -0.5
-1.0 win -0.5
-1.0 else -0.5
-1.0 sight -0.5
-1.0 supplant -0.5
-1.0 ments -0.5
-1.0 air -0.5
-1.0 electoral -0.5
-1.0 expectancy -0.5
-1.0 unassailable -0.5
-1.0 simply -0.5
-1.0 spite -0.5
-1.0 carefully -0.5
-1.0 worded -0.5
-1.0 comes -0.5
-1.0 although -0.5
-1.0 think -0.5
-1.0 basing -0.5
-1.0 unemployment -0.5
-1.0 uncertain -0.5
-1.0 illusion -0.5
-1.0 nevertheless -0.5
-1.0 little -0.5
-1.0 booklet -0.5
-1.0 speaks -0.5
-1.0 outlines -0.5
-1.0 detail -0.5
-1.0 accomplishments -0.5
-1.0 stock -0.5
-1.0 saw -0.5
-1.0 maritimes -0.5
-1.0 restigouche -0.5
-1.0 madawaska -0.5
-1.0 brunswick -0.5
-1.0 leeds -0.5
-1.0 ontario -0.5
-1.0 provincial -0.5
-1.0 quebec -0.5
-1.0 island -0.5
-1.0 by-elections -0.5
-1.0 october -0.5
-1.0 elections -0.5
-1.0 esquimalt -0.5
-1.0 saanich -0.5
-1.0 columbia -0.5
-1.0 fared -0.5
-1.0 badly -0.5
-1.0 by- -0.5
-1.0 strongholds -0.5
-1.0 september -0.5
-1.0 autumn -0.5
-1.0 38 -0.5
-1.0 cent -0.5
-1.0 1957 -0.5
-1.0 ahead -0.5
-1.0 poll -0.5
-1.0 showed -0.5
-1.0 conservatives -0.5
-1.0 12 -0.5
-1.0 c.c.f. -0.5
-1.0 grits -0.5
-1.0 diefenbaker -0.5
-1.0 popularity -0.5
-1.0 individual -0.5
-1.0 separate -0.5
-1.0 34 -0.5
-1.0 36 -0.5
-1.0 acceptable -0.5
-1.0 algoma -0.5
-1.0 east -0.5
-1.0 baker -0.5
-1.0 campaigns -0.5
-1.0 chancery -0.5
-1.0 corridors -0.5
-1.0 impression -0.5
-1.0 father -0.5
-1.0 figure -0.5
-1.0 necessary -0.5
-1.0 hustings -0.5
-1.0 spellbinder -0.5
-1.0 diefen- -0.5
-1.0 politician -0.5
-1.0 talk -0.5
-1.0 sewage -0.5
-1.0 diplomatist -0.5
-1.0 canadian -0.5
-1.0 practical -0.5
-1.0 role -0.5
-1.0 popular -0.5
-1.0 orator -0.5
-1.0 regard -0.5
-1.0 sort -0.5
-1.0 cross -0.5
-1.0 correct -0.5
-1.0 image -0.5
-1.0 bow -0.5
-1.0 tie -0.5
-1.0 experts -0.5
-1.0 hand -0.5
-1.0 excels -0.5
-1.0 techniques -0.5
-1.0 coached -0.5
-1.0 advisers -0.5
-1.0 trying -0.5
-1.0 egghead -0.5
-1.0 missionary -0.5
-1.0 informally -0.5
-1.0 lessons -0.5
-1.0 skill -0.5
-1.0 ammunition -0.5
-1.0 given -0.5
-1.0 gov- -0.5
-1.0 everything -0.5
-1.0 promote -0.5
-1.0 ernment -0.5
-1.0 sessions -0.5
-1.0 lessly -0.5
-1.0 trounced -0.5
-1.0 certainly -0.5
-1.0 assurance -0.5
-1.0 match -0.5
-1.0 across -0.5
-1.0 floor -0.5
-1.0 plenty -0.5
-1.0 hard -0.5
-1.0 road -0.5
-1.0 go -0.5
-1.0 topic -0.5
-1.0 review -0.5
-1.0 provinces -0.5
-1.0 committees -0.5
-1.0 examining -0.5
-1.0 increasingly -0.5
-1.0 confident -0.5
-1.0 ranging -0.5
-1.0 investment -0.5
-1.0 dynamic -0.5
-1.0 liberalism -0.5
-1.0 talking -0.5
-1.0 atlantic -0.5
-1.0 perhaps -0.5
-1.0 mike -0.5
-1.0 sentence -0.5
-1.0 database -0.5
-1.0 21 -0.5
-1.0 project -0.5
-1.0 european -0.5
-1.0 space -0.5
-1.0 satellite -0.5
-1.0 stated -0.5
-1.0 unconvinced -0.5
-1.0 interested -0.5
-1.0 research -0.5
-1.0 rather -0.5
-1.0 primarily -0.5
-1.0 effort -0.5
-1.0 part -0.5
-1.0 thorneycroft -0.5
-1.0 aviation -0.5
-1.0 arrives -0.5
-1.0 purely -0.5
-1.0 scientific -0.5
-1.0 character -0.5
-1.0 bonn -0.5
-1.0 tomorrow -0.5
-1.0 salve -0.5
-1.0 blue -0.5
-1.0 streak -0.5
-1.0 summer -0.5
-1.0 sceptical -0.5
-1.0 organizing -0.5
-1.0 find -0.5
-1.0 germans -0.5
-1.0 involved -0.5
-1.0 really -0.5
-1.0 worth -0.5
-1.0 budgetary -0.5
-1.0 commitments -0.5
-1.0 remove -0.5
-1.0 doubts -0.5
-1.0 persuade -0.5
-1.0 thorneycroft's -0.5
-1.0 purpose -0.5
-1.0 rise -0.5
-1.0 something -0.5
-1.0 almost -0.5
-1.0 involve -0.5
-1.0 corresponding -0.5
-1.0 contemplate -0.5
-1.0 burden -0.5
-1.0 efforts -0.5
-1.0 die -0.5
-1.0 welt -0.5
-1.0 convinced -0.5
-1.0 reason -0.5
-1.0 justified -0.5
-1.0 highly -0.5
-1.0 critical -0.5
-1.0 editorial -0.5
-1.0 article -0.5
-1.0 duplicating -0.5
-1.0 extent -0.5
-1.0 merely -0.5
-1.0 constitute -0.5
-1.0 prestige -0.5
-1.0 stage -0.5
-1.0 reached -0.5
-1.0 sufficient -0.5
-1.0 specific -0.5
-1.0 use -0.5
-1.0 outer -0.5
-1.0 rocket -0.5
-1.0 knight -0.5
-1.0 veronique -0.5
-1.0 adaptation -0.5
-1.0 launcher -0.5
-1.0 europe -0.5
-1.0 adopting -0.5
-1.0 task -0.5
-1.0 stages -0.5
-1.0 already -0.5
-1.0 capsule -0.5
-1.0 lesser -0.5
-1.0 obstacle -0.5
-1.0 responsible -0.5
-1.0 added -0.5
-1.0 treaty -0.5
-1.0 therefore -0.5
-1.0 concluded -0.5
-1.0 cooperation -0.5
-1.0 type -0.5
-1.0 irrelevant -0.5
-1.0 funds -0.5
-1.0 appropriated -0.5
-1.0 participation -0.5
-1.0 backbone -0.5
-1.0 eventually -0.5
-1.0 replace -0.5
-1.0 fiat -0.5
-1.0 g-91 -0.5
-1.0 f -0.5
-1.0 104 -0.5
-1.0 starfighter -0.5
-1.0 force -0.5
-1.0 discussion -0.5
-1.0 renewed -0.5
-1.0 harold -0.5
-1.0 arose -0.5
-1.0 following -0.5
-1.0 reservations -0.5
-1.0 clear -0.5
-1.0 laid -0.5
-1.0 outcome -0.5
-1.0 bundy -0.5
-1.0 president's -0.5
-1.0 assistant -0.5
-1.0 meant -0.5
-1.0 unconditional -0.5
-1.0 surrender -0.5
-1.0 wanted -0.5
-1.0 apply -0.5
-1.0 membership -0.5
-1.0 brief -0.5
-1.0 berlin -0.5
-1.0 krushchov -0.5
-1.0 exception -0.5
-1.0 40 -0.5
-1.0 informed -0.5
-1.0 questions -0.5
-1.0 security -0.5
-1.0 talked -0.5
-1.0 mcgeorge -0.5
-1.0 evening -0.5
-1.0 flew -0.5
-1.0 arrive -0.5
-1.0 attempt -0.5
-1.0 broadcast -0.5
-1.0 afternoon -0.5
-1.0 m.p.s -0.5
-1.0 30-minute -0.5
-1.0 nation-wide -0.5
-1.0 co-operation -0.5
-1.0 expansion -0.5
-1.0 purposes -0.5
-1.0 close -0.5
-1.0 agreement -0.5
-1.0 pursuing -0.5
-1.0 covered -0.5
-1.0 major -0.5
-1.0 communique -0.5
-1.0 macmillan's -0.5
-1.0 key -0.5
-1.0 florida -0.5
-1.0 developed -0.5
-1.0 underdeveloped -0.5
-1.0 alike -0.5
-1.0 lead -0.5
-1.0 toward -0.5
-1.0 noted -0.5
-1.0 satisfaction -0.5
-1.0 geneva -0.5
-1.0 attention -0.5
-1.0 vienna -0.5
-1.0 effective -0.5
-1.0 ceasefire -0.5
-1.0 necessity -0.5
-1.0 maintaining -0.5
-1.0 obligations -0.5
-1.0 allied -0.5
-1.0 tests -0.5
-1.0 disarmament -0.5
-1.0 dorothy -0.5
-1.0 mrs. -0.5
-1.0 pessimistic -0.5
-1.0 formal -0.5
-1.0 lunch -0.5
-1.0 90-minute -0.5
-1.0 briefing -0.5
-1.0 15-nation -0.5
-1.0 listeners -0.5
-1.0 guests -0.5
-1.0 dean -0.5
-1.0 rusk -0.5
-1.0 u.s. -0.5
-1.0 slight -0.5
-1.0 improvement -0.5
-1.0 buckingham -0.5
-1.0 palace -0.5
-1.0 dinner -0.5
-1.0 duesseldorf -0.5
-1.0 moscow -0.5
-1.0 spirits -0.5
-1.0 returned -0.5
-1.0 dennis -0.5
-1.0 ogden -0.5
-1.0 events -0.5
-1.0 hope -0.5
-1.0 soviet -0.5
-1.0 newspaper -0.5
-1.0 pravda -0.5
-1.0 striving -0.5
-1.0 stable -0.5
-1.0 relaxed -0.5
-1.0 smiling -0.5
-1.0 clearly -0.5
-1.0 goodwill -0.5
-1.0 hate -0.5
-1.0 cold -0.5
-1.0 indonesian -0.5
-1.0 students -0.5
-1.0 broke -0.5
-1.0 crash -0.5
-1.0 barriers -0.5
-1.0 surround -0.5
-1.0 tarmac -0.5
-1.0 cheering -0.5
-1.0 delighted -0.5
-1.0 sukarno -0.5
-1.0 brezhnev -0.5
-1.0 welcoming -0.5
-1.0 indonesia -0.5
-1.0 boeing -0.5
-1.0 707 -0.5
-1.0 jet -0.5
-1.0 peace-loving -0.5
-1.0 khrushchov -0.5
-1.0 thinking -0.5
-1.0 results -0.5
-1.0 establish -0.5
-1.0 enduring -0.5
-1.0 union -0.5
-1.0 striven -0.5
-1.0 hoped -0.5
-1.0 weekend -0.5
-1.0 peoples -0.5
-1.0 secure -0.5
-1.0 solution -0.5
-1.0 schaerf -0.5
-1.0 thanked -0.5
-1.0 austria -0.5
-1.0 flying -0.5
-1.0 replying -0.5
-1.0 farewell -0.5
-1.0 austrian -0.5
-1.0 hospitality -0.5
-1.0 implication -0.5
-1.0 supported -0.5
-1.0 establishment -0.5
-1.0 polaris -0.5
-1.0 weapons -0.5
-1.0 defend -0.5
-1.0 sites -0.5
-1.0 training -0.5
-1.0 delivered -0.5
-1.0 full-blooded -0.5
-1.0 depend -0.5
-1.0 theme -0.5
-1.0 widespread -0.5
-1.0 resentment -0.5
-1.0 tactics -0.5
-1.0 switching -0.5
-1.0 sure -0.5
-1.0 movement -0.5
-1.0 coming -0.5
-1.0 municipal -0.5
-1.0 workers -0.5
-1.0 felt -0.5
-1.0 addressing -0.5
-1.0 annual -0.5
-1.0 unilateral -0.5
-1.0 changing -0.5
-1.0 obviously -0.5
-1.0 conscious -0.5
-1.0 fierce -0.5
-1.0 noticed -0.5
-1.0 date -0.5
-1.0 vulnerable -0.5
-1.0 thor -0.5
-1.0 missiles -0.5
-1.0 refuse -0.5
-1.0 alliance -0.5
-1.0 attract -0.5
-1.0 enemy -0.5
-1.0 deny -0.5
-1.0 facilities -0.5
-1.0 weapon -0.5
-1.0 retaliatory -0.5
-1.0 somewhere -0.5
-1.0 oppose -0.5
-1.0 depot -0.5
-1.0 ship -0.5
-1.0 argument -0.5
-1.0 submarine -0.5
-1.0 land -0.5
-1.0 remote -0.5
-1.0 city -0.5
-1.0 million -0.5
-1.0 sited -0.5
-1.0 unwise -0.5
-1.0 locate -0.5
-1.0 holy -0.5
-1.0 loch -0.5
-1.0 30 -0.5
-1.0 glasgow -0.5
-1.0 scarborough -0.5
-1.0 decisions -0.5
-1.0 truly -0.5
-1.0 reflect -0.5
-1.0 opinions -0.5
-1.0 organise -0.5
-1.0 respected -0.5
-1.0 document -0.5
-1.0 shift -0.5
-1.0 recommending -0.5
-1.0 intervention -0.5
-1.0 away -0.5
-1.0 straight -0.5
-1.0 unilateralists -0.5
-1.0 begin -0.5
-1.0 zone -0.5
-1.0 controlled -0.5
-1.0 seriously -0.5
-1.0 danger -0.5
-1.0 spread -0.5
-1.0 opportunity -0.5
-1.0 reach -0.5
-1.0 inter-union -0.5
-1.0 jealousies -0.5
-1.0 prevent -0.5
-1.0 great -0.5
-1.0 period -0.5
-1.0 jack -0.5
-1.0 cooper -0.5
-1.0 fulfilment -0.5
-1.0 wages -0.5
-1.0 chance -0.5
-1.0 grasped -0.5
-1.0 declaring -0.5
-1.0 matter -0.5
-1.0 consideration -0.5
-1.0 modification -0.5
-1.0 structures -0.5
-1.0 regrouping -0.5
-1.0 unions -0.5
-1.0 trades -0.5
-1.0 concentration -0.5
-1.0 urgent -0.5
-1.0 serving -0.5
-1.0 consider -0.5
-1.0 capital -0.5
-1.0 argued -0.5
-1.0 industrial -0.5
-1.0 along -0.5
-1.0 section -0.5
-1.0 bases -0.5
-1.0 suggesting -0.5
-1.0 total -0.5
-1.0 t.u.c. -0.5
-1.0 written -0.5
-1.0 hoping -0.5
-1.0 compared -0.5
-1.0 needed -0.5
-1.0 examination -0.5
-1.0 protests -0.5
-1.0 territory -0.5
-1.0 larger -0.5
-1.0 notice -0.5
-1.0 elsewhere -0.5
-1.0 regrettable -0.5
-1.0 kinds -0.5
-1.0 reasons -0.5
-1.0 justify -0.5
-1.0 generated -0.5
-1.0 antagonism -0.5
-1.0 carry -0.5
-1.0 weight -0.5
-1.0 says -0.5
-1.0 inevitable -0.5
-1.0 profoundly -0.5
-1.0 hitherto -0.5
-1.0 cordial -0.5
-1.0 importance -0.5
-1.0 pre- -0.5
-1.0 circles -0.5
-1.0 submarines -0.5
-1.0 argues -0.5
-1.0 exercise -0.5
-1.0 degree -0.5
-1.0 control -0.5
-1.0 impossible -0.5
-1.0 authorities -0.5
-1.0 distinct -0.5
-1.0 retaliate -0.5
-1.0 add -0.5
-1.0 anything -0.5
-1.0 strength -0.5
-1.0 questionable -0.5
-1.0 hour -0.5
-1.0 contrary -0.5
-1.0 impose -0.5
-1.0 upon -0.5
-1.0 onerous -0.5
-1.0 destroy -0.5
-1.0 population -0.5
-1.0 provoking -0.5
-1.0 retaliation -0.5
-1.0 prove -0.5
-1.0 fulfil -0.5
-1.0 permission -0.5
-1.0 our -0.5
-1.0 prevention -0.5
-1.0 rapidly -0.5
-1.0 preventing -0.5
-1.0 neutral -0.5
-1.0 body -0.5
-1.0 interest -0.5
-1.0 suggest -0.5
-1.0 agreements -0.5
-1.0 integrated -0.5
-1.0 greater -0.5
-1.0 aim -0.5
-1.0 produce -0.5
-1.0 superbly -0.5
-1.0 published -0.5
-1.0 march -0.5
-1.0 white -0.5
-1.0 paper -0.5
-1.0 contain -0.5
-1.0 five-year -0.5
-1.0 plan -0.5
-1.0 equipped -0.5
-1.0 all-regular -0.5
-1.0 ever -0.5
-1.0 minister's -0.5
-1.0 operations -0.5
-1.0 contemplated -0.5
-1.0 navy -0.5
-1.0 army -0.5
-1.0 structure -0.5
-1.0 administrative -0.5
-1.0 organisation -0.5
-1.0 watkinson -0.5
-1.0 become -0.5
-1.0 complete -0.5
-1.0 levels -0.5
-1.0 working -0.5
-1.0 single -0.5
-1.0 short -0.5
-1.0 wearing -0.5
-1.0 uniform -0.5
-1.0 worked -0.5
-1.0 overseas -0.5
-1.0 aspects -0.5
-1.0 staff -0.5
-1.0 process -0.5
-1.0 numerous -0.5
-1.0 meetings -0.5
-1.0 vinced -0.5
-1.0 initiated -0.5
-1.0 tradition -0.5
-1.0 sandys's -0.5
-1.0 voluntary -0.5
-1.0 1962 -0.5
-1.0 serviceman -0.5
-1.0 entirely -0.5
-1.0 discounted -0.5
-1.0 does -0.5
-1.0 achieved -0.5
-1.0 eventual -0.5
-1.0 engagement -0.5
-1.0 resorted -0.5
-1.0 trend -0.5
-1.0 recruiting -0.5
-1.0 figures -0.5
-1.0 encouraging -0.5
-1.0 aspect -0.5
-1.0 truth -0.5
-1.0 suggestions -0.5
-1.0 serve -0.5
-1.0 odds -0.5
-1.0 modern -0.5
-1.0 dispense -0.5
-1.0 minimum -0.5
-1.0 require -0.5
-1.0 enable -0.5
-1.0 criticisms -0.5
-1.0 manpower -0.5
-1.0 mainly -0.5
-1.0 retired -0.5
-1.0 francis -0.5
-1.0 festing -0.5
-1.0 completely -0.5
-1.0 equally -0.5
-1.0 gen. -0.5
-1.0 richard -0.5
-1.0 hull -0.5
-1.0 succeed -0.5
-1.0 high -0.5
-1.0 positions -0.5
-1.0 utmost -0.5
-1.0 c.i.g.s. -0.5
-1.0 field-marshal -0.5
-1.0 existing -0.5
-1.0 concentrated -0.5
-1.0 important -0.5
-1.0 moment -0.5
-1.0 nov. -0.5
-1.0 hand-over -0.5
-1.0 stayed -0.5
-1.0 sacrificed -0.5
-1.0 delayed -0.5
-1.0 yesterday's -0.5
-1.0 computed -0.5
-1.0 8.4 -0.5
-1.0 swing -0.5
-1.0 implies -0.5
-1.0 dis- -0.5
-1.0 fontein -0.5
-1.0 transvaal -0.5
-1.0 slightly -0.5
-1.0 lawrence -0.5
-1.0 standing -0.5
-1.0 progressive -0.5
-1.0 bloem- -0.5
-1.0 appearance -0.5
-1.0 majorities -0.5
-1.0 cape -0.5
-1.0 veteran -0.5
-1.0 verwoerd -0.5
-1.0 steytler -0.5
-1.0 plewman -0.5
-1.0 progressives -0.5
-1.0 deprived -0.5
-1.0 afterwards -0.5
-1.0 candidate -0.5
-1.0 dates -0.5
-1.0 unopposed -0.5
-1.0 contests -0.5
-1.0 86 -0.5
-1.0 seats -0.5
-1.0 70 -0.5
-1.0 announced -0.5
-1.0 candi- -0.5
-1.0 villiers -0.5
-1.0 graaff -0.5
-1.0 evident -0.5
-1.0 voters -0.5
-1.0 bored -0.5
-1.0 apathetic -0.5
-1.0 country's -0.5
-1.0 government's -0.5
-1.0 appeals -0.5
-1.0 electorate -0.5
-1.0 fourth -0.5
-1.0 rhine -0.5
-1.0 footing -0.5
-1.0 polling -0.5
-1.0 8 -0.5
-1.0 parliamentary -0.5
-1.0 recess -0.5
-1.0 mobilise -0.5
-1.0 recall -0.5
-1.0 kind -0.5
-1.0 division -0.5
-1.0 further -0.5
-1.0 deterioration -0.5
-1.0 warranted -0.5
-1.0 step -0.5
-1.0 error -0.5
-1.0 winding -0.5
-1.0 debate -0.5
-1.0 accompanied -0.5
-1.0 hesitation -0.5
-1.0 mobilising -0.5
-1.0 accepting -0.5
-1.0 council's -0.5
-1.0 findings -0.5
-1.0 reassess -0.5
-1.0 asked -0.5
-1.0 afraid -0.5
-1.0 negotiation -0.5
-1.0 godber -0.5
-1.0 fall-out -0.5
-1.0 russian -0.5
-1.0 rattled -0.5
-1.0 appeasement -0.5
-1.0 surest -0.5
-1.0 avert -0.5
-1.0 eden -0.5
-1.0 maiden -0.5
-1.0 vigour -0.5
-1.0 stand -0.5
-1.0 firm -0.5
-1.0 avon -0.5
-1.0 anthony -0.5
-1.0 friends -0.5
-1.0 foes -0.5
-1.0 warning -0.5
-1.0 asia -0.5
-1.0 canard -0.5
-1.0 wound -0.5
-1.0 accent -0.5
-1.0 urgency -0.5
-1.0 passed -0.5
-1.0 rapid -0.5
-1.0 tone -0.5
-1.0 voice -0.5
-1.0 rose -0.5
-1.0 began -0.5
-1.0 low -0.5
-1.0 chatty -0.5
-1.0 mono- -0.5
-1.0 curious -0.5
-1.0 two-day -0.5
-1.0 secretariat -0.5
-1.0 kuwait -0.5
-1.0 south-east -0.5
-1.0 spent -0.5
-1.0 half-hour -0.5
-1.0 irrevocable -0.5
-1.0 myth -0.5
-1.0 betrayal -0.5
-1.0 shown -0.5
-1.0 undertaken -0.5
-1.0 variety -0.5
-1.0 allies -0.5
-1.0 certain -0.5
-1.0 russians -0.5
-1.0 deplored -0.5
-1.0 thoroughly -0.5
-1.0 unde- -0.5
-1.0 proclamation -0.5
-1.0 sirable -0.5
-1.0 atmosphere -0.5
-1.0 panic -0.5
-1.0 fully -0.5
-1.0 active -0.5
-1.0 explained -0.5
-1.0 deliber- -0.5
-1.0 ately -0.5
-1.0 refrained -0.5
-1.0 hopeful -0.5
-1.0 recalling -0.5
-1.0 ordering -0.5
-1.0 mobilisation -0.5
-1.0 remarkable -0.5
-1.0 sub-normality -0.5
-1.0 substance -0.5
-1.0 fever -0.5
-1.0 pitch -0.5
-1.0 temperature -0.5
-1.0 listening -0.5
-1.0 peers' -0.5
-1.0 gallery -0.5
-1.0 throughout -0.5
-1.0 realised -0.5
-1.0 seriousness -0.5
-1.0 attitude -0.5
-1.0 studied -0.5
-1.0 calm -0.5
-1.0 pedantic -0.5
-1.0 severely -0.5
-1.0 rated -0.5
-1.0 predecessor -0.5
-1.0 censured -0.5
-1.0 shinwell -0.5
-1.0 read -0.5
-1.0 strictures -0.5
-1.0 healey -0.5
-1.0 shadow -0.5
-1.0 described -0.5
-1.0 plaintive -0.5
-1.0 wailings -0.5
-1.0 obscure -0.5
-1.0 damaging -0.5
-1.0 speakers -0.5
-1.0 debates -0.5
-1.0 tilt -0.5
-1.0 boys -0.5
-1.0 to-night's -0.5
-1.0 golf-course -0.5
-1.0 range -0.5
-1.0 widely -0.5
-1.0 remind -0.5
-1.0 business -0.5
-1.0 removed -0.5
-1.0 jackets -0.5
-1.0 rugby -0.5
-1.0 tom -0.5
-1.0 brown's -0.5
-1.0 schooldays -0.5
-1.0 metaphorical -0.5
-1.0 braces -0.5
-1.0 visible -0.5
-1.0 display -0.5
-1.0 flabby -0.5
-1.0 limitation -0.5
-1.0 armaments -0.5
-1.0 prohibition -0.5
-1.0 production -0.5
-1.0 atomic -0.5
-1.0 territories -0.5
-1.0 ellis -0.5
-1.0 smith -0.5
-1.0 lab. -0.5
-1.0 stoke -0.5
-1.0 trent -0.5
-1.0 s. -0.5
-1.0 reference -0.5
-1.0 reunification -0.5
-1.0 linked -0.5
-1.0 bark -0.5
-1.0 start -0.5
-1.0 ! -0.5
-1.0 inspection -0.5
-1.0 launched -0.5
-1.0 pet -0.5
-1.0 rebuked -0.5
-1.0 unaligned -0.5
-1.0 bingo-parlour -0.5
-1.0 temple -0.5
-1.0 religion -0.5
-1.0 using -0.5
-1.0 double -0.5
-1.0 standards -0.5
-1.0 denounced -0.5
-1.0 angola -0.5
-1.0 condemning -0.5
-1.0 moral -0.5
-1.0 attitudes -0.5
-1.0 themselves -0.5
-1.0 condemnation -0.5
-1.0 failed -0.5
-1.0 detect -0.5
-1.0 cult -0.5
-1.0 success -0.5
-1.0 rallied -0.5
-1.0 godber's -0.5
-1.0 performance -0.5
-1.0 merited -0.5
-1.0 mild -0.5
-1.0 scorn -0.5
-1.0 heaped -0.5
-1.0 puzzled -0.5
-1.0 comparative -0.5
-1.0 partial -0.5
-1.0 coolly -0.5
-1.0 snubbed -0.5
-1.0 sahara -0.5
-1.0 grounds -0.5
-1.0 happy -0.5
-1.0 her -0.5
-1.0 failure -0.5
-1.0 condemn -0.5
-1.0 ones -0.5
-1.0 thomas -0.5
-1.0 m.p. -0.5
-1.0 leicester -0.5
-1.0 n.e. -0.5
-1.0 resembles -0.5
-1.0 elephant -0.5
-1.0 otherwise -0.5
-1.0 endearing -0.5
-1.0 creature -0.5
-1.0 solicitor-general -0.5
-1.0 barbara -0.5
-1.0 cliche-ridden -0.5
-1.0 articulation -0.5
-1.0 reminiscent -0.5
-1.0 nursemaid -0.5
-1.0 illegitimate -0.5
-1.0 baby -0.5
-1.0 muttered -0.5
-1.0 series -0.5
-1.0 sighs -0.5
-1.0 lynn -0.5
-1.0 ungoed- -0.5
-1.0 protest -0.5
-1.0 crime -0.5
-1.0 humanity -0.5
-1.0 sympathisers -0.5
-1.0 khruschev -0.5
-1.0 embassy -0.5
-1.0 canon -0.5
-1.0 collins -0.5
-1.0 chairman -0.5
-1.0 condemned -0.5
-1.0 pollution -0.5
-1.0 world's -0.5
-1.0 signed -0.5
-1.0 lobby -0.5
-1.0 formed -0.5
-1.0 queue -0.5
-1.0 stretching -0.5
-1.0 bomb -0.5
-1.0 thronged -0.5
-1.0 ban-the- -0.5
-1.0 yard -0.5
-1.0 lobbied -0.5
-1.0 harangued -0.5
-1.0 200 -0.5
-1.0 yards -0.5
-1.0 catch -0.5
-1.0 speculators -0.5
-1.0 shares -0.5
-1.0 property -0.5
-1.0 speed -0.5
-1.0 escape -0.5
-1.0 tax -0.5
-1.0 tuesday -0.5
-1.0 dramatically -0.5
-1.0 hint -0.5
-1.0 bowing -0.5
-1.0 retrospective -0.5
-1.0 legislation -0.5
-1.0 companies -0.5
-1.0 dealers -0.5
-1.0 chain -0.5
-1.0 buying -0.5
-1.0 selling -0.5
-1.0 boyle -0.5
-1.0 stagging -0.5
-1.0 describe -0.5
-1.0 speaking -0.5
-1.0 whispered -0.5
-1.0 conversation -0.5
-1.0 legislate -0.5
-1.0 wilson -0.5
-1.0 wouldn't -0.5
-1.0 jumped -0.5
-1.0 management -0.5
-1.0 passage -0.5
-1.0 wilson's -0.5
-1.0 mind -0.5
-1.0 guy -0.5
-1.0 commit -0.5
-1.0 suicide -0.5
-1.0 tuc's -0.5
-1.0 frank -0.5
-1.0 foulkes -0.5
-1.0 quick -0.5
-1.0 in-and-out -0.5
-1.0 speculator -0.5
-1.0 deals -0.5
-1.0 nodded -0.5
-1.0 invitation -0.5
-1.0 affected -0.5
-1.0 genuine -0.5
-1.0 investors -0.5
-1.0 etu -0.5
-1.0 etu. -0.5
-1.0 reply -0.5
-1.0 resignation -0.5
-1.0 rules -0.5
-1.0 hara-kiri -0.5
-1.0 resigns -0.5
-1.0 2 -0.5
-1.0 1/2 -0.5
-1.0 retire -0.5
-1.0 announcing -0.5
-1.0 executive's -0.5
-1.0 ultimatum -0.5
-1.0 tuc -0.5
-1.0 sub-committees -0.5
-1.0 strip -0.5
-1.0 byrne -0.5
-1.0 powers -0.5
-1.0 disband -0.5
-1.0 demands -0.5
-1.0 communists -0.5
-1.0 unwarranted -0.5
-1.0 postpone -0.5
-1.0 operation -0.5
-1.0 sub- -0.5
-1.0 executive -0.5
-1.0 unacceptable -0.5
-1.0 small -0.5
-1.0 craft -0.5
-1.0 destroying -0.5
-1.0 light -0.5
-1.0 preparations -0.5
-1.0 launching -0.5
-1.0 leningrad -0.5
-1.0 thousands -0.5
-1.0 heat -0.5
-1.0 treatment -0.5
-1.0 rockets -0.5
-1.0 applauding -0.5
-1.0 river -0.5
-1.0 banks -0.5
-1.0 ships -0.5
-1.0 automatically -0.5
-1.0 inspiring -0.5
-1.0 proud -0.5
-1.0 radio's -0.5
-1.0 momentous -0.5
-1.0 rocket- -0.5
-1.0 announcement -0.5
-1.0 warsaw -0.5
-1.0 pact -0.5
-1.0 naval -0.5
-1.0 commentator -0.5
-1.0 parade -0.5
-1.0 marshal -0.5
-1.0 andrei -0.5
-1.0 grechko -0.5
-1.0 commanding -0.5
-1.0 carrying -0.5
-1.0 disastrous -0.5
-1.0 thing -0.5
-1.0 generations -0.5
-1.0 signalling -0.5
-1.0 fell -0.5
-1.0 resign -0.5
-1.0 outburst -0.5
-1.0 shocked -0.5
-1.0 mps -0.5
-1.0 yarmouth -0.5
-1.0 shocking -0.5
-1.0 parts -0.5
-1.0 side -0.5
-1.0 waved -0.5
-1.0 just -0.5
-1.0 inside -0.5
-1.0 middle -0.5
-1.0 amazing -0.5
-1.0 scene -0.5
-1.0 appeared -0.5
-1.0 tears -0.5
-1.0 loud -0.5
-1.0 cries -0.5
-1.0 shame -0.5
-1.0 chamber -0.5
-1.0 doorway -0.5
-1.0 looking -0.5
-1.0 supporter -0.5
-1.0 thinks -0.5
-1.0 accused -0.5
-1.0 disaster -0.5
-1.0 infuriate -0.5
-1.0 rebels -0.5
-1.0 fell's -0.5
-1.0 unprecedented -0.5
-1.0 aired -0.5
-1.0 thursday -0.5
-1.0 apparently -0.5
-1.0 assessment -0.5
-1.0 maximised -0.5
-1.0 ferocity -0.5
-1.0 attacks -0.5
-1.0 confined -0.5
-1.0 observation -0.5
-1.0 intention -0.5
-1.0 partners -0.5
-1.0 community -0.5
-1.0 prior -0.5
-1.0 near -0.5
-1.0 crowded -0.5
-1.0 williams -0.5
-1.0 conclusion -0.5
-1.0 application -0.5
-1.0 earnest -0.5
-1.0 paul -0.5
-1.0 cons. -0.5
-1.0 sunderland -0.5
-1.0 associate -0.5
-1.0 majesty's -0.5
-1.0 serjeant -0.5
-1.0 arms' -0.5
-1.0 chair -0.5
-1.0 critics -0.5
-1.0 took -0.5
-1.0 hidden -0.5
-1.0 play -0.5
-1.0 determining -0.5
-1.0 objection -0.5
-1.0 imparted -0.5
-1.0 above -0.5
-1.0 tribute -0.5
-1.0 isolation -0.5
-1.0 paid -0.5
-1.0 impetus -0.5
-1.0 growth -0.5
-1.0 gripped -0.5
-1.0 men's -0.5
-1.0 minds -0.5
-1.0 gain -0.5
-1.0 feel -0.5
-1.0 reginald -0.5
-1.0 maudling -0.5
-1.0 played -0.5
-1.0 conspicuous -0.5
-1.0 swamped -0.5
-1.0 cheap -0.5
-1.0 referring -0.5
-1.0 previous -0.5
-1.0 looked -0.5
-1.0 dismissed -0.5
-1.0 shelter -0.5
-1.0 federalism -0.5
-1.0 necessarily -0.5
-1.0 considerable -0.5
-1.0 protested -0.5
-1.0 subsidies -0.5
-1.0 season -0.5
-1.0 gear -0.5
-1.0 budgette -0.5
-1.0 replaced -0.5
-1.0 system -0.5
-1.0 tariffs -0.5
-1.0 all-time -0.5
-1.0 peak -0.5
-1.0 living -0.5
-1.0 spree -0.5
-1.0 eve -0.5
-1.0 august -0.5
-1.0 bank -0.5
-1.0 look -0.5
-1.0 sixth -0.5
-1.0 successive -0.5
-1.0 note -0.5
-1.0 circulation -0.5
-1.0 soared -0.5
-1.0 coins -0.5
-1.0 100,000,000 -0.5
-1.0 15,000,000 -0.5
-1.0 37,000,000 -0.5
-1.0 1960 -0.5
-1.0 christmas -0.5
-1.0 2,415,000,000 -0.5
-1.0 deposits -0.5
-1.0 england -0.5
-1.0 stricter -0.5
-1.0 overdrafts -0.5
-1.0 underlined -0.5
-1.0 loan -0.5
-1.0 overdraft -0.5
-1.0 bank's -0.5
-1.0 weekly -0.5
-1.0 ... -0.5
-1.0 shows -0.5
-1.0 squeeze -0.5
-1.0 means -0.5
-1.0 163,000,000 -0.5
-1.0 banks' -0.5
-1.0 frozen -0.5
-1.0 instalment -0.5
-1.0 8,000,000 -0.5
-1.0 kruschev -0.5
-1.0 raises -0.5
-1.0 bogy -0.5
-1.0 response -0.5
-1.0 appeal -0.5
-1.0 nearly -0.5
-1.0 70,000,000 -0.5
-1.0 150,000,000 -0.5
-1.0 militarism -0.5
-1.0 replies -0.5
-1.0 repeats -0.5
-1.0 solved -0.5
-1.0 causes -0.5
-1.0 hotbed -0.5
-1.0 aided -0.5
-1.0 militarists -0.5
-1.0 revenge-seekers -0.5
-1.0 becoming -0.5
-1.0 notes -0.5
-1.0 memorandum -0.5
-1.0 false -0.5
-1.0 disposal -0.5
-1.0 razed -0.5
-1.0 cities -0.5
-1.0 hardly -0.5
-1.0 conceive -0.5
-1.0 generals -0.5
-1.0 alarmed -0.5
-1.0 everyone's -0.5
-1.0 eyes -0.5
-1.0 sprung -0.5
-1.0 nazi -0.5
-1.0 wonder -0.5
-1.0 coventry -0.5
-1.0 barbarously -0.5
-1.0 bombed -0.5
-1.0 contingency -0.5
-1.0 sign -0.5
-1.0 cancerous -0.5
-1.0 determination -0.5
-1.0 tramples -0.5
-1.0 tunisians' -0.5
-1.0 realization -0.5
-1.0 survive -0.5
-1.0 fire -0.5
-1.0 sword -0.5
-1.0 denies -0.5
-1.0 self- -0.5
-1.0 berlin's -0.5
-1.0 occupation -0.5
-1.0 rule -0.5
-1.0 tragic -0.5
-1.0 refugees -0.5
-1.0 pouring -0.5
-1.0 3,000 -0.5
-1.0 expect -0.5
-1.0 leap -0.5
-1.0 faster -0.5
-1.0 k's -0.5
-1.0 latest -0.5
-1.0 bonn's -0.5
-1.0 slogan -0.5
-1.0 regime -0.5
-1.0 scared -0.5
-1.0 1,157 -0.5
-1.0 17 -0.5
-1.0 1953 -0.5
-1.0 fear -0.5
-1.0 city's -0.5
-1.0 refugee -0.5
-1.0 camps -0.5
-1.0 surpassed -0.5
-1.0 overflow -0.5
-1.0 private -0.5
-1.0 houses -0.5
-1.0 africa's -0.5
-1.0 exclusion -0.5
-1.0 revulsion -0.5
-1.0 curtain -0.5
-1.0 apartheid -0.5
-1.0 clear-cut -0.5
-1.0 republic -0.5
-1.0 strongest -0.5
-1.0 arguments -0.5
-1.0 lie -0.5
-1.0 archbishop -0.5
-1.0 capetown -0.5
-1.0 actually -0.5
-1.0 settled -0.5
-1.0 holds -0.5
-1.0 mistake -0.5
-1.0 expel -0.5
-1.0 fighter -0.5
-1.0 heard -0.5
-1.0 weakening -0.5
-1.0 whites -0.5
-1.0 courageous -0.5
-1.0 expulsion -0.5
-1.0 inclu- -0.5
-1.0 exercised -0.5
-1.0 cut -0.5
-1.0 refuses -0.5
-1.0 abandoning -0.5
-1.0 ding -0.5
-1.0 shock -0.5
-1.0 weaken -0.5
-1.0 grip -0.5
-1.0 room -0.5
-1.0 racist -0.5
-1.0 whatever -0.5
-1.0 statesmen -0.5
-1.0 citizens -0.5
-1.0 coloured -0.5
-1.0 multi-racial -0.5
-1.0 society -0.5
-1.0 millions -0.5
-1.0 fraudulent -0.5
-1.0 surely -0.5
-1.0 menace -0.5
-1.0 liability -0.5
-1.0 western -0.5
-1.0 principles -0.5
-1.0 excluding -0.5
-1.0 race -0.5
-1.0 draft -0.5
-1.0 picture -0.5
-1.0 clings -0.5
-1.0 grade -0.5
-1.0 headlines -0.5
-1.0 tour -0.5
-1.0 immense -0.5
-1.0 pleasanter -0.5
-1.0 cruel -0.5
-1.0 feudal -0.5
-1.0 duke's -0.5
-1.0 queen -0.5
-1.0 duke -0.5
-1.0 edinburgh -0.5
-1.0 programmes -0.5
-1.0 performances -0.5
-1.0 tiger -0.5
-1.0 rhino -0.5
-1.0 hunts -0.5
-1.0 trigger-finger -0.5
-1.0 ritual -0.5
-1.0 slaughter -0.5
-1.0 beasts -0.5
-1.0 won -0.5
-1.0 triumph -0.5
-1.0 dutch -0.5
-1.0 pakistan -0.5
-1.0 memories -0.5
-1.0 neighbour -0.5
-1.0 value -0.5
-1.0 warmth -0.5
-1.0 india -0.5
-1.0 pleased -0.5
-1.0 balances -0.5
-1.0 exports -0.5
-1.0 dearer -0.5
-1.0 buy -0.5
-1.0 goods -0.5
-1.0 direction -0.5
-1.0 live-and-let-live -0.5
-1.0 solve -0.5
-1.0 cheaper -0.5
-1.0 difficulties -0.5
-1.0 upset -0.5
-1.0 grow -0.5
-1.0 brighter -0.5
-1.0 dollars -0.5
-1.0 drained -0.5
-1.0 curb -0.5
-1.0 rising -0.5
-1.0 prices -0.5
-1.0 aware -0.5
-1.0 unpopular -0.5
-1.0 imports -0.5
-1.0 failing -0.5
-1.0 co-operate -0.5
-1.0 creditor -0.5
-1.0 nation -0.5
-1.0 booming -0.5
-1.0 deliberately -0.5
-1.0 upwards -0.5
-1.0 massive -0.5
-1.0 trading -0.5
-1.0 surplus -0.5
-1.0 choke -0.5
-1.0 attracted -0.5
-1.0 speculation -0.5
-1.0 pound -0.5
-1.0 addition -0.5
-1.0 mark -0.5
-1.0 happened -0.5
-1.0 uselessly -0.5
-1.0 locked -0.5
-1.0 marks -0.5
-1.0 pounds -0.5
-1.0 valuation -0.5
-1.0 share -0.5
-1.0 optimism -0.5
-1.0 outlook -0.5
-1.0 good-neighbour -0.5
-1.0 takes -0.5
-1.0 moving -0.5
-1.0 currency -0.5
-1.0 doubtful -0.5
-1.0 regeneration -0.5
-1.0 local -0.5
-1.0 parliaments -0.5
-1.0 re-armament -0.5
-1.0 politics -0.5
-1.0 lend -0.5
-1.0 names -0.5
-1.0 millenium -0.5
-1.0 prefer -0.5
-1.0 earthly -0.5
-1.0 justice -0.5
-1.0 instruments -0.5
-1.0 democracy -0.5
-1.0 advertisement -0.5
-1.0 innocent -0.5
-1.0 page -0.5
-1.0 nine -0.5
-1.0 falls -0.5
-1.0 neither -0.5
-1.0 category -0.5
-1.0 deeply -0.5
-1.0 repugnant -0.5
-1.0 readers -0.5
-1.0 discretion -0.5
-1.0 mra -0.5
-1.0 contains -0.5
-1.0 factual -0.5
-1.0 disagree -0.5
-1.0 herald -0.5
-1.0 publish -0.5
-1.0 advertisements -0.5
-1.0 content -0.5
-1.0 dislike -0.5
-1.0 wrong -0.5
-1.0 denounce -0.5
-1.0 logical -0.5
-1.0 send -0.5
-1.0 dignified -0.5
-1.0 exit -0.5
-1.0 desertion -0.5
-1.0 sudanese -0.5
-1.0 blamed -0.5
-1.0 weak -0.5
-1.0 negligence -0.5
-1.0 impotence -0.5
-1.0 understood -0.5
-1.0 sudan's -0.5
-1.0 concern -0.5
-1.0 natural -0.5
-1.0 hammarskjold -0.5
-1.0 responsibility -0.5
-1.0 rightly -0.5
-1.0 belongs -0.5
-1.0 ceremonial -0.5
-1.0 duty -0.5
-1.0 soldiers -0.5
-1.0 unjust -0.5
-1.0 buck -0.5
-1.0 civil -0.5
-1.0 dangers -0.5
-1.0 un's -0.5
-1.0 servants -0.5
-1.0 arise -0.5
-1.0 blame -0.5
-1.0 politicians -0.5
-1.0 instructed -0.5
-1.0 responded -0.5
-1.0 handsomely -0.5
-1.0 providing -0.5
-1.0 thick -0.5
-1.0 ground -0.5
-1.0 plough -0.5
-1.0 fortnight -0.5
-1.0 ability -0.5
-1.0 keep -0.5
-1.0 depends -0.5
-1.0 matadi -0.5
-1.0 re-established -0.5
-1.0 non-combatant -0.5
-1.0 fighting -0.5
-1.0 diverting -0.5
-1.0 satisfied -0.5
-1.0 outrages -0.5
-1.0 stressed -0.5
-1.0 intervene -0.5
-1.0 conciliators -0.5
-1.0 relief -0.5
-1.0 strife-torn -0.5
-1.0 gets -0.5
-1.0 madagascar -0.5
-1.0 sigh -0.5
-1.0 news -0.5
-1.0 malagasy -0.5
-1.0 formerly -0.5
-1.0 itself -0.5
-1.0 outsiders -0.5
-1.0 recognise -0.5
-1.0 determined -0.5
-1.0 forced -0.5
-1.0 neighbourliness -0.5
-1.0 divine -0.5
-1.0 spoken -0.5
-1.0 tribal -0.5
-1.0 prospect -0.5
-1.0 hypocritical -0.5
-1.0 wrapped -0.5
-1.0 impenetrable -0.5
-1.0 cocoon -0.5
-1.0 cramped -0.5
-1.0 primitive -0.5
-1.0 hitler -0.5
-1.0 thirties -0.5
-1.0 proved -0.5
-1.0 jews -0.5
-1.0 fleeing -0.5
-1.0 water -0.5
-1.0 areas -0.5
-1.0 admitting -0.5
-1.0 defile -0.5
-1.0 tinue -0.5
-1.0 live -0.5
-1.0 hewers -0.5
-1.0 wood -0.5
-1.0 drawers -0.5
-1.0 woerd -0.5
-1.0 nightmare -0.5
-1.0 contact -0.5
-1.0 ver- -0.5
-1.0 makes -0.5
-1.0 illusory -0.5
-1.0 joost -0.5
-1.0 blank -0.5
-1.0 pleaded -0.5
-1.0 stay -0.5
-1.0 isolated -0.5
-1.0 fluenced -0.5
-1.0 unflinching -0.5
-1.0 witness -0.5
-1.0 christianity -0.5
-1.0 actions -0.5
-1.0 comfort -0.5
-1.0 gallant -0.5
-1.0 minority -0.5
-1.0 applied -0.5
-1.0 evil -0.5
-1.0 indefensible -0.5
-1.0 unequivocally -0.5
-1.0 story -0.5
-1.0 claiming -0.5
-1.0 marry -0.5
-1.0 miss -0.5
-1.0 worsley -0.5
-1.0 wedding -0.5
-1.0 smile -0.5
-1.0 blander -0.5
-1.0 june -0.5
-1.0 kent -0.5
-1.0 nuptial -0.5
-1.0 arrangements -0.5
-1.0 disposed -0.5
-1.0 ought -0.5
-1.0 advocate -0.5
-1.0 approach -0.5
-1.0 influential -0.5
-1.0 heart -0.5
-1.0 krushchev -0.5
-1.0 reading -0.5
-1.0 gollancz -0.5
-1.0 calls -0.5
-1.0 destruction -0.5
-1.0 revision -0.5
-1.0 tries -0.5
-1.0 disguise -0.5
-1.0 cool-headed -0.5
-1.0 inventive -0.5
-1.0 manoeuvring -0.5
-1.0 pompous -0.5
-1.0 formula -0.5
-1.0 pity -0.5
-1.0 reasonable -0.5
-1.0 representations -0.5
-1.0 responding -0.5
-1.0 unlikely -0.5
-1.0 restores -0.5
-1.0 original -0.5
-1.0 decisive -0.5
-1.0 votes -0.5
-1.0 advance -0.5
-1.0 overconfident -0.5
-1.0 soon -0.5
-1.0 seldom -0.5
-1.0 millstone -0.5
-1.0 weighing -0.5
-1.0 paralysing -0.5
-1.0 sensible -0.5
-1.0 harm -0.5
-1.0 remotely -0.5
-1.0 dr -0.5
-1.0 chances -0.5
-1.0 glad -0.5
-1.0 consequences -0.5
-1.0 mean- -0.5
-1.0 dismayed -0.5
-1.0 unitary -0.5
-1.0 truism -0.5
-1.0 policies -0.5
-1.0 mutual -0.5
-1.0 achievement -0.5
-1.0 religious -0.5
-1.0 tact -0.5
-1.0 greatest -0.5
-1.0 barrier -0.5
-1.0 points -0.5
-1.0 east-west -0.5
-1.0 flict -0.5
-1.0 farther -0.5
-1.0 modest -0.5
-1.0 scope -0.5
-1.0 notification -0.5
-1.0 envisages -0.5
-1.0 molony -0.5
-1.0 members' -0.5
-1.0 offing -0.5
-1.0 fill -0.5
-1.0 gaps -0.5
-1.0 extra -0.5
-1.0 excuse -0.5
-1.0 counselling -0.5
-1.0 patience -0.5
-1.0 allowing -0.5
-1.0 fair -0.5
-1.0 disdain -0.5
-1.0 obtaining -0.5
-1.0 sample -0.5
-1.0 preferable -0.5
-1.0 centigrade -0.5
-1.0 v. -0.5
-1.0 fahrenheit -0.5
-1.0 fight -0.5
-1.0 challenger -0.5
-1.0 backing -0.5
-1.0 director -0.5
-1.0 meteoro- -0.5
-1.0 knock -0.5
-1.0 backers -0.5
-1.0 ratures -0.5
-1.0 ring -0.5
-1.0 explain -0.5
-1.0 advantages -0.5
-1.0 graham -0.5
-1.0 sutton -0.5
-1.0 bones -0.5
-1.0 tempe- -0.5
-1.0 broadcasting -0.5
-1.0 pains -0.5
-1.0 convenience -0.5
-1.0 measurement -0.5
-1.0 temperatures -0.5
-1.0 sake -0.5
-1.0 50,000 -0.5
-1.0 specialists -0.5
-1.0 ordinary -0.5
-1.0 awful -0.5
-1.0 mess -0.5
-1.0 woman -0.5
-1.0 difficulty -0.5
-1.0 recording -0.5
-1.0 decimal -0.5
-1.0 coinage -0.5
-1.0 suit -0.5
-1.0 reinforcement -0.5
-1.0 circumstances -0.5
-1.0 strably -0.5
-1.0 centigraders -0.5
-1.0 stiffer -0.5
-1.0 scale -0.5
-1.0 demon- -0.5
-1.0 became -0.5
-1.0 roped -0.5
-1.0 well-meaning -0.5
-1.0 corporation -0.5
-1.0 clock -0.5
-1.0 b.b.c. -0.5
-1.0 lose -0.5
-1.0 adoption -0.5
-1.0 twenty-four -0.5
-1.0 ganged -0.5
-1.0 alter -0.5
-1.0 habits -0.5
-1.0 enforce -0.5
-1.0 murder -0.5
-1.0 patrice -0.5
-1.0 lumumba -0.5
-1.0 belgium -0.5
-1.0 scrap -0.5
-1.0 implicated -0.5
-1.0 baffled -0.5
-1.0 bewildered -0.5
-1.0 insulted -0.5
-1.0 embassies -0.5
-1.0 attacked -0.5
-1.0 score -0.5
-1.0 admit -0.5
-1.0 belgian -0.5
-1.0 scapegoat -0.5
-1.0 citizen -0.5
-1.0 quit -0.5
-1.0 hounding -0.5
-1.0 stir -0.5
-1.0 congolese -0.5
-1.0 govern -0.5
-1.0 mourning -0.5
-1.0 terrible -0.5
-1.0 internal -0.5
-1.0 pastime -0.5
-1.0 larders -0.5
-1.0 stocked -0.5
-1.0 speak -0.5
-1.0 fought -0.5
-1.0 beside -0.5
-1.0 champion -0.5
-1.0 careful -0.5
-1.0 hooded -0.5
-1.0 language -0.5
-1.0 diplomacy -0.5
-1.0 wars -0.5
-1.0 boldly -0.5
-1.0 fearlessly -0.5
-1.0 desert -0.5
-1.0 splendid -0.5
-1.0 choose -0.5
-1.0 substantially -0.5
-1.0 abundance -0.5
-1.0 mother -0.5
-1.0 meat -0.5
-1.0 dairy -0.5
-1.0 older -0.5
-1.0 folk -0.5
-1.0 reminding -0.5
-1.0 picks -0.5
-1.0 recipes -0.5
-1.0 daughter -0.5
-1.0 shortages -0.5
-1.0 lucky -0.5
-1.0 housewives -0.5
-1.0 young -0.5
-1.0 wives -0.5
-1.0 harassed -0.5
-1.0 network -0.5
-1.0 n.b.c. -0.5
-1.0 poured -0.5
-1.0 colour -0.5
-1.0 proclaimed -0.5
-1.0 grumblers -0.5
-1.0 bright -0.5
-1.0 colours -0.5
-1.0 tv -0.5
-1.0 launch -0.5
-1.0 600,000 -0.5
-1.0 sets -0.5
-1.0 commercial -0.5
-1.0 contractors -0.5
-1.0 deaths -0.5
-1.0 elderly -0.5
-1.0 sisters -0.5
-1.0 killed -0.5
-1.0 newmarket -0.5
-1.0 urban -0.5
-1.0 shall -0.5
-1.0 cottage -0.5
-1.0 crabb -0.5
-1.0 clerk -0.5
-1.0 saddened -0.5
-1.0 falling -0.5
-1.0 driving -0.5
-1.0 scotsman -0.5
-1.0 reproach -0.5
-1.0 often -0.5
-1.0 lacking -0.5
-1.0 officialdom -0.5
-1.0 newton -0.5
-1.0 acton -0.5
-1.0 qualities -0.5
-1.0 sympathy -0.5
-1.0 understanding -0.5
-1.0 ruler -0.5
-1.0 scots -0.5
-1.0 foreigners -0.5
-1.0 scot -0.5
-1.0 guilty -0.5
-1.0 rebellion -0.5
-1.0 predecessors -0.5
-1.0 century -0.5
-1.0 beware -0.5
-1.0 protesting -0.5
-1.0 company -0.5
-1.0 ex-eoka -0.5
-1.0 decides -0.5
-1.0 cyprus -0.5
-1.0 safe -0.5
-1.0 bet -0.5
-1.0 makarios -0.5
-1.0 benefits -0.5
-1.0 imperial -0.5
-1.0 preference -0.5
-1.0 subsidise -0.5
-1.0 cypriots -0.5
-1.0 enjoy -0.5
-1.0 puts -0.5
-1.0 trial -0.5
-1.0 ford -0.5
-1.0 motors -0.5
-1.0 13,000 -0.5
-1.0 cheer -0.5
-1.0 five-day -0.5
-1.0 feelings -0.5
-1.0 springtime -0.5
-1.0 approaches -0.5
-1.0 pick -0.5
-1.0 car -0.5
-1.0 bustling -0.5
-1.0 pessimists -0.5
-1.0 demonstration -0.5
-1.0 industry's -0.5
-1.0 recovery -0.5
-1.0 motor -0.5
-1.0 knees -0.5
-1.0 optimists -0.5
-1.0 nonsense -0.5
-1.0 usual -0.5
-1.0 intend -0.5
-1.0 h-bomb -0.5
-1.0 deserted -0.5
-1.0 fine -0.5
-1.0 james's -0.5
-1.0 park -0.5
-1.0 placid -0.5
-1.0 lake -0.5
-1.0 pelicans -0.5
-1.0 pleasant -0.5
-1.0 weather -0.5
-1.0 forecast -0.5
-1.0 rare -0.5
-1.0 ducks -0.5
-1.0 wild -0.5
-1.0 evenings -0.5
-1.0 head -0.5
-1.0 parks -0.5
-1.0 sun -0.5
-1.0 foolish -0.5
-1.0 glorious -0.5
-1.0 average -0.5
-1.0 follow -0.5
-1.0 55 -0.5
-1.0 employers -0.5
-1.0 fortunate -0.5
-1.0 earn -0.5
-1.0 fraction -0.5
-1.0 talents -0.5
-1.0 responsibilities -0.5
-1.0 dedicated -0.5
-1.0 cut-rate -0.5
-1.0 husband -0.5
-1.0 clean -0.5
-1.0 wins -0.5
-1.0 income -0.5
-1.0 serf -0.5
-1.0 worthwhile -0.5
-1.0 targets -0.5
-1.0 19.5 -0.5
-1.0 divorce -0.5
-1.0 judge -0.5
-1.0 18.1 -0.5
-1.0 marcia -0.5
-1.0 behave -0.5
-1.0 box -0.5
-1.0 chocolates -0.5
-1.0 bunch -0.5
-1.0 flowers -0.5
-1.0 shed -0.5
-1.0 books -0.5
-1.0 tidied -0.5
-1.0 husbands -0.5
-1.0 shoes -0.5
-1.0 cleaned -0.5
-1.0 wonderful -0.5
-1.0 appreciation -0.5
-1.0 surprise -0.5
-1.0 ponder -0.5
-1.0 gardening -0.5
-1.0 tools -0.5
-1.0 mysteriously -0.5
-1.0 suddenly -0.5
-1.0 timetables -0.5
-1.0 valuable -0.5
-1.0 experience -0.5
-1.0 scrapped -0.5
-1.0 ill-conceived -0.5
-1.0 monckton -0.5
-1.0 inflated -0.5
-1.0 eighteen -0.5
-1.0 repent -0.5
-1.0 haste -0.5
-1.0 folly -0.5
-1.0 peaceful -0.5
-1.0 orderly -0.5
-1.0 thriving -0.5
-1.0 overnight -0.5
-1.0 minor -0.5
-1.0 fearful -0.5
-1.0 heart-searching -0.5
-1.0 rash -0.5
-1.0 thoughtless -0.5
-1.0 greedy -0.5
-1.0 stepped -0.5
-1.0 reverses -0.5
-1.0 pace -0.5
-1.0 fastest -0.5
-1.0 exciting -0.5
-1.0 competition -0.5
-1.0 choice -0.5
-1.0 fails -0.5
-1.0 modify -0.5
-1.0 industries -0.5
-1.0 repair -0.5
-1.0 damage -0.5
-1.0 plunged -0.5
-1.0 chaos -0.5
-1.0 factory -0.5
-1.0 building -0.5
-1.0 chemical -0.5
-1.0 tremendous -0.5
-1.0 upsurge -0.5
-1.0 staid -0.5
-1.0 timid -0.5
-1.0 engineering -0.5
-1.0 iron -0.5
-1.0 steel -0.5
-1.0 88-year-old -0.5
-1.0 bearer -0.5
-1.0 ban- -0.5
-1.0 prosperity -0.5
-1.0 bertrand -0.5
-1.0 issues -0.5
-1.0 the-bomb -0.5
-1.0 crusade -0.5
-1.0 saint -0.5
-1.0 prophet -0.5
-1.0 philosopher -0.5
-1.0 sense -0.5
-1.0 publicity -0.5
-1.0 spectacularly -0.5
-1.0 freedom -0.5
-1.0 adopted -0.5
-1.0 hitler's -0.5
-1.0 tourists -0.5
-1.0 preventive -0.5
-1.0 defences -0.5
-1.0 pursue -0.5
-1.0 wants -0.5
-1.0 demolish -0.5
-1.0 ask -0.5
-1.0 eccentric -0.5
-1.0 appointed -0.5
-1.0 patrolling -0.5
-1.0 finlay -0.5
-1.0 householders -0.5
-1.0 trenches -0.5
-1.0 dug -0.5
-1.0 mile -0.5
-1.0 route -0.5
-1.0 surrey -0.5
-1.0 warden -0.5
-1.0 front -0.5
-1.0 gates -0.5
-1.0 showing -0.5
-1.0 experiment -0.5
-1.0 courtesy -0.5
-1.0 electricity -0.5
-1.0 cable -0.5
-1.0 seven- -0.5
-1.0 resolute -0.5
-1.0 shakes -0.5
-1.0 harsh -0.5
-1.0 fanatics -0.5
-1.0 woolly -0.5
-1.0 minded -0.5
-1.0 facts -0.5
-1.0 individuals -0.5
-1.0 jelly-boned -0.5
-1.0 promises -0.5
-1.0 preserve -0.5
-1.0 contrast -0.5
-1.0 successful -0.5
-1.0 lost -0.5
-1.0 misguided -0.5
-1.0 tormentors -0.5
-1.0 practice -0.5
-1.0 uno -0.5
-1.0 bloodstained -0.5
-1.0 shambles -0.5
-1.0 bossed -0.5
-1.0 indian -0.5
-1.0 charge -0.5
-1.0 welensky's -0.5
-1.0 theories -0.5
-1.0 19 -0.5
-1.0 contempt -0.5
-1.0 complaining -0.5
-1.0 survey -0.5
-1.0 teenagers -0.5
-1.0 spend -0.5
-1.0 earned -0.5
-1.0 depositors -0.5
-1.0 girls -0.5
-1.0 15 -0.5
-1.0 farmers -0.5
-1.0 prosperous -0.5
-1.0 danish -0.5
-1.0 danes -0.5
-1.0 annoyed -0.5
-1.0 understand -0.5
-1.0 meaning -0.5
-1.0 old-fashioned -0.5
-1.0 virtue -0.5
-1.0 thrift -0.5
-1.0 supplanted -0.5
-1.0 denmark's -0.5
-1.0 principal -0.5
-1.0 supplier -0.5
-1.0 rivals -0.5
-1.0 sell -0.5
-1.0 enterprises -0.5
-1.0 barry -0.5
-1.0 enthusiasm -0.5
-1.0 reopened -0.5
-1.0 flanagan -0.5
-1.0 platt -0.5
-1.0 cinema -0.5
-1.0 combination -0.5
-1.0 shrewd -0.5
-1.0 anticipation -0.5
-1.0 taste -0.5
-1.0 buckley -0.5
-1.0 chester -0.5
-1.0 resurgent -0.5
-1.0 film -0.5
-1.0 vital -0.5
-1.0 dependent -0.5
-1.0 cambridge -0.5
-1.0 study -0.5
-1.0 dons -0.5
-1.0 stories -0.5
-1.0 farming -0.5
-1.0 universities -0.5
-1.0 similar -0.5
-1.0 glenn -0.5
-1.0 virgil -0.5
-1.0 grissom -0.5
-1.0 alan -0.5
-1.0 shepard -0.5
-1.0 oxford -0.5
-1.0 journey -0.5
-1.0 destiny -0.5
-1.0 dead -0.5
-1.0 worlds -0.5
-1.0 conquer -0.5
-1.0 incident -0.5
-1.0 occurred -0.5
-1.0 boat-train -0.5
-1.0 cherbourg -0.5
-1.0 piece -0.5
-1.0 wrote -0.5
-1.0 address -0.5
-1.0 mucking -0.5
-1.0 yanks -0.5
-1.0 me -0.5
-1.0 won't -0.5
-1.0 nobody -0.5
-1.0 's -0.5
-1.0 shove -0.5
-1.0 2ole -0.5
-1.0 uncle -0.5
-1.0 sam -0.5
-1.0 around -0.5
-1.0 travellers -0.5
-1.0 unturned -0.5
-1.0 stones -0.5
-1.0 unionist -0.5
-1.0 knew -0.5
-1.0 britishers -0.5
-1.0 theoretical -0.5
-1.0 luddite -0.5
-1.0 hammer -0.5
-1.0 darndest -0.5
-1.0 sad -0.5
-1.0 complexities -0.5
-1.0 1830's -0.5
-1.0 lot -0.5
-1.0 fellow -0.5
-1.0 travel -0.5
-1.0 excellent -0.5
-1.0 luddites -0.5
-1.0 sledge-hammers -0.5
-1.0 looms -0.5
-1.0 stunned -0.5
-1.0 los -0.5
-1.0 angeles -0.5
-1.0 stop-watch -0.5
-1.0 manufacturing -0.5
-1.0 methods -0.5
-1.0 whereby -0.5
-1.0 untrained -0.5
-1.0 taught -0.5
-1.0 tape -0.5
-1.0 restrictive -0.5
-1.0 practices -0.5
-1.0 hence -0.5
-1.0 hostility -0.5
-1.0 automation -0.5
-1.0 threat -0.5
-1.0 toil -0.5
-1.0 spin -0.5
-1.0 recordings -0.5
-1.0 specialising -0.5
-1.0 electronics -0.5
-1.0 happens -0.5
-1.0 unskilled -0.5
-1.0 worker -0.5
-1.0 skilled -0.5
-1.0 processes -0.5
-1.0 raw -0.5
-1.0 audio-tv -0.5
-1.0 switched -0.5
-1.0 explanatory -0.5
-1.0 pictures -0.5
-1.0 instructions -0.5
-1.0 job -0.5
-1.0 coupled -0.5
-1.0 technically -0.5
-1.0 processed -0.5
-1.0 high-speed -0.5
-1.0 recorded -0.5
-1.0 obedient -0.5
-1.0 craftsman -0.5
-1.0 ball -0.5
-1.0 bats -0.5
-1.0 wickets -0.5
-1.0 sides -0.5
-1.0 consisting -0.5
-1.0 eleven -0.5
-1.0 players -0.5
-1.0 paint -0.5
-1.0 sprayer -0.5
-1.0 dictionary -0.5
-1.0 game -0.5
-1.0 martyrs -0.5
-1.0 cricket -0.5
-1.0 ceramic -0.5
-1.0 qualified -0.5
-1.0 dear -0.5
-1.0 assembler -0.5
-1.0 aircraft -0.5
-1.0 tolpuddle -0.5
-1.0 optical -0.5
-1.0 theodolite -0.5
-1.0 surveyors -0.5
-1.0 1961 -0.5
-1.0 stalwarts -0.5
-1.0 hambledon -0.5
-1.0 engineers -0.5
-1.0 creeping -0.5
-1.0 patron -0.5
-1.0 saints -0.5
-1.0 shades -0.5
-1.0 terrors -0.5
-1.0 batsman -0.5
-1.0 stout -0.5
-1.0 mighty -0.5
-1.0 frostbite -0.5
-1.0 willow -0.5
-1.0 hefty -0.5
-1.0 batting -0.5
-1.0 averages -0.5
-1.0 blight -0.5
-1.0 green -0.5
-1.0 couple -0.5
-1.0 bumps -0.5
-1.0 eichmann -0.5
-1.0 continues -0.5
-1.0 reveal -0.5
-1.0 divisions -0.5
-1.0 arguing -0.5
-1.0 endless -0.5
-1.0 massacre -0.5
-1.0 death -0.5
-1.0 decent -0.5
-1.0 feasible -0.5
-1.0 workable -0.5
-1.0 'll -0.5
-1.0 clapping -0.5
-1.0 plays -0.5
-1.0 efficient -0.5
-1.0 cog -0.5
-1.0 machine -0.5
-1.0 globke -0.5
-1.0 whom -0.5
-1.0 interviewed -0.5
-1.0 pontius -0.5
-1.0 pilate -0.5
-1.0 washed -0.5
-1.0 multitude -0.5
-1.0 blood -0.5
-1.0 person -0.5
-1.0 tested -0.5
-1.0 weighed -0.5
-1.0 wanting -0.5
-1.0 drew -0.5
-1.0 solace -0.5
-1.0 pleads -0.5
-1.0 unit -0.5
-1.0 rank -0.5
-1.0 dangerous -0.5
-1.0 intimate -0.5
-1.0 link -0.5
-1.0 apex -0.5
-1.0 betrayed -0.5
-1.0 expert -0.5
-1.0 triangle -0.5
-1.0 himmler -0.5
-1.0 hess -0.5
-1.0 goering -0.5
-1.0 meticulous -0.5
-1.0 comprehension -0.5
-1.0 selves -0.5
-1.0 righteousness -0.5
-1.0 appalling -0.5
-1.0 kid -0.5
-1.0 them- -0.5
-1.0 apparatus -0.5
-1.0 exact -0.5
-1.0 red -0.5
-1.0 superiority -0.5
-1.0 screamed -0.5
-1.0 czechoslovakia -0.5
-1.0 poland -0.5
-1.0 holland -0.5
-1.0 iniquitous -0.5
-1.0 injustice -0.5
-1.0 burst -0.5
-1.0 starve -0.5
-1.0 slaves -0.5
-1.0 kultur -0.5
-1.0 cattle -0.5
-1.0 versailles -0.5
-1.0 4 -0.5
-1.0 1943 -0.5
-1.0 expressed -0.5
-1.0 encircled -0.5
-1.0 invasion -0.5
-1.0 islands -0.5
-1.0 able-bodied -0.5
-1.0 brauchitsch -0.5
-1.0 directive -0.5
-1.0 concept -0.5
-1.0 slavery -0.5
-1.0 included -0.5
-1.0 continent -0.5
-1.0 baltic -0.5
-1.0 ruling -0.5
-1.0 interned -0.5
-1.0 dispatched -0.5
-1.0 exceptional -0.5
-1.0 seventeen -0.5
-1.0 forty-five -0.5
-1.0 destination -0.5
-1.0 male -0.5
-1.0 ages -0.5
-1.0 begun -0.5
-1.0 word -0.5
-1.0 inland -0.5
-1.0 revenue -0.5
-1.0 disliked -0.5
-1.0 customers -0.5
-1.0 incidentally -0.5
-1.0 conquered -0.5
-1.0 thankless -0.5
-1.0 salaries -0.5
-1.0 drastic -0.5
-1.0 compatriots -0.5
-1.0 officious -0.5
-1.0 efficiency -0.5
-1.0 hectoring -0.5
-1.0 out-of-date -0.5
-1.0 bullying -0.5
-1.0 minnows -0.5
-1.0 bean -0.5
-1.0 twenty-one -0.5
-1.0 chap -0.5
-1.0 bluster -0.5
-1.0 fish -0.5
-1.0 monthly -0.5
-1.0 arrears -0.5
-1.0 invariably -0.5
-1.0 couched -0.5
-1.0 abou -0.5
-1.0 ben -0.5
-1.0 adhem -0.5
-1.0 sugary -0.5
-1.0 sentiments -0.5
-1.0 upbringing -0.5
-1.0 reprieve -0.5
-1.0 ness -0.5
-1.0 devilment -0.5
-1.0 busi- -0.5
-1.0 flection -0.5
-1.0 hell-bound -0.5
-1.0 presbyterian -0.5
-1.0 impressed -0.5
-1.0 poem -0.5
-1.0 re- -0.5
-1.0 angel -0.5
-1.0 rearmament -0.5
-1.0 bombers -0.5
-1.0 dictating -0.5
-1.0 1934 -0.5
-1.0 von -0.5
-1.0 papen -0.5
-1.0 breaking -0.5
-1.0 uncomfortable -0.5
-1.0 cloak -0.5
-1.0 build -0.5
-1.0 hoesch's -0.5
-1.0 documents -0.5
-1.0 request -0.5
-1.0 jeopardised -0.5
-1.0 tolerance -0.5
-1.0 rearma- -0.5
-1.0 pattern -0.5
-1.0 connivance -0.5
-1.0 bigger -0.5
-1.0 captured -0.5
-1.0 states' -0.5
-1.0 ally -0.5
-1.0 militarily -0.5
-1.0 advancing -0.5
-1.0 herr -0.5
-1.0 strauss -0.5
-1.0 daily -0.5
-1.0 mail -0.5
-1.0 continued -0.5
-1.0 domination -0.5
-1.0 30-day -0.5
-1.0 90-day -0.5
-1.0 armed -0.5
-1.0 provides -0.5
-1.0 huge -0.5
-1.0 bargaining -0.5
-1.0 secured -0.5
-1.0 supply -0.5
-1.0 11 -0.5
-1.0 unified -0.5
-1.0 slow -0.5
-1.0 950 -0.5
-1.0 firing -0.5
-1.0 ramps -0.5
-1.0 matador -0.5
-1.0 fighters -0.5
-1.0 alongside -0.5
-1.0 600 -0.5
-1.0 starfighters -0.5
-1.0 battalions -0.5
-1.0 288 -0.5
-1.0 eastern -0.5
-1.0 1963 -0.5
-1.0 stronger -0.5
-1.0 target -0.5
-1.0 halfway -0.5
-1.0 warheads -0.5
-1.0 disturbance -0.5
-1.0 heusinger -0.5
-1.0 grows -0.5
-1.0 fellows -0.5
-1.0 right-wing -0.5
-1.0 helped -0.5
-1.0 rearm -0.5
-1.0 pursuit -0.5
-1.0 familiar -0.5
-1.0 anti-soviet -0.5
-1.0 1939 -0.5
-1.0 cover -0.5
-1.0 quest -0.5
-1.0 controlling -0.5
-1.0 alliances -0.5
-1.0 seeks -0.5
-1.0 friendship -0.5
-1.0 '30s -0.5
-1.0 shipbuilding -0.5
-1.0 established -0.5
-1.0 scar- -0.5
-1.0 bell's -0.5
-1.0 appalled -0.5
-1.0 j. -0.5
-1.0 camp- -0.5
-1.0 borough -0.5
-1.0 draughtsmen -0.5
-1.0 capa- -0.5
-1.0 breaks -0.5
-1.0 conferences -0.5
-1.0 unpalatable -0.5
-1.0 binding -0.5
-1.0 unambiguous -0.5
-1.0 alternatives -0.5
-1.0 conducted -0.5
-1.0 licking -0.5
-1.0 unity -0.5
-1.0 perspective -0.5
-1.0 struggle -0.5
-1.0 based -0.5
-1.0 consistent -0.5
-1.0 vigorous -0.5
-1.0 lines -0.5
-1.0 difference -0.5
-1.0 naturally -0.5
-1.0 anti-nato -0.5
-1.0 anti-tory -0.5
-1.0 anti-bomb -0.5
-1.0 anti-german -0.5
-1.0 context -0.5
-1.0 bread-and-butter -0.5
-1.0 struggles -0.5
-1.0 organisational -0.5
-1.0 dominance -0.5
-1.0 gaitskellites -0.5
-1.0 ignored -0.5
-1.0 inconsistency -0.5
-1.0 resulting -0.5
-1.0 colossal -0.5
-1.0 confusion -0.5
-1.0 frantically -0.5
-1.0 overturn -0.5
-1.0 misrepresentation -0.5
-1.0 obstructed -0.5
-1.0 demand -0.5
-1.0 unite -0.5
-1.0 trick -0.5
-1.0 introduction -0.5
-1.0 pseudo -0.5
-1.0 scratching -0.5
-1.0 hides -0.5
-1.0 cynical -0.5
-1.0 sections -0.5
-1.0 reaffirmed -0.5
-1.0 posed -0.5
-1.0 despair -0.5
-1.0 clarification -0.5
-1.0 numbers -0.5
-1.0 confused -0.5
-1.0 units -0.5
-1.0 stood -0.5
-1.0 decisively -0.5
-1.0 administration's -0.5
-1.0 sharpened -0.5
-1.0 gaitskellism -0.5
-1.0 bankrupt -0.5
-1.0 class -0.5
-1.0 proof -0.5
-1.0 abandon -0.5
-1.0 speeded-up -0.5
-1.0 drive -0.5
-1.0 expose -0.5
-1.0 armament -0.5
-1.0 kite-flying -0.5
-1.0 spain -0.5
-1.0 rush -0.5
-1.0 gaitskell's -0.5
-1.0 stupid -0.5
-1.0 tragedy -0.5
-1.0 founded -0.5
-1.0 desire -0.5
-1.0 chicanery -0.5
-1.0 elect -0.5
-1.0 enormous -0.5
-1.0 inroads -0.5
-1.0 trained -0.5
-1.0 soil -0.5
-1.0 unto -0.5
-1.0 opposing -0.5
-1.0 uniting -0.5
-1.0 suits -0.5
-1.0 supports -0.5
-1.0 depending -0.5
-1.0 can- -0.5
-1.0 collective -0.5
-1.0 padley -0.5
-1.0 crossman -0.5
-1.0 controls -0.5
-1.0 pentagon -0.5
-1.0 perfectly -0.5
-1.0 deceive -0.5
-1.0 strategy -0.5
-1.0 button -0.5
-1.0 warfare -0.5
-1.0 unionists -0.5
-1.0 overwhelming -0.5
-1.0 scottish -0.5
-1.0 reaffirm -0.5
-1.0 develop -0.5
-1.0 representing -0.5
-1.0 800,000 -0.5
-1.0 organised -0.5
-1.0 installed -0.5
-1.0 quite -0.5
-1.0 lay -0.5
-1.0 ballyhoo -0.5
-1.0 manufacture -0.5
-1.0 handful -0.5
-1.0 apprenticeships -0.5
-1.0 subsides -0.5
-1.0 strengthen -0.5
-1.0 ban -0.5
-1.0 wolverhampton -0.5
-1.0 technical -0.5
-1.0 window -0.5
-1.0 dressing -0.5
-1.0 techs -0.5
-1.0 descents -0.5
-1.0 jobs -0.5
-1.0 10,000 -0.5
-1.0 church -0.5
-1.0 parades -0.5
-1.0 brighton's -0.5
-1.0 sewers -0.5
-1.0 balloon -0.5
-1.0 ascents -0.5
-1.0 ending -0.5
-1.0 blind -0.5
-1.0 alley -0.5
-1.0 15-year-olds -0.5
-1.0 leaving -0.5
-1.0 school -0.5
-1.0 age -0.5
-1.0 centage -0.5
-1.0 swell -0.5
-1.0 420000 -0.5
-1.0 73 -0.5
-1.0 possibly -0.5
-1.0 heli-hopping -0.5
-1.0 15-17 -0.5
-1.0 starting -0.5
-1.0 revolution -0.5
-1.0 550,000 -0.5
-1.0 college -0.5
-1.0 extensions -0.5
-1.0 abreast -0.5
-1.0 per- -0.5
-1.0 450 -0.5
-1.0 exams -0.5
-1.0 rosyth -0.5
-1.0 dockyard -0.5
-1.0 applications -0.5
-1.0 suitable -0.5
-1.0 countless -0.5
-1.0 vacancies -0.5
-1.0 58 -0.5
-1.0 p. -0.5
-1.0 k. -0.5
-1.0 hans -0.5
-1.0 werner -0.5
-1.0 duncalf -0.5
-1.0 henze's -0.5
-1.0 elegy -0.5
-1.0 lovers -0.5
-1.0 compressed -0.5
-1.0 sometimes -0.5
-1.0 rambling -0.5
-1.0 composer -0.5
-1.0 idioms -0.5
-1.0 glyndebourne -0.5
-1.0 masterpiece -0.5
-1.0 respects -0.5
-1.0 unambiguously -0.5
-1.0 contemporary -0.5
-1.0 manipulator -0.5
-1.0 intervals -0.5
-1.0 delineation -0.5
-1.0 largely -0.5
-1.0 satire -0.5
-1.0 petty -0.5
-1.0 court -0.5
-1.0 egocentric -0.5
-1.0 leads -0.5
-1.0 sacrifice -0.5
-1.0 successfully -0.5
-1.0 executed -0.5
-1.0 trait -0.5
-1.0 libretto -0.5
-1.0 odd -0.5
-1.0 blend -0.5
-1.0 obtains -0.5
-1.0 musical -0.5
-1.0 characterisation -0.5
-1.0 inspiration -0.5
-1.0 henze -0.5
-1.0 caricature -0.5
-1.0 instrumental -0.5
-1.0 timbres -0.5
-1.0 w. -0.5
-1.0 auden -0.5
-1.0 kallman -0.5
-1.0 surrounding -0.5
-1.0 ageing -0.5
-1.0 poet -0.5
-1.0 mischief -0.5
-1.0 perpetrated -0.5
-1.0 doris -0.5
-1.0 langley -0.5
-1.0 moore -0.5
-1.0 turning -0.5
-1.0 behaviour -0.5
-1.0 vision -0.5
-1.0 mischief- -0.5
-1.0 classes -0.5
-1.0 19th -0.5
-1.0 outmatched -0.5
-1.0 leaves -0.5
-1.0 breathless -0.5
-1.0 discreditable -0.5
-1.0 byron -0.5
-1.0 lived -0.5
-1.0 propensities -0.5
-1.0 leisured -0.5
-1.0 ber -0.5
-1.0 directors -0.5
-1.0 festival -0.5
-1.0 jolted -0.5
-1.0 ennui -0.5
-1.0 eleventh -0.5
-1.0 intermittent -0.5
-1.0 fatal -0.5
-1.0 angelo -0.5
-1.0 antonioni's -0.5
-1.0 la -0.5
-1.0 notte -0.5
-1.0 num- -0.5
-1.0 films -0.5
-1.0 bernhard -0.5
-1.0 rate -0.5
-1.0 works -0.5
-1.0 25 -0.5
-1.0 wicki's -0.5
-1.0 das -0.5
-1.0 wunder -0.5
-1.0 des -0.5
-1.0 malachias -0.5
-1.0 counted -0.5
-1.0 fingers -0.5
-1.0 miracle -0.5
-1.0 michael- -0.5
-1.0 ro*?5le -0.5
-1.0 ka"utner's -0.5
-1.0 letzt -0.5
-1.0 sation -0.5
-1.0 wicki -0.5
-1.0 bru"cke -0.5
-1.0 appears -0.5
-1.0 actor -0.5
-1.0 landmark -0.5
-1.0 revitali- -0.5
-1.0 list -0.5
-1.0 antonioni -0.5
-1.0 career -0.5
-1.0 im- -0.5
-1.0 abstraction -0.5
-1.0 photographs -0.5
-1.0 pressive -0.5
-1.0 friedrich -0.5
-1.0 du"rrenmatt -0.5
-1.0 swiss -0.5
-1.0 forgotten -0.5
-1.0 greys -0.5
-1.0 playwright -0.5
-1.0 author -0.5
-1.0 blacks -0.5
-1.0 exhibition -0.5
-1.0 terrifying -0.5
-1.0 colouring -0.5
-1.0 eliminated -0.5
-1.0 accuracy -0.5
-1.0 photograph -0.5
-1.0 eternal -0.5
-1.0 unnecessary -0.5
-1.0 superfluous -0.5
-1.0 reality -0.5
-1.0 icy -0.5
-1.0 supernatural -0.5
-1.0 vacuum -0.5
-1.0 grapher -0.5
-1.0 chias -0.5
-1.0 photo- -0.5
-1.0 instant -0.5
-1.0 chilling -0.5
-1.0 horror -0.5
-1.0 mala- -0.5
-1.0 moved -0.5
-1.0 prayer -0.5
-1.0 answered -0.5
-1.0 offending -0.5
-1.0 bruce -0.5
-1.0 marshall's -0.5
-1.0 novel -0.5
-1.0 fidelity -0.5
-1.0 tells -0.5
-1.0 malachias's -0.5
-1.0 club -0.5
-1.0 monk -0.5
-1.0 prays -0.5
-1.0 disrepu- -0.5
-1.0 exploited -0.5
-1.0 transplanted -0.5
-1.0 gala -0.5
-1.0 reopening -0.5
-1.0 crowning -0.5
-1.0 indignity -0.5
-1.0 missing -0.5
-1.0 rebukes -0.5
-1.0 carnival -0.5
-1.0 springs -0.5
-1.0 setting -0.5
-1.0 glaring -0.5
-1.0 beacon -0.5
-1.0 lighthouse -0.5
-1.0 faces -0.5
-1.0 crowds -0.5
-1.0 wildly -0.5
-1.0 flapping -0.5
-1.0 sails -0.5
-1.0 slashed -0.5
-1.0 brutal -0.5
-1.0 honesty -0.5
-1.0 ghost-like -0.5
-1.0 yachts -0.5
-1.0 summary -0.5
-1.0 climax -0.5
-1.0 orgy -0.5
-1.0 wrinkle -0.5
-1.0 drop -0.5
-1.0 sweat -0.5
-1.0 indication -0.5
-1.0 artistry -0.5
-1.0 frightening -0.5
-1.0 marvellous -0.5
-1.0 joke -0.5
-1.0 learned -0.5
-1.0 walking -0.5
-1.0 streets -0.5
-1.0 smug -0.5
-1.0 apocalypse -0.5
-1.0 succeeded -0.5
-1.0 silence -0.5
-1.0 occur -0.5
-1.0 returns -0.5
-1.0 epilogue -0.5
-1.0 dolce -0.5
-1.0 vita -0.5
-1.0 unfair -0.5
-1.0 reich -0.5
-1.0 sinking -0.5
-1.0 ocean -0.5
-1.0 liner -0.5
-1.0 titanic -0.5
-1.0 paralleling -0.5
-1.0 1944 -0.5
-1.0 herbert -0.5
-1.0 selpin -0.5
-1.0 feat -0.5
-1.0 audacity -0.5
-1.0 vogue -0.5
-1.0 cahiers -0.5
-1.0 du -0.5
-1.0 worst -0.5
-1.0 repetitious -0.5
-1.0 sight-gags -0.5
-1.0 extreme -0.5
-1.0 coolness -0.5
-1.0 preferring -0.5
-1.0 aznavour -0.5
-1.0 est -0.5
-1.0 une -0.5
-1.0 femme -0.5
-1.0 ninety-one -0.5
-1.0 hymn -0.5
-1.0 uninitiated -0.5
-1.0 plugs -0.5
-1.0 charles -0.5
-1.0 jokes -0.5
-1.0 incomprehensible -0.5
-1.0 strangely -0.5
-1.0 brilliantly -0.5
-1.0 funny -0.5
-1.0 fizzles -0.5
-1.0 jean-luc -0.5
-1.0 godard's -0.5
-1.0 disappointing -0.5
-1.0 unheimliche -0.5
-1.0 geschichten -0.5
-1.0 1920 -0.5
-1.0 ghost -0.5
-1.0 re-evaluated -0.5
-1.0 admire -0.5
-1.0 proper -0.5
-1.0 place -0.5
-1.0 extremely -0.5
-1.0 1914 -0.5
-1.0 1931 -0.5
-1.0 dreyfus -0.5
-1.0 1930 -0.5
-1.0 virtually -0.5
-1.0 unknown -0.5
-1.0 charming -0.5
-1.0 tongue-in-cheek -0.5
-1.0 awards -0.5
-1.0 gifted -0.5
-1.0 interesting -0.5
-1.0 generous -0.5
-1.0 everyone -0.5
-1.0 silver -0.5
-1.0 watching -0.5
-1.0 bears -0.5
-1.0 awarded -0.5
-1.0 c02-059 -0.5
-1.0 actress -0.5
-1.0 godard -0.5
-1.0 acting -0.5
-1.0 enthusiastic -0.5
-1.0 anna -0.5
-1.0 kerima -0.5
-1.0 selected -0.5
-1.0 prizes -0.5
-1.0 unusually -0.5
-1.0 matters -0.5
-1.0 cinematic -0.5
-1.0 enjoyment -0.5
-1.0 fun -0.5
-1.0 spends -0.5
-1.0 girl -0.5
-1.0 plot -0.5
-1.0 improvisation -0.5
-1.0 off-the-cuff -0.5
-1.0 attractive -0.5
-1.0 jean-paul -0.5
-1.0 belmondo -0.5
-1.0 lated -0.5
-1.0 nights -0.5
-1.0 moderato -0.5
-1.0 cantabile -0.5
-1.0 curiously -0.5
-1.0 trans- -0.5
-1.0 leisurely -0.5
-1.0 certificate -0.5
-1.0 peter -0.5
-1.0 brook's -0.5
-1.0 jeanne -0.5
-1.0 moreau -0.5
-1.0 fairly -0.5
-1.0 reappears -0.5
-1.0 pullman -0.5
-1.0 magnificent -0.5
-1.0 malden -0.5
-1.0 knowing -0.5
-1.0 rolling -0.5
-1.0 eyeballs -0.5
-1.0 villain -0.5
-1.0 donahue -0.5
-1.0 claudette -0.5
-1.0 colbert -0.5
-1.0 blond -0.5
-1.0 youth -0.5
-1.0 amid -0.5
-1.0 karl -0.5
-1.0 dazzling -0.5
-1.0 dumbness -0.5
-1.0 troy -0.5
-1.0 lynne -0.5
-1.0 honey -0.5
-1.0 part-author -0.5
-1.0 delaney -0.5
-1.0 script -0.5
-1.0 directed -0.5
-1.0 tony -0.5
-1.0 richardson -0.5
-1.0 derived -0.5
-1.0 version -0.5
-1.0 shelagh -0.5
-1.0 delaney's -0.5
-1.0 theatre -0.5
-1.0 produced -0.5
-1.0 everywhere -0.5
-1.0 part- -0.5
-1.0 duced -0.5
-1.0 conceived -0.5
-1.0 marriage -0.5
-1.0 visual -0.5
-1.0 filmed -0.5
-1.0 premiere -0.5
-1.0 vividly -0.5
-1.0 fanny -0.5
-1.0 joshua -0.5
-1.0 logan -0.5
-1.0 attempted -0.5
-1.0 create -0.5
-1.0 characters -0.5
-1.0 ceived -0.5
-1.0 charac- -0.5
-1.0 ters -0.5
-1.0 concei- -0.5
-1.0 ved -0.5
-1.0 wet -0.5
-1.0 pavements -0.5
-1.0 play-grounds -0.5
-1.0 monuments -0.5
-1.0 rubbish -0.5
-1.0 churchyard -0.5
-1.0 sacred -0.5
-1.0 memory -0.5
-1.0 integral -0.5
-1.0 strewn -0.5
-1.0 canals -0.5
-1.0 worn -0.5
-1.0 head-stones -0.5
-1.0 shabby -0.5
-1.0 play- -0.5
-1.0 gral -0.5
-1.0 inte- -0.5
-1.0 lives -0.5
-1.0 dingy -0.5
-1.0 surroundings -0.5
-1.0 learns -0.5
-1.0 sex -0.5
-1.0 herself -0.5
-1.0 incoherently -0.5
-1.0 clumsily -0.5
-1.0 inquisitively -0.5
-1.0 intense -0.5
-1.0 realism -0.5
-1.0 child -0.5
-1.0 slatternly -0.5
-1.0 promiscuous -0.5
-1.0 lover -0.5
-1.0 sailor -0.5
-1.0 sordid -0.5
-1.0 experiences -0.5
-1.0 shyly -0.5
-1.0 quisitively -0.5
-1.0 someone -0.5
-1.0 love -0.5
-1.0 pregnant -0.5
-1.0 befriended -0.5
-1.0 expectant -0.5
-1.0 acts -0.5
-1.0 forlorn -0.5
-1.0 gift -0.5
-1.0 companionship -0.5
-1.0 sym- -0.5
-1.0 maternal -0.5
-1.0 instinct -0.5
-1.0 unborn -0.5
-1.0 pathy -0.5
-1.0 estranged -0.5
-1.0 women -0.5
-1.0 homosexual -0.5
-1.0 protector -0.5
-1.0 comforter -0.5
-1.0 homo- -0.5
-1.0 sexual -0.5
-1.0 panionship -0.5
-1.0 flawed -0.5
-1.0 beautiful -0.5
-1.0 enigma -0.5
-1.0 irene -0.5
-1.0 sergeant -0.5
-1.0 altogether -0.5
-1.0 clearer -0.5
-1.0 intelligence -0.5
-1.0 restrained -0.5
-1.0 arguably -0.5
-1.0 dramatist -0.5
-1.0 committed -0.5
-1.0 scenes -0.5
-1.0 dinsdale -0.5
-1.0 landen -0.5
-1.0 longest -0.5
-1.0 pinkie -0.5
-1.0 johnstone -0.5
-1.0 perfor- -0.5
-1.0 mance -0.5
-1.0 unbridled -0.5
-1.0 ambition -0.5
-1.0 unfamiliar -0.5
-1.0 destructive -0.5
-1.0 bryan -0.5
-1.0 stonehouse's -0.5
-1.0 quietly -0.5
-1.0 elements -0.5
-1.0 night's -0.5
-1.0 betti's -0.5
-1.0 over-emphasizing -0.5
-1.0 ferris -0.5
-1.0 morality -0.5
-1.0 dent -0.5
-1.0 indepen- -0.5
-1.0 ris -0.5
-1.0 emphasizing -0.5
-1.0 fer- -0.5
-1.0 over- -0.5
-1.0 treatments -0.5
-1.0 attempting -0.5
-1.0 distance -0.5
-1.0 generate -0.5
-1.0 melodramatic -0.5
-1.0 inevitability -0.5
-1.0 manipulated -0.5
-1.0 unredeemable -0.5
-1.0 desolation -0.5
-1.0 dramatic -0.5
-1.0 mable -0.5
-1.0 unredee- -0.5
-1.0 melo- -0.5
-1.0 solation -0.5
-1.0 pulated -0.5
-1.0 mani- -0.5
-1.0 de- -0.5
-1.0 lucas -0.5
-1.0 morris -0.5
-1.0 insensi- -0.5
-1.0 suitably -0.5
-1.0 gaudy -0.5
-1.0 editor -0.5
-1.0 comically -0.5
-1.0 abashed -0.5
-1.0 palely -0.5
-1.0 appealing -0.5
-1.0 maxwell -0.5
-1.0 tively -0.5
-1.0 pushing -0.5
-1.0 sheila -0.5
-1.0 modulate -0.5
-1.0 moods -0.5
-1.0 richards -0.5
-1.0 lavish -0.5
-1.0 grotesque -0.5
-1.0 aubrey -0.5
-1.0 father-in- -0.5
-1.0 father-in-law -0.5
-1.0 insensitively -0.5
-1.0 ciency -0.5
-1.0 effi- -0.5
-1.0 comi- -0.5
-1.0 cally -0.5
-1.0 sitively -0.5
-1.0 insen- -0.5
-1.0 driven -0.5
-1.0 oddly -0.5
-1.0 queer -0.5
-1.0 endowed -0.5
-1.0 accents -0.5
-1.0 lucas's -0.5
-1.0 explicably -0.5
-1.0 appreciable -0.5
-1.0 motives -0.5
-1.0 ineffectuality -0.5
-1.0 vaughan -0.5
-1.0 palladium -0.5
-1.0 paraphrase -0.5
-1.0 well-known -0.5
-1.0 ditty -0.5
-1.0 limelight -0.5
-1.0 effervescent -0.5
-1.0 performer -0.5
-1.0 frankie -0.5
-1.0 neagle -0.5
-1.0 wilcox -0.5
-1.0 carrot -0.5
-1.0 dangled -0.5
-1.0 nose -0.5
-1.0 star-studded -0.5
-1.0 hunch -0.5
-1.0 hollywood -0.5
-1.0 bosses -0.5
-1.0 20th-century -0.5
-1.0 fox -0.5
-1.0 recently -0.5
-1.0 razzamataz -0.5
-1.0 red-carpet -0.5
-1.0 haven't -0.5
-1.0 platinum-plated -0.5
-1.0 aspiring -0.5
-1.0 cardboard -0.5
-1.0 didn't -0.5
-1.0 selfish -0.5
-1.0 arrogant -0.5
-1.0 brash -0.5
-1.0 ambitious -0.5
-1.0 unscrupulous -0.5
-1.0 heel -0.5
-1.0 ratrace -0.5
-1.0 rialto -0.5
-1.0 glum -0.5
-1.0 know-how -0.5
-1.0 marilyn -0.5
-1.0 monroe -0.5
-1.0 tread -0.5
-1.0 anybody's -0.5
-1.0 neck -0.5
-1.0 break -0.5
-1.0 yves -0.5
-1.0 montand -0.5
-1.0 moments -0.5
-1.0 swings -0.5
-1.0 breezily -0.5
-1.0 smooth-tongued -0.5
-1.0 ill-mannered -0.5
-1.0 yank -0.5
-1.0 cheats -0.5
-1.0 waitress -0.5
-1.0 juliet -0.5
-1.0 prowse -0.5
-1.0 cynically -0.5
-1.0 uses -0.5
-1.0 title -0.5
-1.0 song -0.5
-1.0 magazine -0.5
-1.0 editress -0.5
-1.0 martha -0.5
-1.0 hyer -0.5
-1.0 double-crosses -0.5
-1.0 pals -0.5
-1.0 nice -0.5
-1.0 arena -0.5
-1.0 ronald -0.5
-1.0 lewis -0.5
-1.0 jump -0.5
-1.0 thanks -0.5
-1.0 sound -0.5
-1.0 6,000 -0.5
-1.0 heck -0.5
-1.0 advised -0.5
-1.0 warner -0.5
-1.0 x -0.5
-1.0 verdict -0.5
-1.0 by-passed -0.5
-1.0 variation -0.5
-1.0 sinister -0.5
-1.0 yarn -0.5
-1.0 cast -0.5
-1.0 heroine -0.5
-1.0 damsel -0.5
-1.0 distress -0.5
-1.0 well-made -0.5
-1.0 built -0.5
-1.0 neatly -0.5
-1.0 susan -0.5
-1.0 strasberg -0.5
-1.0 crippled -0.5
-1.0 flagrant -0.5
-1.0 cheating -0.5
-1.0 eerie -0.5
-1.0 comedy -0.5
-1.0 rescue -0.5
-1.0 bunk -0.5
-1.0 herrings -0.5
-1.0 find-the-body -0.5
-1.0 thriller -0.5
-1.0 homely -0.5
-1.0 mug -0.5
-1.0 sidney -0.5
-1.0 effectively -0.5
-1.0 chilly -0.5
-1.0 stepmother -0.5
-1.0 ann -0.5
-1.0 todd -0.5
-1.0 christopher -0.5
-1.0 lee -0.5
-1.0 pumped -0.5
-1.0 slim -0.5
-1.0 strained -0.5
-1.0 leicester-square -0.5
-1.0 near-disastrous -0.5
-1.0 leak -0.5
-1.0 starts -0.5
-1.0 brightly -0.5
-1.0 navigator -0.5
-1.0 sid -0.5
-1.0 tower -0.5
-1.0 loose -0.5
-1.0 ancient -0.5
-1.0 houseboat -0.5
-1.0 honeymoon -0.5
-1.0 trip -0.5
-1.0 hoops -0.5
-1.0 laughter -0.5
-1.0 newly-weds -0.5
-1.0 ian -0.5
-1.0 carmichael -0.5
-1.0 janette -0.5
-1.0 repertory -0.5
-1.0 character-actors -0.5
-1.0 half-way -0.5
-1.0 boat -0.5
-1.0 scheming -0.5
-1.0 jewel -0.5
-1.0 thief -0.5
-1.0 jacques -0.5
-1.0 gillies -0.5
-1.0 takers -0.5
-1.0 polished -0.5
-1.0 drama -0.5
-1.0 '61 -0.5
-1.0 houston's -0.5
-1.0 accomplished -0.5
-1.0 donald -0.5
-1.0 houston -0.5
-1.0 t -0.5
-1.0 v's -0.5
-1.0 quentin -0.5
-1.0 gang -0.5
-1.0 crooks -0.5
-1.0 master -0.5
-1.0 doubling -0.5
-1.0 holloway's -0.5
-1.0 stanley -0.5
-1.0 jewellery -0.5
-1.0 struck -0.5
-1.0 ingenious -0.5
-1.0 style -0.5
-1.0 entertaining -0.5
-1.0 re-book -0.5
-1.0 gene -0.5
-1.0 detroy -0.5
-1.0 performing -0.5
-1.0 chimpanzees -0.5
-1.0 rob -0.5
-1.0 millionaire -0.5
-1.0 300,000 -0.5
-1.0 rabbit -0.5
-1.0 warren -0.5
-1.0 field -0.5
-1.0 corn -0.5
-1.0 farce -0.5
-1.0 mudlarks -0.5
-1.0 jeff -0.5
-1.0 mudd -0.5
-1.0 offering -0.5
-1.0 differed -0.5
-1.0 cop -0.5
-1.0 b -0.5
-1.0 c -0.5
-1.0 brother -0.5
-1.0 fred -0.5
-1.0 zestful -0.5
-1.0 sister -0.5
-1.0 mary -0.5
-1.0 trousers -0.5
-1.0 liked -0.5
-1.0 tea-cup -0.5
-1.0 timing -0.5
-1.0 brian -0.5
-1.0 rix -0.5
-1.0 skirt -0.5
-1.0 reshuffle -0.5
-1.0 can't -0.5
-1.0 comics -0.5
-1.0 bolted -0.5
-1.0 holes -0.5
-1.0 cups -0.5
-1.0 dexterity -0.5
-1.0 chinese -0.5
-1.0 jugglers -0.5
-1.0 humour -0.5
-1.0 thorough -0.5
-1.0 shaking -0.5
-1.0 gormless -0.5
-1.0 accidental -0.5
-1.0 bag -0.5
-1.0 edge -0.5
-1.0 carole -0.5
-1.0 shelley -0.5
-1.0 newly-wed -0.5
-1.0 larry -0.5
-1.0 smiler -0.5
-1.0 perkins -0.5
-1.0 laughable -0.5
-1.0 records -0.5
-1.0 've -0.5
-1.0 singers -0.5
-1.0 sing -0.5
-1.0 tune -0.5
-1.0 twang -0.5
-1.0 guitar -0.5
-1.0 2pianna -0.5
-1.0 best-seller -0.5
-1.0 charts -0.5
-1.0 everybody -0.5
-1.0 fed -0.5
-1.0 your -0.5
-1.0 flat -0.5
-1.0 tacks -0.5
-1.0 hammers -0.5
-1.0 disc -0.5
-1.0 solo -0.5
-1.0 pianist -0.5
-1.0 greatly -0.5
-1.0 enhanced -0.5
-1.0 packet -0.5
-1.0 drawing-pins -0.5
-1.0 ex-soldier -0.5
-1.0 lisbon -0.5
-1.0 twenty-three -0.5
-1.0 dagenham -0.5
-1.0 essex -0.5
-1.0 piano -0.5
-1.0 strings -0.5
-1.0 weren't -0.5
-1.0 thumb-tack -0.5
-1.0 musician -0.5
-1.0 david -0.5
-1.0 lisbon's -0.5
-1.0 starred -0.5
-1.0 um-chink -0.5
-1.0 philips -0.5
-1.0 jangly -0.5
-1.0 hauled -0.5
-1.0 thumb-tacked -0.5
-1.0 joanna -0.5
-1.0 thirteen -0.5
-1.0 contract -0.5
-1.0 delightful -0.5
-1.0 ivory-thumping -0.5
-1.0 dept. -0.5
-1.0 taped -0.5
-1.0 tacked -0.5
-1.0 featuring -0.5
-1.0 poppets -0.5
-1.0 russ -0.5
-1.0 conway -0.5
-1.0 tinkled -0.5
-1.0 fame -0.5
-1.0 compositions -0.5
-1.0 deerstalker -0.5
-1.0 grown -0.5
-1.0 rebound -0.5
-1.0 rca -0.5
-1.0 nimble-fingered -0.5
-1.0 piccadilly -0.5
-1.0 polydor -0.5
-1.0 cute -0.5
-1.0 looks -0.5
-1.0 floyd -0.5
-1.0 cramer -0.5
-1.0 elvis -0.5
-1.0 crazy -0.5
-1.0 otto -0.5
-1.0 pianistics -0.5
-1.0 merrily -0.5
-1.0 hal's -0.5
-1.0 brings -0.5
-1.0 boy -0.5
-1.0 vocal -0.5
-1.0 rolly -0.5
-1.0 aladdin's -0.5
-1.0 lamp -0.5
-1.0 monty -0.5
-1.0 bombay -0.5
-1.0 manager -0.5
-1.0 daniels -0.5
-1.0 5,000 -0.5
-1.0 seek -0.5
-1.0 comedian -0.5
-1.0 hal -0.5
-1.0 tuneful -0.5
-1.0 melody -0.5
-1.0 sung -0.5
-1.0 impeccably -0.5
-1.0 producer -0.5
-1.0 six-five -0.5
-1.0 turner -0.5
-1.0 aiming -0.5
-1.0 free-lance -0.5
-1.0 obliged -0.5
-1.0 april -0.5
-1.0 serenade -0.5
-1.0 33 -0.5
-1.0 programme -0.5
-1.0 tolch -0.5
-1.0 v -0.5
-1.0 harbin's -0.5
-1.0 mystery -0.5
-1.0 magic -0.5
-1.0 7.30 -0.5
-1.0 juke -0.5
-1.0 jury -0.5
-1.0 carroll -0.5
-1.0 8.25 -0.5
-1.0 hughes -0.5
-1.0 mine -0.5
-1.0 music -0.5
-1.0 9.30 -0.5
-1.0 songs-of-britain -0.5
-1.0 medley -0.5
-1.0 boxing -0.5
-1.0 fans -0.5
-1.0 eight-round -0.5
-1.0 feather-weight -0.5
-1.0 contest -0.5
-1.0 chris -0.5
-1.0 elliot -0.5
-1.0 mutually -0.5
-1.0 escapologist -0.5
-1.0 dill-russell -0.5
-1.0 tranquilly -0.5
-1.0 sunny -0.5
-1.0 anglesey-road -0.5
-1.0 congregation -0.5
-1.0 brandy -0.5
-1.0 bottle -0.5
-1.0 gathered -0.5
-1.0 devotion -0.5
-1.0 brendan -0.5
-1.0 behan -0.5
-1.0 mid-morning -0.5
-1.0 dublin -0.5
-1.0 hard-core -0.5
-1.0 listen -0.5
-1.0 roller-coaster -0.5
-1.0 occasional -0.5
-1.0 stops -0.5
-1.0 owner's -0.5
-1.0 swish -0.5
-1.0 anecdotal -0.5
-1.0 amber -0.5
-1.0 inches -0.5
-1.0 empties -0.5
-1.0 hearts -0.5
-1.0 2bhoys -0.5
-1.0 hallway -0.5
-1.0 i.r.a. -0.5
-1.0 connemara -0.5
-1.0 tear-jerker -0.5
-1.0 obliging -0.5
-1.0 guffaw -0.5
-1.0 literary -0.5
-1.0 hierarchy -0.5
-1.0 nancy -0.5
-1.0 mitford -0.5
-1.0 artistically -0.5
-1.0 myself -0.5
-1.0 journalist's -0.5
-1.0 evelyn -0.5
-1.0 waugh -0.5
-1.0 socially -0.5
-1.0 proceeds -0.5
-1.0 turns -0.5
-1.0 haxell -0.5
-1.0 conversationally -0.5
-1.0 'm -0.5
-1.0 exceedingly -0.5
-1.0 2skint -0.5
-1.0 royce -0.5
-1.0 educate -0.5
-1.0 write -0.5
-1.0 'd -0.5
-1.0 bloody -0.5
-1.0 silly -0.5
-1.0 calling -0.5
-1.0 rolls- -0.5
-1.0 flower -0.5
-1.0 cultural -0.5
-1.0 journalist -0.5
-1.0 entertain -0.5
-1.0 advantage -0.5
-1.0 knows -0.5
-1.0 orbit -0.5
-1.0 seventh -0.5
-1.0 avenue -0.5
-1.0 pigsty -0.5
-1.0 're -0.5
-1.0 irish -0.5
-1.0 bar -0.5
-1.0 astronaut -0.5
-1.0 earth -0.5
-1.0 doesn't -0.5
-1.0 bores -0.5
-1.0 cardinal -0.5
-1.0 newman -0.5
-1.0 reminiscences -0.5
-1.0 trips -0.5
-1.0 distinction -0.5
-1.0 salvation -0.5
-1.0 gagarin -0.5
-1.0 hooey -0.5
-1.0 plunges -0.5
-1.0 canadians -0.5
-1.0 mouse -0.5
-1.0 postage -0.5
-1.0 stamp -0.5
-1.0 york's -0.5
-1.0 patrick's -0.5
-1.0 disorderly -0.5
-1.0 banned -0.5
-1.0 ireland -0.5
-1.0 shillelagh -0.5
-1.0 israel -0.5
-1.0 matzo -0.5
-1.0 lichtenstein -0.5
-1.0 chat -0.5
-1.0 space-flight -0.5
-1.0 suffered -0.5
-1.0 alcoholic -0.5
-1.0 seizure -0.5
-1.0 gravely -0.5
-1.0 ill -0.5
-1.0 newspapers -0.5
-1.0 condition -0.5
-1.0 beaks -0.5
-1.0 heralded -0.5
-1.0 diabetic -0.5
-1.0 gargle -0.5
-1.0 drunk -0.5
-1.0 stratford -0.5
-1.0 spring -0.5
-1.0 finished -0.5
-1.0 hostage -0.5
-1.0 quare -0.5
-1.0 brendan's -0.5
-1.0 richard's -0.5
-1.0 cork -0.5
-1.0 leg -0.5
-1.0 18 -0.5
-1.0 borstal -0.5
-1.0 presentation -0.5
-1.0 12,000-word -0.5
-1.0 manuscript -0.5
-1.0 begins -0.5
-1.0 celebrate -0.5
-1.0 deirdre's -0.5
-1.0 abortion -0.5
-1.0 bristol -0.5
-1.0 publishers -0.5
-1.0 skeleton -0.5
-1.0 book -0.5
-1.0 partially -0.5
-1.0 tape-recorded -0.5
-1.0 confessions -0.5
-1.0 rebel -0.5
-1.0 agents -0.5
-1.0 ribald -0.5
-1.0 observant -0.5
-1.0 fragment -0.5
-1.0 draught -0.5
-1.0 porter -0.5
-1.0 authentic -0.5
-1.0 glass -0.5
-1.0 pub -0.5
-1.0 throws -0.5
-1.0 witnessed -0.5
-1.0 some- -0.5
-1.0 budgerigar -0.5
-1.0 perfect -0.5
-1.0 technique -0.5
-1.0 stand-in -0.5
-1.0 stunt -0.5
-1.0 hiccup -0.5
-1.0 odeon -0.5
-1.0 brilliant -0.5
-1.0 budge -0.5
-1.0 credit -0.5
-1.0 playing -0.5
-1.0 talented -0.5
-1.0 vista -0.5
-1.0 styled -0.5
-1.0 than-average -0.5
-1.0 glossy -0.5
-1.0 hollywood- -0.5
-1.0 shot -0.5
-1.0 portofino -0.5
-1.0 better- -0.5
-1.0 feathered -0.5
-1.0 sun-terrace -0.5
-1.0 splendido -0.5
-1.0 renamed -0.5
-1.0 jeep-load -0.5
-1.0 chaperon -0.5
-1.0 brenda -0.5
-1.0 banzie -0.5
-1.0 inevitably -0.5
-1.0 hudson -0.5
-1.0 escorted -0.5
-1.0 lollo -0.5
-1.0 broken -0.5
-1.0 places -0.5
-1.0 truths -0.5
-1.0 gina -0.5
-1.0 thrown -0.5
-1.0 adult -0.5
-1.0 screams -0.5
-1.0 hereabouts -0.5
-1.0 boredom -0.5
-1.0 honest -0.5
-1.0 hill -0.5
-1.0 jeans-and- -0.5
-1.0 35 -0.5
-1.0 bobby -0.5
-1.0 darin -0.5
-1.0 rid -0.5
-1.0 solid -0.5
-1.0 rock -0.5
-1.0 jeep -0.5
-1.0 brigadiers -0.5
-1.0 hills -0.5
-1.0 youngsters -0.5
-1.0 weld -0.5
-1.0 bad -0.5
-1.0 middle-aged -0.5
-1.0 romancers -0.5
-1.0 respectably -0.5
-1.0 wed -0.5
-1.0 typical -0.5
-1.0 teenager -0.5
-1.0 sandra -0.5
-1.0 dee -0.5
-1.0 married -0.5
-1.0 steady -0.5
-1.0 delectable -0.5
-1.0 ends -0.5
-1.0 keeps -0.5
-1.0 fun-films -0.5
-1.0 toting -0.5
-1.0 slapstick -0.5
-1.0 gag -0.5
-1.0 witty -0.5
-1.0 verbal -0.5
-1.0 marriage-go-round -0.5
-1.0 carlton -0.5
-1.0 entry -0.5
-1.0 gladiator -0.5
-1.0 look-out -0.5
-1.0 manners -0.5
-1.0 ture -0.5
-1.0 julie -0.5
-1.0 newmar -0.5
-1.0 academic -0.5
-1.0 knock-out -0.5
-1.0 pic- -0.5
-1.0 younger -0.5
-1.0 intelligent -0.5
-1.0 nobel -0.5
-1.0 prize-winning -0.5
-1.0 firmation -0.5
-1.0 mason -0.5
-1.0 prettier -0.5
-1.0 institutes -0.5
-1.0 advanced -0.5
-1.0 home-making -0.5
-1.0 domestic -0.5
-1.0 waste -0.5
-1.0 studies -0.5
-1.0 attached -0.5
-1.0 sardonic -0.5
-1.0 handling -0.5
-1.0 psychology -0.5
-1.0 subtle -0.5
-1.0 sweetly -0.5
-1.0 michelangelo -0.5
-1.0 hayward -0.5
-1.0 sharply -0.5
-1.0 stunner -0.5
-1.0 essay -0.5
-1.0 atmospheric -0.5
-1.0 captain -0.5
-1.0 junior -0.5
-1.0 hockey -0.5
-1.0 according -0.5
-1.0 il -0.5
-1.0 grido -0.5
-1.0 cry -0.5
-1.0 glower -0.5
-1.0 meandering -0.5
-1.0 l'avventura -0.5
-1.0 1932 -0.5
-1.0 tiptoed -0.5
-1.0 baby's -0.5
-1.0 20-month-old -0.5
-1.0 jun. -0.5
-1.0 sleeping -0.5
-1.0 emptiness -0.5
-1.0 gripping -0.5
-1.0 loaded -0.5
-1.0 rifle -0.5
-1.0 bending -0.5
-1.0 cot -0.5
-1.0 thrust -0.5
-1.0 jersey -0.5
-1.0 family -0.5
-1.0 household -0.5
-1.0 breathing -0.5
-1.0 floundered -0.5
-1.0 electrocution -0.5
-1.0 bruno -0.5
-1.0 hauptmann -0.5
-1.0 era -0.5
-1.0 sensation-hunger -0.5
-1.0 german- -0.5
-1.0 tellingly -0.5
-1.0 sober -0.5
-1.0 manner -0.5
-1.0 born -0.5
-1.0 bronx -0.5
-1.0 carpenter -0.5
-1.0 named -0.5
-1.0 raree-show -0.5
-1.0 emotionalism -0.5
-1.0 possess -0.5
-1.0 heritage -0.5
-1.0 lace -0.5
-1.0 possessions -0.5
-1.0 robe -0.5
-1.0 generation -0.5
-1.0 wears -0.5
-1.0 daughters -0.5
-1.0 lace-trimmed -0.5
-1.0 christening -0.5
-1.0 bridal -0.5
-1.0 veil -0.5
-1.0 handed -0.5
-1.0 exquisite -0.5
-1.0 lace-making -0.5
-1.0 lapse -0.5
-1.0 lovely -0.5
-1.0 over-furnishing -0.5
-1.0 victorian -0.5
-1.0 lamentably -0.5
-1.0 fussy -0.5
-1.0 ustrations -0.5
-1.0 pages -0.5
-1.0 temporary -0.5
-1.0 adapted -0.5
-1.0 tastes -0.5
-1.0 ill- -0.5
-1.0 viable -0.5
-1.0 readily -0.5
-1.0 art -0.5
-1.0 decline -0.5
-1.0 one's -0.5
-1.0 handiwork -0.5
-1.0 ready-made -0.5
-1.0 bold -0.5
-1.0 design -0.5
-1.0 tatting -0.5
-1.0 medium-weight -0.5
-1.0 cottons -0.5
-1.0 striking -0.5
-1.0 individuality -0.5
-1.0 chairbacks -0.5
-1.0 cushions -0.5
-1.0 tablecloths -0.5
-1.0 rich -0.5
-1.0 knitting -0.5
-1.0 crochet -0.5
-1.0 reflects -0.5
-1.0 creative -0.5
-1.0 talent -0.5
-1.0 satisfying -0.5
-1.0 traditional -0.5
-1.0 patterns -0.5
-1.0 insertion -0.5
-1.0 petticoat -0.5
-1.0 blouse -0.5
-1.0 tatted -0.5
-1.0 brain-children -0.5
-1.0 feminine -0.5
-1.0 skills -0.5
-1.0 well-loved -0.5
-1.0 assess -0.5
-1.0 border -0.5
-1.0 handkerchief -0.5
-1.0 fine-lace -0.5
-1.0 threads -0.5
-1.0 reserved -0.5
-1.0 delicate -0.5
-1.0 finer -0.5
-1.0 collar -0.5
-1.0 designed -0.5
-1.0 schools -0.5
-1.0 teach -0.5
-1.0 lace- -0.5
-1.0 folklore -0.5
-1.0 courtship -0.5
-1.0 grew -0.5
-1.0 livelihood -0.5
-1.0 consequently -0.5
-1.0 sixteenth -0.5
-1.0 victoria -0.5
-1.0 gentle -0.5
-1.0 convents -0.5
-1.0 elaborate -0.5
-1.0 distinctive -0.5
-1.0 abused -0.5
-1.0 nuns -0.5
-1.0 amount -0.5
-1.0 rosettes -0.5
-1.0 fillings -0.5
-1.0 texture -0.5
-1.0 sold -0.5
-1.0 price -0.5
-1.0 fashion -0.5
-1.0 articles -0.5
-1.0 elegant -0.5
-1.0 hand-crocheted -0.5
-1.0 blouses -0.5
-1.0 gossamer -0.5
-1.0 gloves -0.5
-1.0 boutiques -0.5
-1.0 edging -0.5
-1.0 cuffs -0.5
-1.0 reasonably -0.5
-1.0 functions -0.5
-1.0 stitches -0.5
-1.0 traycloths -0.5
-1.0 runners -0.5
-1.0 edgings -0.5
-1.0 simple -0.5
-1.0 diagrams -0.5
-1.0 beginner -0.5
-1.0 shape -0.5
-1.0 ensuring -0.5
-1.0 pins -0.5
-1.0 basting -0.5
-1.0 accurate -0.5
-1.0 linen -0.5
-1.0 outline -0.5
-1.0 edges -0.5
-1.0 launder -0.5
-1.0 pin -0.5
-1.0 stitch -0.5
-1.0 hem -0.5
-1.0 fold -0.5
-1.0 lying -0.5
-1.0 oversew -0.5
-1.0 knotted -0.5
-1.0 3 -0.5
-1.0 dc -0.5
-1.0 corner -0.5
-1.0 row -0.5
-1.0 preserves -0.5
-1.0 beauty -0.5
-1.0 washes -0.5
-1.0 beautifully -0.5
-1.0 loses -0.5
-1.0 coats -0.5
-1.0 mercer-crochet -0.5
-1.0 possesses -0.5
-1.0 thickness -0.5
-1.0 ideal -0.5
-1.0 thread -0.5
-1.0 soft -0.5
-1.0 stringy -0.5
-1.0 elastic -0.5
-1.0 dc. -0.5
-1.0 heavier -0.5
-1.0 bedspreads -0.5
-1.0 hooks -0.5
-1.0 size -0.5
-1.0 3/0 -0.5
-1.0 remember -0.5
-1.0 designs -0.5
-1.0 luncheon -0.5
-1.0 mats -0.5
-1.0 etc. -0.5
-1.0 smallest -0.5
-1.0 doilies -0.5
-1.0 accessories -0.5
-1.0 mercerised -0.5
-1.0 composition -0.5
-1.0 bone -0.5
-1.0 specified -0.5
-1.0 directions -0.5
-1.0 hook -0.5
-1.0 proficient -0.5
-1.0 learn -0.5
-1.0 tip -0.5
-1.0 broad -0.5
-1.0 forefinger -0.5
-1.0 fig. -0.5
-1.0 lapping -0.5
-1.0 loop -0.5
-1.0 grasp -0.5
-1.0 thumb -0.5
-1.0 pencil -0.5
-1.0 finger -0.5
-1.0 tight -0.5
-1.0 palm -0.5
-1.0 pull -0.5
-1.0 opposite -0.5
-1.0 insert -0.5
-1.0 legs -0.5
-1.0 reproduction -0.5
-1.0 pieces -0.5
-1.0 furniture -0.5
-1.0 tapered -0.5
-1.0 varieties -0.5
-1.0 toe -0.5
-1.0 complicates -0.5
-1.0 frequently -0.5
-1.0 simpler -0.5
-1.0 planed -0.5
-1.0 taper -0.5
-1.0 smoothing -0.5
-1.0 plane -0.5
-1.0 gauge -0.5
-1.0 nick -0.5
-1.0 tapers -0.5
-1.0 newly -0.5
-1.0 surfaces -0.5
-1.0 treated -0.5
-1.0 sole -0.5
-1.0 straight-edge -0.5
-1.0 relies -0.5
-1.0 reveals -0.5
-1.0 care -0.5
-1.0 test -0.5
-1.0 straightness -0.5
-1.0 squared -0.5
-1.0 glance -0.5
-1.0 bottom -0.5
-1.0 vertical -0.5
-1.0 mortising -0.5
-1.0 marked -0.5
-1.0 inner -0.5
-1.0 d -0.5
-1.0 tapering -0.5
-1.0 exactly -0.5
-1.0 tent -0.5
-1.0 marking -0.5
-1.0 upper -0.5
-1.0 ex- -0.5
-1.0 expensive -0.5
-1.0 woodwork -0.5
-1.0 enables -0.5
-1.0 obtained -0.5
-1.0 innumerable -0.5
-1.0 items -0.5
-1.0 materials -0.5
-1.0 material -0.5
-1.0 fitments -0.5
-1.0 garden -0.5
-1.0 toys -0.5
-1.0 easily -0.5
-1.0 cleared -0.5
-1.0 lends -0.5
-1.0 ripping -0.5
-1.0 hardwood -0.5
-1.0 unhesitatingly -0.5
-1.0 available -0.5
-1.0 machines -0.5
-1.0 pretend -0.5
-1.0 drudgery -0.5
-1.0 avoided -0.5
-1.0 installation -0.5
-1.0 tool -0.5
-1.0 elementary -0.5
-1.0 straight-forward -0.5
-1.0 enormously -0.5
-1.0 nature -0.5
-1.0 dictate -0.5
-1.0 additions -0.5
-1.0 arises -0.5
-1.0 actual -0.5
-1.0 guide -0.5
-1.0 fuller -0.5
-1.0 kit -0.5
-1.0 bare -0.5
-1.0 increases -0.5
-1.0 includes -0.5
-1.0 partly -0.5
-1.0 inaccurate -0.5
-1.0 workshop -0.5
-1.0 so-called -0.5
-1.0 lastly -0.5
-1.0 normally -0.5
-1.0 advice -0.5
-1.0 generally -0.5
-1.0 intensive -0.5
-1.0 faults -0.5
-1.0 quality -0.5
-1.0 yourself -0.5
-1.0 handicap -0.5
-1.0 allow -0.5
-1.0 combined -0.5
-1.0 bench -0.5
-1.0 accommodation -0.5
-1.0 vice -0.5
-1.0 storage -0.5
-1.0 woodworker -0.5
-1.0 cupboard -0.5
-1.0 specially -0.5
-1.0 timber -0.5
-1.0 parana -0.5
-1.0 pine -0.5
-1.0 capable -0.5
-1.0 withstanding -0.5
-1.0 solidly -0.5
-1.0 youngster -0.5
-1.0 finish -0.5
-1.0 father-to-be -0.5
-1.0 unlike -0.5
-1.0 welcomed -0.5
-1.0 altered -0.5
-1.0 feeding -0.5
-1.0 tray -0.5
-1.0 slide -0.5
-1.0 in. -0.5
-1.0 height -0.5
-1.0 cutters -0.5
-1.0 frames -0.5
