\data\
ngram 1=6592
ngram 2=13178
ngram 3=6589

\1-grams:
-4.4208136	<unk>	0
0	<s>	-0.30103
-0.3010959	</s>	0
-4.119817	A	-0.30103
-4.119817	A.	-0.30103
-4.119817	A.D.	-0.30103
-4.119817	ACTOR	-0.30103
-4.119817	AFTER	-0.30103
-4.119817	AIR	-0.30103
-4.119817	ALSO	-0.30103
-4.119817	AM	-0.30103
-4.119817	AN	-0.30103
-4.119817	ARCHBISHOP	-0.30103
-4.119817	Abou	-0.30103
-4.119817	About	-0.30103
-4.119817	Above	-0.30103
-4.119817	Abraham	-0.30103
-4.119817	According	-0.30103
-4.119817	Accra	-0.30103
-4.119817	Accra's	-0.30103
-4.119817	Acton	-0.30103
-4.119817	Actually	-0.30103
-4.119817	Adam	-0.30103
-4.119817	Adamafio	-0.30103
-4.119817	Addressing	-0.30103
-4.119817	Adenauer	-0.30103
-4.119817	Adenauer's	-0.30103
-4.119817	Adhem	-0.30103
-4.119817	Administration	-0.30103
-4.119817	Administration's	-0.30103
-4.119817	Admiralty	-0.30103
-4.119817	Adultery	-0.30103
-4.119817	Advanced	-0.30103
-4.119817	Advertisements	-0.30103
-4.119817	Africa	-0.30103
-4.119817	Africa's	-0.30103
-4.119817	African	-0.30103
-4.119817	Africans	-0.30103
-4.119817	After	-0.30103
-4.119817	Afterwards	-0.30103
-4.119817	Against	-0.30103
-4.119817	Agriculture	-0.30103
-4.119817	Air	-0.30103
-4.119817	Airport	-0.30103
-4.119817	Aladdin's	-0.30103
-4.119817	Alan	-0.30103
-4.119817	Algeria	-0.30103
-4.119817	Algoma	-0.30103
-4.119817	All	-0.30103
-4.119817	Allen	-0.30103
-4.119817	Alley	-0.30103
-4.119817	Almost	-0.30103
-4.119817	Alongside	-0.30103
-4.119817	Altar	-0.30103
-4.119817	Altars	-0.30103
-4.119817	Although	-0.30103
-4.119817	Ambassador	-0.30103
-4.119817	Amen	-0.30103
-4.119817	America	-0.30103
-4.119817	America's	-0.30103
-4.119817	American	-0.30103
-4.119817	American-born	-0.30103
-4.119817	Americans	-0.30103
-4.119817	Among	-0.30103
-4.119817	An	-0.30103
-4.119817	And	-0.30103
-4.119817	Andrei	-0.30103
-4.119817	Angel	-0.30103
-4.119817	Angeles	-0.30103
-4.119817	Anglesey-road	-0.30103
-4.119817	Anglia	-0.30103
-4.119817	Anglian	-0.30103
-4.119817	Anglican	-0.30103
-4.119817	Angola	-0.30103
-4.119817	Ann	-0.30103
-4.119817	Anna	-0.30103
-4.119817	Answering	-0.30103
-4.119817	Anthony	-0.30103
-4.119817	Antonioni	-0.30103
-4.119817	Antonioni's	-0.30103
-4.119817	Any	-0.30103
-4.119817	Anybody	-0.30103
-4.119817	Apart	-0.30103
-4.119817	Applauding	-0.30103
-4.119817	Appointment	-0.30103
-4.119817	Archbishop	-0.30103
-4.119817	Arguably	-0.30103
-4.119817	Arms'	-0.30103
-4.119817	Army	-0.30103
-4.119817	Arnold	-0.30103
-4.119817	As	-0.30103
-4.119817	Ashmodeus	-0.30103
-4.119817	Asia	-0.30103
-4.119817	Assarja	-0.30103
-4.119817	Assistance	-0.30103
-4.119817	Association	-0.30103
-4.119817	At	-0.30103
-4.119817	Atlantic	-0.30103
-4.119817	Aubrey	-0.30103
-4.119817	Auden	-0.30103
-4.119817	August	-0.30103
-4.119817	Australia	-0.30103
-4.119817	Austria	-0.30103
-4.119817	Austrian	-0.30103
-4.119817	Authorized	-0.30103
-4.119817	Autumn	-0.30103
-4.119817	Avenue	-0.30103
-4.119817	Aviation	-0.30103
-4.119817	Avoid	-0.30103
-4.119817	Avon	-0.30103
-4.119817	Aznavour	-0.30103
-4.119817	B	-0.30103
-4.119817	B.B.C.	-0.30103
-4.119817	BAFFLED	-0.30103
-4.119817	BEFORE	-0.30103
-4.119817	BERTRAND	-0.30103
-4.119817	BRITAIN	-0.30103
-4.119817	BUDGETTE	-0.30103
-4.119817	BUTLER	-0.30103
-4.119817	Baal-meon	-0.30103
-4.119817	Back	-0.30103
-4.119817	Bacon	-0.30103
-4.119817	Bagaya	-0.30103
-4.119817	Baltic	-0.30103
-4.119817	Ban-	-0.30103
-4.119817	Ban-the-	-0.30103
-4.119817	Bank	-0.30103
-4.119817	Bank's	-0.30103
-4.119817	Banking	-0.30103
-4.119817	Banks	-0.30103
-4.119817	Banzie	-0.30103
-4.119817	Barclay	-0.30103
-4.119817	Barry	-0.30103
-4.119817	Battle	-0.30103
-4.119817	Be	-0.30103
-4.119817	Because	-0.30103
-4.119817	Behan	-0.30103
-4.119817	Beier	-0.30103
-4.119817	Being	-0.30103
-4.119817	Belgian	-0.30103
-4.119817	Belgium	-0.30103
-4.119817	Belgrade	-0.30103
-4.119817	Bell	-0.30103
-4.119817	Bella	-0.30103
-4.119817	Ben	-0.30103
-4.119817	Bending	-0.30103
-4.119817	Berlin	-0.30103
-4.119817	Berlin's	-0.30103
-4.119817	Bernhard	-0.30103
-4.119817	Berochoth	-0.30103
-4.119817	Betti's	-0.30103
-4.119817	Between	-0.30103
-4.119817	Bible	-0.30103
-4.119817	Big	-0.30103
-4.119817	Bill	-0.30103
-4.119817	Bills	-0.30103
-4.119817	Bitter-Herbs	-0.30103
-4.119817	Black	-0.30103
-4.119817	Blank	-0.30103
-4.119817	Bloem-	-0.30103
-4.119817	Blood	-0.30103
-4.119817	Blue	-0.30103
-4.119817	Board	-0.30103
-4.119817	Bobby	-0.30103
-4.119817	Body	-0.30103
-4.119817	Boeing	-0.30103
-4.119817	Bombay	-0.30103
-4.119817	Bonn	-0.30103
-4.119817	Book	-0.30103
-4.119817	Books	-0.30103
-4.119817	Booming	-0.30103
-4.119817	Borstal	-0.30103
-4.119817	Both	-0.30103
-4.119817	Bottom	-0.30103
-4.119817	Boun	-0.30103
-4.119817	Bow-street	-0.30103
-4.119817	Bow-wave	-0.30103
-4.119817	Box	-0.30103
-4.119817	Boxing	-0.30103
-4.119817	Boy	-0.30103
-4.119817	Boyle	-0.30103
-4.119817	Brauchitsch	-0.30103
-4.119817	Brenda	-0.30103
-4.119817	Brendan	-0.30103
-4.119817	Brendan's	-0.30103
-4.119817	Brentano	-0.30103
-4.119817	Brezhnev	-0.30103
-4.119817	Brian	-0.30103
-4.119817	Brighton's	-0.30103
-4.119817	Bring	-0.30103
-4.119817	Britain	-0.30103
-4.119817	Britain's	-0.30103
-4.119817	British	-0.30103
-4.119817	British-owned	-0.30103
-4.119817	Britishers	-0.30103
-4.119817	Brook's	-0.30103
-4.119817	Brown	-0.30103
-4.119817	Brown's	-0.30103
-4.119817	Bru"cke	-0.30103
-4.119817	Bruce	-0.30103
-4.119817	Bruno	-0.30103
-4.119817	Brunswick	-0.30103
-4.119817	Brussels	-0.30103
-4.119817	Bryan	-0.30103
-4.119817	Buckingham	-0.30103
-4.119817	Buckley	-0.30103
-4.119817	Budget	-0.30103
-4.119817	Budgette	-0.30103
-4.119817	Buganda	-0.30103
-4.119817	Bundy	-0.30103
-4.119817	Bunk	-0.30103
-4.119817	Bureau	-0.30103
-4.119817	But	-0.30103
-4.119817	Butler	-0.30103
-4.119817	By	-0.30103
-4.119817	Byrne	-0.30103
-4.119817	Byron	-0.30103
-4.119817	C	-0.30103
-4.119817	C's	-0.30103
-4.119817	C.	-0.30103
-4.119817	C.C.F.	-0.30103
-4.119817	C.I.G.S.	-0.30103
-4.119817	CHARAUSES	-0.30103
-4.119817	CHARLES	-0.30103
-4.119817	CHILDREN	-0.30103
-4.119817	CHRIS	-0.30103
-4.119817	CONTRAST	-0.30103
-4.119817	COP	-0.30103
-4.119817	CORRESPONDENT	-0.30103
-4.119817	CRAZY	-0.30103
-4.119817	CURIOUS	-0.30103
-4.119817	Cabinet	-0.30103
-4.119817	Callaghan	-0.30103
-4.119817	Calvinists	-0.30103
-4.119817	Cambodia	-0.30103
-4.119817	Cambridge	-0.30103
-4.119817	Campaign	-0.30103
-4.119817	Can	-0.30103
-4.119817	Canada	-0.30103
-4.119817	Canadian	-0.30103
-4.119817	Canadians	-0.30103
-4.119817	Cannon-row	-0.30103
-4.119817	Canon	-0.30103
-4.119817	Cantabile	-0.30103
-4.119817	Cape	-0.30103
-4.119817	Capetown	-0.30103
-4.119817	Cardinal	-0.30103
-4.119817	Carlton	-0.30103
-4.119817	Carmichael	-0.30103
-4.119817	Carole	-0.30103
-4.119817	Catch	-0.30103
-4.119817	Catechism	-0.30103
-4.119817	Cent.	-0.30103
-4.119817	Centigrade	-0.30103
-4.119817	Central	-0.30103
-4.119817	Certainly	-0.30103
-4.119817	Chairbacks	-0.30103
-4.119817	Chancellor	-0.30103
-4.119817	Charauses	-0.30103
-4.119817	Charles	-0.30103
-4.119817	Che-	-0.30103
-4.119817	Chequers	-0.30103
-4.119817	Cherbourg	-0.30103
-4.119817	Cherubim	-0.30103
-4.119817	Chester	-0.30103
-4.119817	Chiefs	-0.30103
-4.119817	Chinese	-0.30103
-4.119817	Chris	-0.30103
-4.119817	Christ	-0.30103
-4.119817	Christening	-0.30103
-4.119817	Christianity	-0.30103
-4.119817	Christmas	-0.30103
-4.119817	Christopher	-0.30103
-4.119817	Chronicle	-0.30103
-4.119817	Church	-0.30103
-4.119817	Clark	-0.30103
-4.119817	Clean	-0.30103
-4.119817	Close	-0.30103
-4.119817	Coats	-0.30103
-4.119817	Cold	-0.30103
-4.119817	Collins	-0.30103
-4.119817	Colonial	-0.30103
-4.119817	Columbia	-0.30103
-4.119817	Comedian	-0.30103
-4.119817	Coming	-0.30103
-4.119817	Commission	-0.30103
-4.119817	Commissioner	-0.30103
-4.119817	Committee	-0.30103
-4.119817	Common	-0.30103
-4.119817	Commons	-0.30103
-4.119817	Commonwealth	-0.30103
-4.119817	Communion	-0.30103
-4.119817	Communist	-0.30103
-4.119817	Communists	-0.30103
-4.119817	Community	-0.30103
-4.119817	Comprehensive	-0.30103
-4.119817	Comrades	-0.30103
-4.119817	Conference	-0.30103
-4.119817	Confessions	-0.30103
-4.119817	Confirmation	-0.30103
-4.119817	Confusion	-0.30103
-4.119817	Congo	-0.30103
-4.119817	Congolese	-0.30103
-4.119817	Congress	-0.30103
-4.119817	Connemara	-0.30103
-4.119817	Cons.	-0.30103
-4.119817	Conservative	-0.30103
-4.119817	Conservatives	-0.30103
-4.119817	Consideration	-0.30103
-4.119817	Constitution	-0.30103
-4.119817	Constitutional	-0.30103
-4.119817	Consultative	-0.30103
-4.119817	Continent	-0.30103
-4.119817	Convention	-0.30103
-4.119817	Conway	-0.30103
-4.119817	Cooper	-0.30103
-4.119817	Corell-Barnes	-0.30103
-4.119817	Corporation	-0.30103
-4.119817	Council	-0.30103
-4.119817	Council's	-0.30103
-4.119817	Countless	-0.30103
-4.119817	Court	-0.30103
-4.119817	Courtenay	-0.30103
-4.119817	Couve	-0.30103
-4.119817	Coventry	-0.30103
-4.119817	Crabb	-0.30103
-4.119817	Cramer	-0.30103
-4.119817	Criticisms	-0.30103
-4.119817	Crochet	-0.30103
-4.119817	Crossman	-0.30103
-4.119817	Cry	-0.30103
-4.119817	Cut	-0.30103
-4.119817	Cypriots	-0.30103
-4.119817	Cyprus	-0.30103
-4.119817	Czechoslovakia	-0.30103
-4.119817	DDT	-0.30103
-4.119817	DELIGHTFUL	-0.30103
-4.119817	DESPITE	-0.30103
-4.119817	DICKIE	-0.30103
-4.119817	DIRECTOR	-0.30103
-4.119817	DONALD	-0.30103
-4.119817	DONS	-0.30103
-4.119817	DUESSELDORF	-0.30103
-4.119817	DURING	-0.30103
-4.119817	Daily	-0.30103
-4.119817	Daneman	-0.30103
-4.119817	Danes	-0.30103
-4.119817	Daniels	-0.30103
-4.119817	Darin	-0.30103
-4.119817	Das	-0.30103
-4.119817	Database	-0.30103
-4.119817	David	-0.30103
-4.119817	Day	-0.30103
-4.119817	Dean	-0.30103
-4.119817	Decalogue	-0.30103
-4.119817	Decide	-0.30103
-4.119817	Dee	-0.30103
-4.119817	Deep	-0.30103
-4.119817	Defence	-0.30103
-4.119817	Delaney	-0.30103
-4.119817	Delaney's	-0.30103
-4.119817	Delegates	-0.30103
-4.119817	Deliverance	-0.30103
-4.119817	Denmark's	-0.30103
-4.119817	Dennis	-0.30103
-4.119817	Derush	-0.30103
-4.119817	Despite	-0.30103
-4.119817	Details	-0.30103
-4.119817	Detroy	-0.30103
-4.119817	Dictionary	-0.30103
-4.119817	Die	-0.30103
-4.119817	Diefen-	-0.30103
-4.119817	Diefenbaker	-0.30103
-4.119817	Dinsdale	-0.30103
-4.119817	Directions	-0.30103
-4.119817	Disarmament	-0.30103
-4.119817	Divine	-0.30103
-4.119817	Dixon	-0.30103
-4.119817	Do	-0.30103
-4.119817	Dolce	-0.30103
-4.119817	Domestic	-0.30103
-4.119817	Dominion	-0.30103
-4.119817	Don't	-0.30103
-4.119817	Doris	-0.30103
-4.119817	Dorothy	-0.30103
-4.119817	Dots	-0.30103
-4.119817	Double	-0.30103
-4.119817	Douglas	-0.30103
-4.119817	Dr	-0.30103
-4.119817	Dr.	-0.30103
-4.119817	Drama	-0.30103
-4.119817	Draughtsmen	-0.30103
-4.119817	Draw	-0.30103
-4.119817	Dublin	-0.30103
-4.119817	Duke	-0.30103
-4.119817	Duncalf	-0.30103
-4.119817	Duncan	-0.30103
-4.119817	During	-0.30103
-4.119817	Dutch	-0.30103
-4.119817	EARL	-0.30103
-4.119817	EARTH	-0.30103
-4.119817	EICHMANN	-0.30103
-4.119817	ETU	-0.30103
-4.119817	ETU.	-0.30103
-4.119817	Each	-0.30103
-4.119817	Earl	-0.30103
-4.119817	East	-0.30103
-4.119817	Easterly	-0.30103
-4.119817	Eastern	-0.30103
-4.119817	Economic	-0.30103
-4.119817	Eden	-0.30103
-4.119817	Edinburgh	-0.30103
-4.119817	Education	-0.30103
-4.119817	Edusei	-0.30103
-4.119817	Edward	-0.30103
-4.119817	Egginton	-0.30103
-4.119817	Egypt	-0.30103
-4.119817	Eichmann	-0.30103
-4.119817	Eighteen	-0.30103
-4.119817	Eisenhower	-0.30103
-4.119817	Eleasar	-0.30103
-4.119817	Eleazar	-0.30103
-4.119817	Electricity	-0.30103
-4.119817	Elegy	-0.30103
-4.119817	Elizabeth	-0.30103
-4.119817	Ellender	-0.30103
-4.119817	Elliot	-0.30103
-4.119817	Ellis	-0.30103
-4.119817	Elvis	-0.30103
-4.119817	Embassy	-0.30103
-4.119817	End	-0.30103
-4.119817	England	-0.30103
-4.119817	Ensure	-0.30103
-4.119817	Eric	-0.30103
-4.119817	Esquimalt	-0.30103
-4.119817	Esther	-0.30103
-4.119817	Europe	-0.30103
-4.119817	European	-0.30103
-4.119817	Evans	-0.30103
-4.119817	Even	-0.30103
-4.119817	Events	-0.30103
-4.119817	Every	-0.30103
-4.119817	Everybody	-0.30103
-4.119817	Everything	-0.30103
-4.119817	Exchange	-0.30103
-4.119817	Exchequer	-0.30103
-4.119817	Exit	-0.30103
-4.119817	FAIR	-0.30103
-4.119817	FEW	-0.30103
-4.119817	FOULKES	-0.30103
-4.119817	FRANCE	-0.30103
-4.119817	FRANK	-0.30103
-4.119817	Fahrenheit	-0.30103
-4.119817	Fall	-0.30103
-4.119817	Fang-	-0.30103
-4.119817	Fanny	-0.30103
-4.119817	Far	-0.30103
-4.119817	Farming	-0.30103
-4.119817	Father	-0.30103
-4.119817	Feast	-0.30103
-4.119817	February	-0.30103
-4.119817	Fede-	-0.30103
-4.119817	Federal	-0.30103
-4.119817	Federation	-0.30103
-4.119817	Fell	-0.30103
-4.119817	Fell's	-0.30103
-4.119817	Femme	-0.30103
-4.119817	Fer-	-0.30103
-4.119817	Ferris	-0.30103
-4.119817	Festing	-0.30103
-4.119817	Festival	-0.30103
-4.119817	Field-Marshal	-0.30103
-4.119817	Fig.	-0.30103
-4.119817	Film	-0.30103
-4.119817	Films	-0.30103
-4.119817	Finally	-0.30103
-4.119817	Financial	-0.30103
-4.119817	Find-the-body	-0.30103
-4.119817	Finlay	-0.30103
-4.119817	Fir	-0.30103
-4.119817	First	-0.30103
-4.119817	Fisher	-0.30103
-4.119817	Fisheries	-0.30103
-4.119817	Five	-0.30103
-4.119817	Fix	-0.30103
-4.119817	Flanagan	-0.30103
-4.119817	Florida	-0.30103
-4.119817	Floyd	-0.30103
-4.119817	Following	-0.30103
-4.119817	Food	-0.30103
-4.119817	Foot	-0.30103
-4.119817	Foot's	-0.30103
-4.119817	Foot-	-0.30103
-4.119817	Foot-Griffiths	-0.30103
-4.119817	For	-0.30103
-4.119817	Force	-0.30103
-4.119817	Ford	-0.30103
-4.119817	Foreign	-0.30103
-4.119817	Forever	-0.30103
-4.119817	Formula	-0.30103
-4.119817	Forty	-0.30103
-4.119817	Fourth	-0.30103
-4.119817	Fox	-0.30103
-4.119817	France	-0.30103
-4.119817	Francis	-0.30103
-4.119817	Frankie	-0.30103
-4.119817	Fred	-0.30103
-4.119817	Freddie	-0.30103
-4.119817	Free	-0.30103
-4.119817	French	-0.30103
-4.119817	Frequently	-0.30103
-4.119817	Friday	-0.30103
-4.119817	Friends	-0.30103
-4.119817	From	-0.30103
-4.119817	G.	-0.30103
-4.119817	GAITSKELL	-0.30103
-4.119817	GENERAL	-0.30103
-4.119817	GERMANY	-0.30103
-4.119817	GERMANY'S	-0.30103
-4.119817	GLENN	-0.30103
-4.119817	GOOD	-0.30103
-4.119817	GRAHAM	-0.30103
-4.119817	GRIDO	-0.30103
-4.119817	Gagarin	-0.30103
-4.119817	Gaitskell	-0.30103
-4.119817	Gaitskellism	-0.30103
-4.119817	Gaitskellites	-0.30103
-4.119817	Gallery	-0.30103
-4.119817	Gardeners	-0.30103
-4.119817	Gaulle	-0.30103
-4.119817	Gaulle's	-0.30103
-4.119817	Gemara	-0.30103
-4.119817	Gen.	-0.30103
-4.119817	Gene	-0.30103
-4.119817	General	-0.30103
-4.119817	Geneva	-0.30103
-4.119817	Geography	-0.30103
-4.119817	George	-0.30103
-4.119817	German	-0.30103
-4.119817	Germans	-0.30103
-4.119817	Germans'	-0.30103
-4.119817	Germany	-0.30103
-4.119817	Germany's	-0.30103
-4.119817	Geschichten	-0.30103
-4.119817	Gethsemane	-0.30103
-4.119817	Ghana	-0.30103
-4.119817	Ghana's	-0.30103
-4.119817	Ghanaian	-0.30103
-4.119817	Gifted	-0.30103
-4.119817	Gina	-0.30103
-4.119817	Git.	-0.30103
-4.119817	Glasgow	-0.30103
-4.119817	Globke	-0.30103
-4.119817	Glory	-0.30103
-4.119817	Gloucester	-0.30103
-4.119817	Glyndebourne	-0.30103
-4.119817	Go	-0.30103
-4.119817	God	-0.30103
-4.119817	Godard	-0.30103
-4.119817	Godard's	-0.30103
-4.119817	Godber	-0.30103
-4.119817	Godber's	-0.30103
-4.119817	Goering	-0.30103
-4.119817	Gollancz	-0.30103
-4.119817	Good	-0.30103
-4.119817	Gospel	-0.30103
-4.119817	Gov-	-0.30103
-4.119817	Government	-0.30103
-4.119817	Government's	-0.30103
-4.119817	Governments	-0.30103
-4.119817	Graaff	-0.30103
-4.119817	Grantham	-0.30103
-4.119817	Grasp	-0.30103
-4.119817	Great	-0.30103
-4.119817	Grechko	-0.30103
-4.119817	Greek	-0.30103
-4.119817	Greenfield	-0.30103
-4.119817	Griffiths	-0.30103
-4.119817	Grissom	-0.30103
-4.119817	Grits	-0.30103
-4.119817	Gunpowder	-0.30103
-4.119817	Gwyn	-0.30103
-4.119817	H-bomb	-0.30103
-4.119817	H.	-0.30103
-4.119817	HAPPY	-0.30103
-4.119817	HEAVEN	-0.30103
-4.119817	HENRY	-0.30103
-4.119817	HENZE'S	-0.30103
-4.119817	HERE	-0.30103
-4.119817	HOUNDING	-0.30103
-4.119817	HOUSTON	-0.30103
-4.119817	HOW	-0.30103
-4.119817	Hagadah	-0.30103
-4.119817	Hal	-0.30103
-4.119817	Hal's	-0.30103
-4.119817	Hambledon	-0.30103
-4.119817	Hamlet	-0.30103
-4.119817	Hammarskjold	-0.30103
-4.119817	Happy	-0.30103
-4.119817	Harold	-0.30103
-4.119817	Harry	-0.30103
-4.119817	Hauptmann	-0.30103
-4.119817	Having	-0.30103
-4.119817	Hayes	-0.30103
-4.119817	Hayward	-0.30103
-4.119817	He	-0.30103
-4.119817	Healey	-0.30103
-4.119817	Health	-0.30103
-4.119817	Heath	-0.30103
-4.119817	Heaven	-0.30103
-4.119817	Heavenly	-0.30103
-4.119817	Hebrew	-0.30103
-4.119817	Help	-0.30103
-4.119817	Hence	-0.30103
-4.119817	Henry	-0.30103
-4.119817	Henze	-0.30103
-4.119817	Her	-0.30103
-4.119817	Herald	-0.30103
-4.119817	Herbert	-0.30103
-4.119817	Herculaneum	-0.30103
-4.119817	Here	-0.30103
-4.119817	Herr	-0.30103
-4.119817	Herring	-0.30103
-4.119817	Hess	-0.30103
-4.119817	Heusinger	-0.30103
-4.119817	Him	-0.30103
-4.119817	Himmler	-0.30103
-4.119817	His	-0.30103
-4.119817	History	-0.30103
-4.119817	Hitler	-0.30103
-4.119817	Hitler's	-0.30103
-4.119817	Hoesch's	-0.30103
-4.119817	Hold	-0.30103
-4.119817	Holiday	-0.30103
-4.119817	Holland	-0.30103
-4.119817	Holloway's	-0.30103
-4.119817	Hollywood	-0.30103
-4.119817	Hollywood-	-0.30103
-4.119817	Holy	-0.30103
-4.119817	Home	-0.30103
-4.119817	Home-making	-0.30103
-4.119817	Honey	-0.30103
-4.119817	Hopes	-0.30103
-4.119817	Hostage	-0.30103
-4.119817	Hotel	-0.30103
-4.119817	House	-0.30103
-4.119817	Housing	-0.30103
-4.119817	Houston's	-0.30103
-4.119817	How	-0.30103
-4.119817	However	-0.30103
-4.119817	Hudson	-0.30103
-4.119817	Hull	-0.30103
-4.119817	Hyer	-0.30103
-4.119817	I	-0.30103
-4.119817	I.R.A.	-0.30103
-4.119817	IAIN	-0.30103
-4.119817	IF	-0.30103
-4.119817	IL	-0.30103
-4.119817	IN	-0.30103
-4.119817	IT	-0.30103
-4.119817	Iain	-0.30103
-4.119817	Ian	-0.30103
-4.119817	If	-0.30103
-4.119817	Immediately	-0.30103
-4.119817	Imperial	-0.30103
-4.119817	In	-0.30103
-4.119817	Incidentally	-0.30103
-4.119817	Independence	-0.30103
-4.119817	India	-0.30103
-4.119817	Indian	-0.30103
-4.119817	Indo-	-0.30103
-4.119817	Indonesia	-0.30103
-4.119817	Indonesian	-0.30103
-4.119817	Informal	-0.30103
-4.119817	Inland	-0.30103
-4.119817	Insert	-0.30103
-4.119817	Inspection	-0.30103
-4.119817	Instead	-0.30103
-4.119817	Institutes	-0.30103
-4.119817	Inter-union	-0.30103
-4.119817	International	-0.30103
-4.119817	Interrupted	-0.30103
-4.119817	Investigation	-0.30103
-4.119817	Ireland	-0.30103
-4.119817	Irene	-0.30103
-4.119817	Irish	-0.30103
-4.119817	Is	-0.30103
-4.119817	Island	-0.30103
-4.119817	Israel	-0.30103
-4.119817	Istanbul	-0.30103
-4.119817	It	-0.30103
-4.119817	Italian	-0.30103
-4.119817	Its	-0.30103
-4.119817	JOHN	-0.30103
-4.119817	Jack	-0.30103
-4.119817	Jamaica	-0.30103
-4.119817	James	-0.30103
-4.119817	James's	-0.30103
-4.119817	Janette	-0.30103
-4.119817	Jars	-0.30103
-4.119817	Jean-Luc	-0.30103
-4.119817	Jeanne	-0.30103
-4.119817	Jeep	-0.30103
-4.119817	Jeff	-0.30103
-4.119817	Jersey	-0.30103
-4.119817	Jesuit	-0.30103
-4.119817	Jesus	-0.30103
-4.119817	Jews	-0.30103
-4.119817	Jochai	-0.30103
-4.119817	John	-0.30103
-4.119817	Johnstone	-0.30103
-4.119817	Joost	-0.30103
-4.119817	Joseph	-0.30103
-4.119817	Joshua	-0.30103
-4.119817	Joyce	-0.30103
-4.119817	Juke	-0.30103
-4.119817	Julie	-0.30103
-4.119817	Julius	-0.30103
-4.119817	July	-0.30103
-4.119817	Jun.	-0.30103
-4.119817	June	-0.30103
-4.119817	Jury	-0.30103
-4.119817	Just	-0.30103
-4.119817	K's	-0.30103
-4.119817	KENNEDY	-0.30103
-4.119817	KRUSCHEV	-0.30103
-4.119817	Ka"utner's	-0.30103
-4.119817	Kabaka	-0.30103
-4.119817	Kagawa	-0.30103
-4.119817	Kallman	-0.30103
-4.119817	Kaunda	-0.30103
-4.119817	Kaunda's	-0.30103
-4.119817	Kennedy	-0.30103
-4.119817	Kennedy's	-0.30103
-4.119817	Kenneth	-0.30103
-4.119817	Kent	-0.30103
-4.119817	Kenya	-0.30103
-4.119817	Kerima	-0.30103
-4.119817	Key	-0.30103
-4.119817	Khouang	-0.30103
-4.119817	Khruschev	-0.30103
-4.119817	Khrushchov	-0.30103
-4.119817	Kilner	-0.30103
-4.119817	King	-0.30103
-4.119817	Kingdom	-0.30103
-4.119817	Kings	-0.30103
-4.119817	Kingsway	-0.30103
-4.119817	Klondykes	-0.30103
-4.119817	Knight	-0.30103
-4.119817	Knoll	-0.30103
-4.119817	Knows	-0.30103
-4.119817	Korean	-0.30103
-4.119817	Krobo	-0.30103
-4.119817	Krushchev	-0.30103
-4.119817	Krushchov	-0.30103
-4.119817	Kultur	-0.30103
-4.119817	Kumasi	-0.30103
-4.119817	Kuwait	-0.30103
-4.119817	L'Avventura	-0.30103
-4.119817	LESS	-0.30103
-4.119817	LLOYD	-0.30103
-4.119817	La	-0.30103
-4.119817	Lab.	-0.30103
-4.119817	Labour	-0.30103
-4.119817	Labour's	-0.30103
-4.119817	Lady	-0.30103
-4.119817	Lady-	-0.30103
-4.119817	Lancaster	-0.30103
-4.119817	Landen	-0.30103
-4.119817	Langley	-0.30103
-4.119817	Laos	-0.30103
-4.119817	Laotian	-0.30103
-4.119817	Larry	-0.30103
-4.119817	Last	-0.30103
-4.119817	Lastly	-0.30103
-4.119817	Later	-0.30103
-4.119817	Laud	-0.30103
-4.119817	Law	-0.30103
-4.119817	Lawrence	-0.30103
-4.119817	Leader	-0.30103
-4.119817	Leaning	-0.30103
-4.119817	Leaning-back	-0.30103
-4.119817	Lee	-0.30103
-4.119817	Leeds	-0.30103
-4.119817	Left-wing	-0.30103
-4.119817	Leicester	-0.30103
-4.119817	Leisurely	-0.30103
-4.119817	Leningrad	-0.30103
-4.119817	Lester	-0.30103
-4.119817	Let	-0.30103
-4.119817	Levi	-0.30103
-4.119817	Levi's	-0.30103
-4.119817	Levit.	-0.30103
-4.119817	Lewis	-0.30103
-4.119817	Liberal	-0.30103
-4.119817	Liberals	-0.30103
-4.119817	Lichtenstein	-0.30103
-4.119817	Light	-0.30103
-4.119817	Like	-0.30103
-4.119817	Lincs	-0.30103
-4.119817	Lintott	-0.30103
-4.119817	Lisbon	-0.30103
-4.119817	Little	-0.30103
-4.119817	Living	-0.30103
-4.119817	Lloyd	-0.30103
-4.119817	Lobby	-0.30103
-4.119817	Loch	-0.30103
-4.119817	Logan	-0.30103
-4.119817	Lollo	-0.30103
-4.119817	Lollobrigida	-0.30103
-4.119817	London	-0.30103
-4.119817	Long	-0.30103
-4.119817	Loop	-0.30103
-4.119817	Lord	-0.30103
-4.119817	Lords	-0.30103
-4.119817	Los	-0.30103
-4.119817	Lost	-0.30103
-4.119817	Lot	-0.30103
-4.119817	Louisiana	-0.30103
-4.119817	Love	-0.30103
-4.119817	Lovers	-0.30103
-4.119817	Loving	-0.30103
-4.119817	Lucas	-0.30103
-4.119817	Lucas's	-0.30103
-4.119817	Lucky	-0.30103
-4.119817	Luddite	-0.30103
-4.119817	Luddites	-0.30103
-4.119817	Lumumba	-0.30103
-4.119817	Lynn	-0.30103
-4.119817	Lynne	-0.30103
-4.119817	M.	-0.30103
-4.119817	M.P.s	-0.30103
-4.119817	MACLEOD	-0.30103
-4.119817	MACMILLAN'S	-0.30103
-4.119817	MAKARIOS	-0.30103
-4.119817	MARCIA	-0.30103
-4.119817	MONDAY	-0.30103
-4.119817	MORE	-0.30103
-4.119817	MOST	-0.30103
-4.119817	MOVE	-0.30103
-4.119817	MPs	-0.30103
-4.119817	MR	-0.30103
-4.119817	MR.	-0.30103
-4.119817	MRA	-0.30103
-4.119817	MRS.	-0.30103
-4.119817	Macleod	-0.30103
-4.119817	Macmillan	-0.30103
-4.119817	Macmillan's	-0.30103
-4.119817	Madawaska	-0.30103
-4.119817	Mail	-0.30103
-4.119817	Majesty's	-0.30103
-4.119817	Makarios	-0.30103
-4.119817	Make	-0.30103
-4.119817	Mala-	-0.30103
-4.119817	Malachias	-0.30103
-4.119817	Malachias's	-0.30103
-4.119817	Malagasy	-0.30103
-4.119817	Malcolm	-0.30103
-4.119817	Mammon	-0.30103
-4.119817	Management	-0.30103
-4.119817	Manchester	-0.30103
-4.119817	Mantis	-0.30103
-4.119817	Many	-0.30103
-4.119817	March	-0.30103
-4.119817	Marie	-0.30103
-4.119817	Marilyn	-0.30103
-4.119817	Maritimes	-0.30103
-4.119817	Mark	-0.30103
-4.119817	Market	-0.30103
-4.119817	Market's	-0.30103
-4.119817	Marriage-Go-Round	-0.30103
-4.119817	Marshal	-0.30103
-4.119817	Marshall's	-0.30103
-4.119817	Martha	-0.30103
-4.119817	Mary	-0.30103
-4.119817	Mass	-0.30103
-4.119817	Matador	-0.30103
-4.119817	Matzos	-0.30103
-4.119817	Mau	-0.30103
-4.119817	Max	-0.30103
-4.119817	Maxwell	-0.30103
-4.119817	McGeorge	-0.30103
-4.119817	Mean-	-0.30103
-4.119817	Meanwhile	-0.30103
-4.119817	Measures	-0.30103
-4.119817	Medical	-0.30103
-4.119817	Members	-0.30103
-4.119817	Members'	-0.30103
-4.119817	Mercer-Crochet	-0.30103
-4.119817	Messusah	-0.30103
-4.119817	Meteoro-	-0.30103
-4.119817	Michael	-0.30103
-4.119817	Michael-	-0.30103
-4.119817	Michelangelo	-0.30103
-4.119817	Mike	-0.30103
-4.119817	Milton	-0.30103
-4.119817	Min-	-0.30103
-4.119817	Minister	-0.30103
-4.119817	Minister's	-0.30103
-4.119817	Ministers	-0.30103
-4.119817	Ministry	-0.30103
-4.119817	Miracle	-0.30103
-4.119817	Mishnah	-0.30103
-4.119817	Miss	-0.30103
-4.119817	Mitzrajim	-0.30103
-4.119817	Moabite	-0.30103
-4.119817	Moderato	-0.30103
-4.119817	Moffat	-0.30103
-4.119817	Molony	-0.30103
-4.119817	Monckton	-0.30103
-4.119817	Moncrieff	-0.30103
-4.119817	Monday	-0.30103
-4.119817	Monroe	-0.30103
-4.119817	Montand	-0.30103
-4.119817	Monty	-0.30103
-4.119817	Moore	-0.30103
-4.119817	Moral	-0.30103
-4.119817	More	-0.30103
-4.119817	Moreau	-0.30103
-4.119817	Morris	-0.30103
-4.119817	Mortar	-0.30103
-4.119817	Moscow	-0.30103
-4.119817	Moses	-0.30103
-4.119817	Most	-0.30103
-4.119817	Motors	-0.30103
-4.119817	Mr	-0.30103
-4.119817	Mr.	-0.30103
-4.119817	Mrs.	-0.30103
-4.119817	Much	-0.30103
-4.119817	Mudd	-0.30103
-4.119817	Mudlarks	-0.30103
-4.119817	Muggeridge's	-0.30103
-4.119817	Municipal	-0.30103
-4.119817	Murville	-0.30103
-4.119817	My	-0.30103
-4.119817	NATO	-0.30103
-4.119817	NEW	-0.30103
-4.119817	NEWTON	-0.30103
-4.119817	NEXT	-0.30103
-4.119817	NIGHT	-0.30103
-4.119817	NOT	-0.30103
-4.119817	Name	-0.30103
-4.119817	National	-0.30103
-4.119817	Nationalist	-0.30103
-4.119817	Nationalists	-0.30103
-4.119817	Nations	-0.30103
-4.119817	Nato	-0.30103
-4.119817	Natural	-0.30103
-4.119817	Navigator	-0.30103
-4.119817	Navy	-0.30103
-4.119817	Nazi	-0.30103
-4.119817	Neagle	-0.30103
-4.119817	Near	-0.30103
-4.119817	Negro	-0.30103
-4.119817	Neh.	-0.30103
-4.119817	Nell	-0.30103
-4.119817	Nestle's	-0.30103
-4.119817	Never	-0.30103
-4.119817	Nevertheless	-0.30103
-4.119817	New	-0.30103
-4.119817	Newman	-0.30103
-4.119817	Newmar	-0.30103
-4.119817	Newmarket	-0.30103
-4.119817	Newton	-0.30103
-4.119817	Next	-0.30103
-4.119817	Nine	-0.30103
-4.119817	Nkrumah	-0.30103
-4.119817	Nkrumah's	-0.30103
-4.119817	Nkumbula	-0.30103
-4.119817	Nkumbula's	-0.30103
-4.119817	No	-0.30103
-4.119817	No.	-0.30103
-4.119817	Noble	-0.30103
-4.119817	Nobody	-0.30103
-4.119817	Nonsense	-0.30103
-4.119817	Nor	-0.30103
-4.119817	Norfolk	-0.30103
-4.119817	North	-0.30103
-4.119817	Northern	-0.30103
-4.119817	Norwegian	-0.30103
-4.119817	Not	-0.30103
-4.119817	Note	-0.30103
-4.119817	Notes	-0.30103
-4.119817	Notte	-0.30103
-4.119817	Nov.	-0.30103
-4.119817	Now	-0.30103
-4.119817	Nuclear	-0.30103
-4.119817	Nyasaland	-0.30103
-4.119817	O	-0.30103
-4.119817	ON	-0.30103
-4.119817	ONE	-0.30103
-4.119817	ONLY	-0.30103
-4.119817	OTTO	-0.30103
-4.119817	Obviously	-0.30103
-4.119817	Occasion	-0.30103
-4.119817	October	-0.30103
-4.119817	Of	-0.30103
-4.119817	Office	-0.30103
-4.119817	Ogden	-0.30103
-4.119817	Old	-0.30103
-4.119817	On	-0.30103
-4.119817	Once	-0.30103
-4.119817	One	-0.30103
-4.119817	Only	-0.30103
-4.119817	Ontario	-0.30103
-4.119817	Opposition	-0.30103
-4.119817	Or	-0.30103
-4.119817	Oral	-0.30103
-4.119817	Order	-0.30103
-4.119817	Ordinary	-0.30103
-4.119817	Other	-0.30103
-4.119817	Otherwise	-0.30103
-4.119817	Oum	-0.30103
-4.119817	Our	-0.30103
-4.119817	Out	-0.30103
-4.119817	Overnight	-0.30103
-4.119817	Oversew	-0.30103
-4.119817	Oxford	-0.30103
-4.119817	P	-0.30103
-4.119817	PARIS	-0.30103
-4.119817	POLICE	-0.30103
-4.119817	POLITICAL	-0.30103
-4.119817	POWER	-0.30103
-4.119817	PRESIDENT	-0.30103
-4.119817	PRODUCER	-0.30103
-4.119817	Pact	-0.30103
-4.119817	Padley	-0.30103
-4.119817	Pakistan	-0.30103
-4.119817	Palace	-0.30103
-4.119817	Palestinian	-0.30103
-4.119817	Palladium	-0.30103
-4.119817	Pan	-0.30103
-4.119817	Pancras	-0.30103
-4.119817	Papen	-0.30103
-4.119817	Paper	-0.30103
-4.119817	Parade	-0.30103
-4.119817	Paradise	-0.30103
-4.119817	Parana	-0.30103
-4.119817	Paris	-0.30103
-4.119817	Park	-0.30103
-4.119817	Parliament	-0.30103
-4.119817	Parliamentary	-0.30103
-4.119817	Parliaments	-0.30103
-4.119817	Parlophone	-0.30103
-4.119817	Particular	-0.30103
-4.119817	Particularly	-0.30103
-4.119817	Parties	-0.30103
-4.119817	Party	-0.30103
-4.119817	Passover	-0.30103
-4.119817	Patrice	-0.30103
-4.119817	Patrick's	-0.30103
-4.119817	Paul	-0.30103
-4.119817	Peace	-0.30103
-4.119817	Pearson	-0.30103
-4.119817	Peeresses	-0.30103
-4.119817	Peers	-0.30103
-4.119817	Peers'	-0.30103
-4.119817	Penh	-0.30103
-4.119817	Pentagon	-0.30103
-4.119817	Pepys	-0.30103
-4.119817	Perkins	-0.30103
-4.119817	Persian	-0.30103
-4.119817	Pesach	-0.30103
-4.119817	Peter	-0.30103
-4.119817	Philips	-0.30103
-4.119817	Philosophy	-0.30103
-4.119817	Phnom	-0.30103
-4.119817	Phones	-0.30103
-4.119817	Phouma	-0.30103
-4.119817	Piccadilly	-0.30103
-4.119817	Pier-	-0.30103
-4.119817	Pigsty	-0.30103
-4.119817	Pilate	-0.30103
-4.119817	Pinkie	-0.30103
-4.119817	Place	-0.30103
-4.119817	Plain	-0.30103
-4.119817	Platt	-0.30103
-4.119817	Play	-0.30103
-4.119817	Plewman	-0.30103
-4.119817	Pliny	-0.30103
-4.119817	Plot	-0.30103
-4.119817	Plywood	-0.30103
-4.119817	Point	-0.30103
-4.119817	Poland	-0.30103
-4.119817	Polaris	-0.30103
-4.119817	Police	-0.30103
-4.119817	Polydor	-0.30103
-4.119817	Pompeii	-0.30103
-4.119817	Pontius	-0.30103
-4.119817	Port	-0.30103
-4.119817	Post	-0.30103
-4.119817	Potter	-0.30103
-4.119817	Powell	-0.30103
-4.119817	Power	-0.30103
-4.119817	Powerful	-0.30103
-4.119817	Powers	-0.30103
-4.119817	Pravda	-0.30103
-4.119817	Prayer	-0.30103
-4.119817	Praying	-0.30103
-4.119817	Preference	-0.30103
-4.119817	Premier	-0.30103
-4.119817	Presbyterian	-0.30103
-4.119817	Present	-0.30103
-4.119817	President	-0.30103
-4.119817	President's	-0.30103
-4.119817	Presidential	-0.30103
-4.119817	Press	-0.30103
-4.119817	Pressmen	-0.30103
-4.119817	Prime	-0.30103
-4.119817	Prince	-0.30103
-4.119817	Princess	-0.30103
-4.119817	Private	-0.30103
-4.119817	Privy	-0.30103
-4.119817	Prizes	-0.30103
-4.119817	Probably	-0.30103
-4.119817	Professor	-0.30103
-4.119817	Profits	-0.30103
-4.119817	Progressive	-0.30103
-4.119817	Progressives	-0.30103
-4.119817	Protectorate's	-0.30103
-4.119817	Protests	-0.30103
-4.119817	Providing	-0.30103
-4.119817	Province	-0.30103
-4.119817	Ps	-0.30103
-4.119817	Ps.	-0.30103
-4.119817	Psychology	-0.30103
-4.119817	Pull	-0.30103
-4.119817	Pullman	-0.30103
-4.119817	Puritans	-0.30103
-4.119817	Qoheleth	-0.30103
-4.119817	Quebec	-0.30103
-4.119817	Queen	-0.30103
-4.119817	Quentin	-0.30103
-4.119817	R.	-0.30103
-4.119817	REFUGEES	-0.30103
-4.119817	RELAXED	-0.30103
-4.119817	RONALD	-0.30103
-4.119817	ROYAL	-0.30103
-4.119817	RUSSELL	-0.30103
-4.119817	Rabbi	-0.30103
-4.119817	Rabbis	-0.30103
-4.119817	Rabh	-0.30103
-4.119817	Ralph	-0.30103
-4.119817	Ramah	-0.30103
-4.119817	Rami	-0.30103
-4.119817	Rather	-0.30103
-4.119817	Re-Armament	-0.30103
-4.119817	Rebel	-0.30103
-4.119817	Record	-0.30103
-4.119817	Redactors	-0.30103
-4.119817	Reef	-0.30103
-4.119817	Referring	-0.30103
-4.119817	Reich	-0.30103
-4.119817	Relations	-0.30103
-4.119817	Remember	-0.30103
-4.119817	Remez	-0.30103
-4.119817	Remove	-0.30103
-4.119817	Replying	-0.30103
-4.119817	Republic	-0.30103
-4.119817	Research	-0.30103
-4.119817	Restigouche	-0.30103
-4.119817	Result	-0.30103
-4.119817	Revenue	-0.30103
-4.119817	Rhine	-0.30103
-4.119817	Rhodesia	-0.30103
-4.119817	Rhodesia's	-0.30103
-4.119817	Rhodesian	-0.30103
-4.119817	Richard	-0.30103
-4.119817	Richards	-0.30103
-4.119817	Richardson	-0.30103
-4.119817	Right-Wing	-0.30103
-4.119817	Rix	-0.30103
-4.119817	Robert	-0.30103
-4.119817	Roberts	-0.30103
-4.119817	Robertson	-0.30103
-4.119817	Robertson's	-0.30103
-4.119817	Rock	-0.30103
-4.119817	Roderick	-0.30103
-4.119817	Rolls	-0.30103
-4.119817	Rolls-Royce	-0.30103
-4.119817	Rolly	-0.30103
-4.119817	Romanizer	-0.30103
-4.119817	Rome	-0.30103
-4.119817	Root	-0.30103
-4.119817	Rosyth	-0.30103
-4.119817	Roy	-0.30103
-4.119817	Roy's	-0.30103
-4.119817	Royal	-0.30103
-4.119817	Rubric	-0.30103
-4.119817	Rugby	-0.30103
-4.119817	Run	-0.30103
-4.119817	Rusk	-0.30103
-4.119817	Russ	-0.30103
-4.119817	Russell	-0.30103
-4.119817	Russell's	-0.30103
-4.119817	Russia	-0.30103
-4.119817	Russian	-0.30103
-4.119817	Russians	-0.30103
-4.119817	S.	-0.30103
-4.119817	SECRETARY	-0.30103
-4.119817	SELWYN	-0.30103
-4.119817	SHAMIR	-0.30103
-4.119817	SIR	-0.30103
-4.119817	SOME	-0.30103
-4.119817	SONGS-OF-BRITAIN	-0.30103
-4.119817	STATE	-0.30103
-4.119817	SUTTON	-0.30103
-4.119817	Saanich	-0.30103
-4.119817	Sabbath	-0.30103
-4.119817	Sahara	-0.30103
-4.119817	Said	-0.30103
-4.119817	Salt	-0.30103
-4.119817	Salt-water	-0.30103
-4.119817	Salvation	-0.30103
-4.119817	Sam	-0.30103
-4.119817	Samuel	-0.30103
-4.119817	Sandra	-0.30103
-4.119817	Sandys	-0.30103
-4.119817	Sanh.	-0.30103
-4.119817	Saud	-0.30103
-4.119817	Save	-0.30103
-4.119817	Savings	-0.30103
-4.119817	Saviour	-0.30103
-4.119817	Scar-	-0.30103
-4.119817	Scarborough	-0.30103
-4.119817	Schaerf	-0.30103
-4.119817	Schoenman	-0.30103
-4.119817	Schooldays	-0.30103
-4.119817	Scot	-0.30103
-4.119817	Scotland	-0.30103
-4.119817	Scots	-0.30103
-4.119817	Scotsman	-0.30103
-4.119817	Scott	-0.30103
-4.119817	Scottish	-0.30103
-4.119817	Sea	-0.30103
-4.119817	Seal	-0.30103
-4.119817	Second	-0.30103
-4.119817	Secretary	-0.30103
-4.119817	Seder	-0.30103
-4.119817	See	-0.30103
-4.119817	Seen	-0.30103
-4.119817	Selpin	-0.30103
-4.119817	Selwyn	-0.30103
-4.119817	Senate	-0.30103
-4.119817	Senator	-0.30103
-4.119817	Sentence	-0.30103
-4.119817	September	-0.30103
-4.119817	Seraphim	-0.30103
-4.119817	Serjeant	-0.30103
-4.119817	Service	-0.30103
-4.119817	Serviceman	-0.30103
-4.119817	Services	-0.30103
-4.119817	Sevareid	-0.30103
-4.119817	Seven	-0.30103
-4.119817	Seventh	-0.30103
-4.119817	Shades	-0.30103
-4.119817	Shadow	-0.30103
-4.119817	Shakespeare	-0.30103
-4.119817	Shame	-0.30103
-4.119817	Shamir	-0.30103
-4.119817	Shamir's	-0.30103
-4.119817	She	-0.30103
-4.119817	Sheila	-0.30103
-4.119817	Shelagh	-0.30103
-4.119817	Shelley	-0.30103
-4.119817	Shem	-0.30103
-4.119817	Shepard	-0.30103
-4.119817	Shinwell	-0.30103
-4.119817	Shipbuilding	-0.30103
-4.119817	Shmah	-0.30103
-4.119817	Short	-0.30103
-4.119817	Should	-0.30103
-4.119817	Sid	-0.30103
-4.119817	Sidney	-0.30103
-4.119817	Significantly	-0.30103
-4.119817	Signorina	-0.30103
-4.119817	Sillitoe	-0.30103
-4.119817	Simeon	-0.30103
-4.119817	Simpson	-0.30103
-4.119817	Since	-0.30103
-4.119817	Sing	-0.30103
-4.119817	Sir	-0.30103
-4.119817	Six	-0.30103
-4.119817	Six-Five	-0.30103
-4.119817	Sleep	-0.30103
-4.119817	Slezak	-0.30103
-4.119817	Slightly	-0.30103
-4.119817	Smiler	-0.30103
-4.119817	Smith	-0.30103
-4.119817	Smith's	-0.30103
-4.119817	So	-0.30103
-4.119817	Social	-0.30103
-4.119817	Society	-0.30103
-4.119817	Sol.	-0.30103
-4.119817	Solomon	-0.30103
-4.119817	Some	-0.30103
-4.119817	Soon	-0.30103
-4.119817	Souter	-0.30103
-4.119817	Souter's	-0.30103
-4.119817	South	-0.30103
-4.119817	South-East	-0.30103
-4.119817	Southern	-0.30103
-4.119817	Souvanna	-0.30103
-4.119817	Souvanna's	-0.30103
-4.119817	Soviet	-0.30103
-4.119817	Space	-0.30103
-4.119817	Spain	-0.30103
-4.119817	Spanish	-0.30103
-4.119817	Speaks	-0.30103
-4.119817	Special	-0.30103
-4.119817	Spirit	-0.30103
-4.119817	Splendid	-0.30103
-4.119817	Spreng	-0.30103
-4.119817	Square	-0.30103
-4.119817	St.	-0.30103
-4.119817	Staff	-0.30103
-4.119817	Starfighters	-0.30103
-4.119817	Start	-0.30103
-4.119817	State	-0.30103
-4.119817	Stated	-0.30103
-4.119817	States	-0.30103
-4.119817	States'	-0.30103
-4.119817	Stations	-0.30103
-4.119817	Steel	-0.30103
-4.119817	Stepmother	-0.30103
-4.119817	Steytler	-0.30103
-4.119817	Still	-0.30103
-4.119817	Stockton-on-Tees	-0.30103
-4.119817	Stoke	-0.30103
-4.119817	Stone	-0.30103
-4.119817	Stonehouse's	-0.30103
-4.119817	Stores	-0.30103
-4.119817	Strangely	-0.30103
-4.119817	Strasberg	-0.30103
-4.119817	Stratford	-0.30103
-4.119817	Strauss	-0.30103
-4.119817	Streak	-0.30103
-4.119817	Strong	-0.30103
-4.119817	Studies	-0.30103
-4.119817	Sub-committees	-0.30103
-4.119817	Such	-0.30103
-4.119817	Sudan's	-0.30103
-4.119817	Sudanese	-0.30103
-4.119817	Suddenly	-0.30103
-4.119817	Suffolk	-0.30103
-4.119817	Suggesting	-0.30103
-4.119817	Sukarno	-0.30103
-4.119817	Sunday	-0.30103
-4.119817	Sunderland	-0.30103
-4.119817	Supplies	-0.30103
-4.119817	Supporters	-0.30103
-4.119817	Suppose	-0.30103
-4.119817	Surrey	-0.30103
-4.119817	Susan	-0.30103
-4.119817	Synoptics	-0.30103
-4.119817	T.U.C.	-0.30103
-4.119817	THE	-0.30103
-4.119817	THERE	-0.30103
-4.119817	THEY	-0.30103
-4.119817	THIS	-0.30103
-4.119817	TODAY	-0.30103
-4.119817	TUC	-0.30103
-4.119817	TUC's	-0.30103
-4.119817	TV	-0.30103
-4.119817	TWO	-0.30103
-4.119817	Table	-0.30103
-4.119817	Take	-0.30103
-4.119817	Takoradi	-0.30103
-4.119817	Talmud	-0.30103
-4.119817	Tanis	-0.30103
-4.119817	Taste	-0.30103
-4.119817	Tawia	-0.30103
-4.119817	Taxation	-0.30103
-4.119817	Temple	-0.30103
-4.119817	Testament	-0.30103
-4.119817	That	-0.30103
-4.119817	The	-0.30103
-4.119817	Theatre	-0.30103
-4.119817	Thee	-0.30103
-4.119817	Their	-0.30103
-4.119817	Then	-0.30103
-4.119817	Theory	-0.30103
-4.119817	There	-0.30103
-4.119817	Therefore	-0.30103
-4.119817	These	-0.30103
-4.119817	They	-0.30103
-4.119817	Third	-0.30103
-4.119817	This	-0.30103
-4.119817	Thomas	-0.30103
-4.119817	Thor	-0.30103
-4.119817	Thorneycroft	-0.30103
-4.119817	Thorneycroft's	-0.30103
-4.119817	Those	-0.30103
-4.119817	Though	-0.30103
-4.119817	Thousands	-0.30103
-4.119817	Three	-0.30103
-4.119817	Through	-0.30103
-4.119817	Throughout	-0.30103
-4.119817	Thursday	-0.30103
-4.119817	Thus	-0.30103
-4.119817	Time	-0.30103
-4.119817	Times	-0.30103
-4.119817	Timetables	-0.30103
-4.119817	Tin	-0.30103
-4.119817	Tiredness	-0.30103
-4.119817	Tito	-0.30103
-4.119817	To	-0.30103
-4.119817	Today	-0.30103
-4.119817	Today's	-0.30103
-4.119817	Todd	-0.30103
-4.119817	Tolch	-0.30103
-4.119817	Tolchard	-0.30103
-4.119817	Tolpuddle	-0.30103
-4.119817	Tom	-0.30103
-4.119817	Tony	-0.30103
-4.119817	Too	-0.30103
-4.119817	Top	-0.30103
-4.119817	Torah	-0.30103
-4.119817	Tories	-0.30103
-4.119817	Toro	-0.30103
-4.119817	Tory	-0.30103
-4.119817	Toyohiko	-0.30103
-4.119817	Trade	-0.30103
-4.119817	Trades	-0.30103
-4.119817	Tradition	-0.30103
-4.119817	Training	-0.30103
-4.119817	Transvaal	-0.30103
-4.119817	Travel	-0.30103
-4.119817	Treasury	-0.30103
-4.119817	Treaty	-0.30103
-4.119817	Tremendous	-0.30103
-4.119817	Trent	-0.30103
-4.119817	Troy	-0.30103
-4.119817	True	-0.30103
-4.119817	Tuesday	-0.30103
-4.119817	Tunisians'	-0.30103
-4.119817	Turner	-0.30103
-4.119817	Twang	-0.30103
-4.119817	Two	-0.30103
-4.119817	U.S.	-0.30103
-4.119817	UN	-0.30103
-4.119817	UN's	-0.30103
-4.119817	UNIP	-0.30103
-4.119817	UNO	-0.30103
-4.119817	Uganda	-0.30103
-4.119817	Um-chink	-0.30103
-4.119817	Uncle	-0.30103
-4.119817	Under	-0.30103
-4.119817	Underwater	-0.30103
-4.119817	Une	-0.30103
-4.119817	Ungoed-	-0.30103
-4.119817	Unheimliche	-0.30103
-4.119817	Union	-0.30103
-4.119817	United	-0.30103
-4.119817	Unity	-0.30103
-4.119817	Unlike	-0.30103
-4.119817	Use	-0.30103
-4.119817	Using	-0.30103
-4.119817	V	-0.30103
-4.119817	V's	-0.30103
-4.119817	VERDICT	-0.30103
-4.119817	VIENNA	-0.30103
-4.119817	VINEYARDS	-0.30103
-4.119817	Vang	-0.30103
-4.119817	Vaughan	-0.30103
-4.119817	Ver-	-0.30103
-4.119817	Veronique	-0.30103
-4.119817	Versailles	-0.30103
-4.119817	Version	-0.30103
-4.119817	Verwoerd	-0.30103
-4.119817	Very	-0.30103
-4.119817	Vesuvius	-0.30103
-4.119817	Victoria	-0.30103
-4.119817	Victorian	-0.30103
-4.119817	Vieng	-0.30103
-4.119817	Vienna	-0.30103
-4.119817	Vientiane	-0.30103
-4.119817	Viking	-0.30103
-4.119817	Villiers	-0.30103
-4.119817	Virgil	-0.30103
-4.119817	Virginia	-0.30103
-4.119817	Vista	-0.30103
-4.119817	Vita	-0.30103
-4.119817	W.	-0.30103
-4.119817	WE	-0.30103
-4.119817	WEST	-0.30103
-4.119817	WHEN	-0.30103
-4.119817	WHO	-0.30103
-4.119817	WILL	-0.30103
-4.119817	WOODWORKER	-0.30103
-4.119817	Walter	-0.30103
-4.119817	War	-0.30103
-4.119817	Warsaw	-0.30103
-4.119817	Was	-0.30103
-4.119817	Washington	-0.30103
-4.119817	Watford	-0.30103
-4.119817	Watkinson	-0.30103
-4.119817	We	-0.30103
-4.119817	Weaver	-0.30103
-4.119817	Weaver's	-0.30103
-4.119817	Wedding	-0.30103
-4.119817	Week	-0.30103
-4.119817	Weld	-0.30103
-4.119817	Welensky	-0.30103
-4.119817	Welensky's	-0.30103
-4.119817	Well	-0.30103
-4.119817	Welt	-0.30103
-4.119817	Wesker	-0.30103
-4.119817	West	-0.30103
-4.119817	Western	-0.30103
-4.119817	What	-0.30103
-4.119817	Whatever	-0.30103
-4.119817	When	-0.30103
-4.119817	Where	-0.30103
-4.119817	Whether	-0.30103
-4.119817	While	-0.30103
-4.119817	White	-0.30103
-4.119817	Whitehall	-0.30103
-4.119817	Whitfield	-0.30103
-4.119817	Who	-0.30103
-4.119817	Why	-0.30103
-4.119817	Wicki	-0.30103
-4.119817	Wicki's	-0.30103
-4.119817	Wilcox	-0.30103
-4.119817	Will	-0.30103
-4.119817	William	-0.30103
-4.119817	Williams	-0.30103
-4.119817	Willis	-0.30103
-4.119817	Wilson	-0.30103
-4.119817	With	-0.30103
-4.119817	Within	-0.30103
-4.119817	Without	-0.30103
-4.119817	Wolverhampton	-0.30103
-4.119817	Woman	-0.30103
-4.119817	Wood	-0.30103
-4.119817	Workers	-0.30103
-4.119817	World	-0.30103
-4.119817	Worsley	-0.30103
-4.119817	Wunder	-0.30103
-4.119817	Xieng	-0.30103
-4.119817	YOU	-0.30103
-4.119817	Yanks	-0.30103
-4.119817	Yard	-0.30103
-4.119817	Yesterday	-0.30103
-4.119817	Yet	-0.30103
-4.119817	York	-0.30103
-4.119817	York's	-0.30103
-4.119817	You	-0.30103
-4.119817	Young	-0.30103
-4.119817	Yugoslav	-0.30103
-4.119817	Yves	-0.30103
-4.119817	Zambia	-0.30103
-4.119817	Zealand	-0.30103
-4.119817	Zoma	-0.30103
-4.119817	a	-0.30103
-4.119817	abandon	-0.30103
-4.119817	abandoned	-0.30103
-4.119817	abashed	-0.30103
-4.119817	ability	-0.30103
-4.119817	able	-0.30103
-4.119817	able-bodied	-0.30103
-4.119817	abolished	-0.30103
-4.119817	abolition	-0.30103
-4.119817	about	-0.30103
-4.119817	about-	-0.30103
-4.119817	above	-0.30103
-4.119817	abreast	-0.30103
-4.119817	abroad	-0.30103
-4.119817	absence	-0.30103
-4.119817	absent	-0.30103
-4.119817	absolute	-0.30103
-4.119817	absolutely	-0.30103
-4.119817	abstraction	-0.30103
-4.119817	abundance	-0.30103
-4.119817	abused	-0.30103
-4.119817	ac-	-0.30103
-4.119817	academic	-0.30103
-4.119817	accent	-0.30103
-4.119817	accents	-0.30103
-4.119817	accept	-0.30103
-4.119817	acceptable	-0.30103
-4.119817	accepted	-0.30103
-4.119817	accepting	-0.30103
-4.119817	accessories	-0.30103
-4.119817	accident-prone	-0.30103
-4.119817	accidental	-0.30103
-4.119817	accidentally	-0.30103
-4.119817	accommodating	-0.30103
-4.119817	accommodation	-0.30103
-4.119817	accompanied	-0.30103
-4.119817	accompany	-0.30103
-4.119817	accomplished	-0.30103
-4.119817	accomplishments	-0.30103
-4.119817	accord	-0.30103
-4.119817	accountant	-0.30103
-4.119817	accounts	-0.30103
-4.119817	accuracy	-0.30103
-4.119817	accurate	-0.30103
-4.119817	accurately	-0.30103
-4.119817	accused	-0.30103
-4.119817	achieved	-0.30103
-4.119817	achievement	-0.30103
-4.119817	acid	-0.30103
-4.119817	acres	-0.30103
-4.119817	across	-0.30103
-4.119817	act	-0.30103
-4.119817	acting	-0.30103
-4.119817	action	-0.30103
-4.119817	actions	-0.30103
-4.119817	active	-0.30103
-4.119817	activists	-0.30103
-4.119817	activity	-0.30103
-4.119817	actor	-0.30103
-4.119817	actress	-0.30103
-4.119817	acts	-0.30103
-4.119817	actual	-0.30103
-4.119817	actually	-0.30103
-4.119817	adamant	-0.30103
-4.119817	adaptation	-0.30103
-4.119817	adapted	-0.30103
-4.119817	add	-0.30103
-4.119817	added	-0.30103
-4.119817	addition	-0.30103
-4.119817	additions	-0.30103
-4.119817	address	-0.30103
-4.119817	addressed	-0.30103
-4.119817	addresses	-0.30103
-4.119817	adequate	-0.30103
-4.119817	adjust	-0.30103
-4.119817	adjustment	-0.30103
-4.119817	administration	-0.30103
-4.119817	administrative	-0.30103
-4.119817	admire	-0.30103
-4.119817	admit	-0.30103
-4.119817	admitted	-0.30103
-4.119817	admitting	-0.30103
-4.119817	adopted	-0.30103
-4.119817	adoption	-0.30103
-4.119817	adult	-0.30103
-4.119817	adults	-0.30103
-4.119817	advance	-0.30103
-4.119817	advanced	-0.30103
-4.119817	advancing	-0.30103
-4.119817	advantage	-0.30103
-4.119817	advantages	-0.30103
-4.119817	adventure	-0.30103
-4.119817	advertisement	-0.30103
-4.119817	advertisements	-0.30103
-4.119817	advice	-0.30103
-4.119817	advise	-0.30103
-4.119817	advised	-0.30103
-4.119817	advisers	-0.30103
-4.119817	advocate	-0.30103
-4.119817	af-	-0.30103
-4.119817	affairs	-0.30103
-4.119817	affected	-0.30103
-4.119817	affilia-	-0.30103
-4.119817	affiliations	-0.30103
-4.119817	affluence	-0.30103
-4.119817	afraid	-0.30103
-4.119817	after	-0.30103
-4.119817	afternoon	-0.30103
-4.119817	afterwards	-0.30103
-4.119817	again	-0.30103
-4.119817	against	-0.30103
-4.119817	age	-0.30103
-4.119817	aged	-0.30103
-4.119817	agents	-0.30103
-4.119817	ages	-0.30103
-4.119817	agitation	-0.30103
-4.119817	ago	-0.30103
-4.119817	agree	-0.30103
-4.119817	agreed	-0.30103
-4.119817	agreement	-0.30103
-4.119817	agreements	-0.30103
-4.119817	agriculture	-0.30103
-4.119817	ahead	-0.30103
-4.119817	aid	-0.30103
-4.119817	aide	-0.30103
-4.119817	aided	-0.30103
-4.119817	aides	-0.30103
-4.119817	aim	-0.30103
-4.119817	aiming	-0.30103
-4.119817	aimlessly	-0.30103
-4.119817	aims	-0.30103
-4.119817	air	-0.30103
-4.119817	aircraft	-0.30103
-4.119817	aired	-0.30103
-4.119817	airliner's	-0.30103
-4.119817	airport	-0.30103
-4.119817	alarmed	-0.30103
-4.119817	alcoholic	-0.30103
-4.119817	alike	-0.30103
-4.119817	alive	-0.30103
-4.119817	all	-0.30103
-4.119817	all-Regular	-0.30103
-4.119817	all-time	-0.30103
-4.119817	alleged	-0.30103
-4.119817	allegorical	-0.30103
-4.119817	alley	-0.30103
-4.119817	alliance	-0.30103
-4.119817	alliances	-0.30103
-4.119817	allied	-0.30103
-4.119817	allies	-0.30103
-4.119817	allow	-0.30103
-4.119817	allowed	-0.30103
-4.119817	allowing	-0.30103
-4.119817	ally	-0.30103
-4.119817	almost	-0.30103
-4.119817	alone	-0.30103
-4.119817	along	-0.30103
-4.119817	already	-0.30103
-4.119817	also	-0.30103
-4.119817	altars	-0.30103
-4.119817	alter	-0.30103
-4.119817	altered	-0.30103
-4.119817	alternatives	-0.30103
-4.119817	although	-0.30103
-4.119817	altogether	-0.30103
-4.119817	always	-0.30103
-4.119817	am	-0.30103
-4.119817	amazed	-0.30103
-4.119817	amazing	-0.30103
-4.119817	ambassador	-0.30103
-4.119817	amber	-0.30103
-4.119817	ambition	-0.30103
-4.119817	ambitious	-0.30103
-4.119817	ambulance	-0.30103
-4.119817	ammunition	-0.30103
-4.119817	among	-0.30103
-4.119817	amount	-0.30103
-4.119817	ample	-0.30103
-4.119817	an	-0.30103
-4.119817	anchor	-0.30103
-4.119817	ancient	-0.30103
-4.119817	and	-0.30103
-4.119817	anecdotal	-0.30103
-4.119817	angel	-0.30103
-4.119817	angelo	-0.30103
-4.119817	anger	-0.30103
-4.119817	angle	-0.30103
-4.119817	angry	-0.30103
-4.119817	animals	-0.30103
-4.119817	announced	-0.30103
-4.119817	announcement	-0.30103
-4.119817	announcing	-0.30103
-4.119817	annual	-0.30103
-4.119817	another	-0.30103
-4.119817	answer	-0.30103
-4.119817	answered	-0.30103
-4.119817	antagonism	-0.30103
-4.119817	anti-German	-0.30103
-4.119817	anti-Nato	-0.30103
-4.119817	anti-Negro	-0.30103
-4.119817	anti-Soviet	-0.30103
-4.119817	anti-Tory	-0.30103
-4.119817	anti-apartheid	-0.30103
-4.119817	anti-bomb	-0.30103
-4.119817	anti-nuclear	-0.30103
-4.119817	anticipation	-0.30103
-4.119817	antimacassars	-0.30103
-4.119817	any	-0.30103
-4.119817	any-	-0.30103
-4.119817	anybody	-0.30103
-4.119817	anybody's	-0.30103
-4.119817	anyone	-0.30103
-4.119817	anything	-0.30103
-4.119817	anyway	-0.30103
-4.119817	apart	-0.30103
-4.119817	apartheid	-0.30103
-4.119817	apathetic	-0.30103
-4.119817	apex	-0.30103
-4.119817	apocalypse	-0.30103
-4.119817	appalled	-0.30103
-4.119817	appalling	-0.30103
-4.119817	apparatus	-0.30103
-4.119817	apparent	-0.30103
-4.119817	apparently	-0.30103
-4.119817	appeal	-0.30103
-4.119817	appealing	-0.30103
-4.119817	appeals	-0.30103
-4.119817	appear	-0.30103
-4.119817	appearance	-0.30103
-4.119817	appeared	-0.30103
-4.119817	appears	-0.30103
-4.119817	appeasement	-0.30103
-4.119817	application	-0.30103
-4.119817	applications	-0.30103
-4.119817	applied	-0.30103
-4.119817	apply	-0.30103
-4.119817	appointed	-0.30103
-4.119817	appointment	-0.30103
-4.119817	appreciable	-0.30103
-4.119817	apprenticeships	-0.30103
-4.119817	approach	-0.30103
-4.119817	approaches	-0.30103
-4.119817	appropriated	-0.30103
-4.119817	approval	-0.30103
-4.119817	approximately	-0.30103
-4.119817	architect	-0.30103
-4.119817	are	-0.30103
-4.119817	area	-0.30103
-4.119817	areas	-0.30103
-4.119817	arena	-0.30103
-4.119817	argue	-0.30103
-4.119817	argued	-0.30103
-4.119817	argues	-0.30103
-4.119817	arguing	-0.30103
-4.119817	argument	-0.30103
-4.119817	arguments	-0.30103
-4.119817	arise	-0.30103
-4.119817	arises	-0.30103
-4.119817	arm	-0.30103
-4.119817	armament	-0.30103
-4.119817	armaments	-0.30103
-4.119817	armed	-0.30103
-4.119817	armoured	-0.30103
-4.119817	arms	-0.30103
-4.119817	army	-0.30103
-4.119817	arose	-0.30103
-4.119817	around	-0.30103
-4.119817	aroused	-0.30103
-4.119817	arrange	-0.30103
-4.119817	arranged	-0.30103
-4.119817	arrangements	-0.30103
-4.119817	arrears	-0.30103
-4.119817	arrested	-0.30103
-4.119817	arrival	-0.30103
-4.119817	arrive	-0.30103
-4.119817	arrived	-0.30103
-4.119817	arrives	-0.30103
-4.119817	arrogant	-0.30103
-4.119817	art	-0.30103
-4.119817	article	-0.30103
-4.119817	articles	-0.30103
-4.119817	articulation	-0.30103
-4.119817	as	-0.30103
-4.119817	ascending	-0.30103
-4.119817	ascents	-0.30103
-4.119817	ash	-0.30103
-4.119817	ask	-0.30103
-4.119817	asked	-0.30103
-4.119817	asking	-0.30103
-4.119817	aspect	-0.30103
-4.119817	aspects	-0.30103
-4.119817	assembler	-0.30103
-4.119817	assembly	-0.30103
-4.119817	assess	-0.30103
-4.119817	assessment	-0.30103
-4.119817	assistant	-0.30103
-4.119817	assistants	-0.30103
-4.119817	associate	-0.30103
-4.119817	associated	-0.30103
-4.119817	associates	-0.30103
-4.119817	association	-0.30103
-4.119817	assortment	-0.30103
-4.119817	assumed	-0.30103
-4.119817	assumes	-0.30103
-4.119817	assurance	-0.30103
-4.119817	assuredness	-0.30103
-4.119817	at	-0.30103
-4.119817	ately	-0.30103
-4.119817	atmosphere	-0.30103
-4.119817	atmospheric	-0.30103
-4.119817	atomic	-0.30103
-4.119817	attach	-0.30103
-4.119817	attached	-0.30103
-4.119817	attack	-0.30103
-4.119817	attacked	-0.30103
-4.119817	attacks	-0.30103
-4.119817	attainable	-0.30103
-4.119817	attempt	-0.30103
-4.119817	attempted	-0.30103
-4.119817	attempting	-0.30103
-4.119817	attempts	-0.30103
-4.119817	attend	-0.30103
-4.119817	attending	-0.30103
-4.119817	attention	-0.30103
-4.119817	attitude	-0.30103
-4.119817	attitudes	-0.30103
-4.119817	attract	-0.30103
-4.119817	attracted	-0.30103
-4.119817	attractive	-0.30103
-4.119817	audacity	-0.30103
-4.119817	audience	-0.30103
-4.119817	austerity	-0.30103
-4.119817	authentic	-0.30103
-4.119817	author	-0.30103
-4.119817	authorised	-0.30103
-4.119817	authorities	-0.30103
-4.119817	authority	-0.30103
-4.119817	authors	-0.30103
-4.119817	automatically	-0.30103
-4.119817	automation	-0.30103
-4.119817	autumn	-0.30103
-4.119817	available	-0.30103
-4.119817	averages	-0.30103
-4.119817	avert	-0.30103
-4.119817	avoid	-0.30103
-4.119817	avoided	-0.30103
-4.119817	awarded	-0.30103
-4.119817	awards	-0.30103
-4.119817	aware	-0.30103
-4.119817	away	-0.30103
-4.119817	awful	-0.30103
-4.119817	b.	-0.30103
-4.119817	bably	-0.30103
-4.119817	baby	-0.30103
-4.119817	back	-0.30103
-4.119817	backbone	-0.30103
-4.119817	backed	-0.30103
-4.119817	backers	-0.30103
-4.119817	background	-0.30103
-4.119817	backing	-0.30103
-4.119817	backstage	-0.30103
-4.119817	backward	-0.30103
-4.119817	bad	-0.30103
-4.119817	badly	-0.30103
-4.119817	baffled	-0.30103
-4.119817	bag	-0.30103
-4.119817	baker	-0.30103
-4.119817	balance	-0.30103
-4.119817	balance-sheet	-0.30103
-4.119817	balances	-0.30103
-4.119817	ball	-0.30103
-4.119817	balloon	-0.30103
-4.119817	ballyhoo	-0.30103
-4.119817	ban	-0.30103
-4.119817	bank	-0.30103
-4.119817	bankrupt	-0.30103
-4.119817	banks	-0.30103
-4.119817	banks'	-0.30103
-4.119817	banned	-0.30103
-4.119817	baptized	-0.30103
-4.119817	bar	-0.30103
-4.119817	barbarously	-0.30103
-4.119817	bare	-0.30103
-4.119817	bargaining	-0.30103
-4.119817	bark	-0.30103
-4.119817	barrier	-0.30103
-4.119817	barriers	-0.30103
-4.119817	base	-0.30103
-4.119817	based	-0.30103
-4.119817	bases	-0.30103
-4.119817	basic	-0.30103
-4.119817	basing	-0.30103
-4.119817	basis	-0.30103
-4.119817	basting	-0.30103
-4.119817	bats	-0.30103
-4.119817	batsman	-0.30103
-4.119817	battalions	-0.30103
-4.119817	batting	-0.30103
-4.119817	battle	-0.30103
-4.119817	bay	-0.30103
-4.119817	be	-0.30103
-4.119817	beaches	-0.30103
-4.119817	beacon	-0.30103
-4.119817	beaks	-0.30103
-4.119817	bean	-0.30103
-4.119817	bear	-0.30103
-4.119817	bearer	-0.30103
-4.119817	bears	-0.30103
-4.119817	beautiful	-0.30103
-4.119817	beautifully	-0.30103
-4.119817	beauty	-0.30103
-4.119817	became	-0.30103
-4.119817	because	-0.30103
-4.119817	become	-0.30103
-4.119817	becomes	-0.30103
-4.119817	becoming	-0.30103
-4.119817	bed	-0.30103
-4.119817	bedspreads	-0.30103
-4.119817	been	-0.30103
-4.119817	befall	-0.30103
-4.119817	before	-0.30103
-4.119817	beforehand	-0.30103
-4.119817	befriended	-0.30103
-4.119817	began	-0.30103
-4.119817	begin	-0.30103
-4.119817	beginner	-0.30103
-4.119817	beginning	-0.30103
-4.119817	begun	-0.30103
-4.119817	behaviour	-0.30103
-4.119817	behind	-0.30103
-4.119817	being	-0.30103
-4.119817	believe	-0.30103
-4.119817	believed	-0.30103
-4.119817	believes	-0.30103
-4.119817	bell's	-0.30103
-4.119817	belongs	-0.30103
-4.119817	ben	-0.30103
-4.119817	bench	-0.30103
-4.119817	benches	-0.30103
-4.119817	bend	-0.30103
-4.119817	benefits	-0.30103
-4.119817	ber	-0.30103
-4.119817	beside	-0.30103
-4.119817	best	-0.30103
-4.119817	best-seller	-0.30103
-4.119817	bet	-0.30103
-4.119817	betrayal	-0.30103
-4.119817	betrayed	-0.30103
-4.119817	better	-0.30103
-4.119817	better-	-0.30103
-4.119817	between	-0.30103
-4.119817	bevel	-0.30103
-4.119817	bevelled	-0.30103
-4.119817	beware	-0.30103
-4.119817	bewildered	-0.30103
-4.119817	beyond	-0.30103
-4.119817	biased	-0.30103
-4.119817	big	-0.30103
-4.119817	bigger	-0.30103
-4.119817	biggest	-0.30103
-4.119817	bill	-0.30103
-4.119817	bills	-0.30103
-4.119817	bind	-0.30103
-4.119817	binding	-0.30103
-4.119817	binds	-0.30103
-4.119817	bingo-parlour	-0.30103
-4.119817	biological	-0.30103
-4.119817	birds	-0.30103
-4.119817	bishop	-0.30103
-4.119817	bite	-0.30103
-4.119817	bitterest	-0.30103
-4.119817	bitterness	-0.30103
-4.119817	black-	-0.30103
-4.119817	blacks	-0.30103
-4.119817	blame	-0.30103
-4.119817	blamed	-0.30103
-4.119817	blander	-0.30103
-4.119817	blank	-0.30103
-4.119817	blight	-0.30103
-4.119817	blind	-0.30103
-4.119817	blissful	-0.30103
-4.119817	block	-0.30103
-4.119817	blond	-0.30103
-4.119817	blood	-0.30103
-4.119817	bloodstained	-0.30103
-4.119817	blouse	-0.30103
-4.119817	blouses	-0.30103
-4.119817	blow	-0.30103
-4.119817	blowflies	-0.30103
-4.119817	blown	-0.30103
-4.119817	bluntly	-0.30103
-4.119817	bluster	-0.30103
-4.119817	board	-0.30103
-4.119817	boat	-0.30103
-4.119817	boat-train	-0.30103
-4.119817	bobbles	-0.30103
-4.119817	bodies	-0.30103
-4.119817	body	-0.30103
-4.119817	bogy	-0.30103
-4.119817	bold	-0.30103
-4.119817	boldly	-0.30103
-4.119817	bolted	-0.30103
-4.119817	bomb	-0.30103
-4.119817	bombed	-0.30103
-4.119817	bombers	-0.30103
-4.119817	bonded	-0.30103
-4.119817	bone	-0.30103
-4.119817	bones	-0.30103
-4.119817	book	-0.30103
-4.119817	booklet	-0.30103
-4.119817	books	-0.30103
-4.119817	border	-0.30103
-4.119817	bored	-0.30103
-4.119817	boredom	-0.30103
-4.119817	bores	-0.30103
-4.119817	born	-0.30103
-4.119817	borough	-0.30103
-4.119817	bossed	-0.30103
-4.119817	bosses	-0.30103
-4.119817	both	-0.30103
-4.119817	bottle	-0.30103
-4.119817	bottom	-0.30103
-4.119817	bought	-0.30103
-4.119817	bound	-0.30103
-4.119817	boundaries	-0.30103
-4.119817	boutiques	-0.30103
-4.119817	bow	-0.30103
-4.119817	bowed	-0.30103
-4.119817	bowing	-0.30103
-4.119817	bows	-0.30103
-4.119817	box	-0.30103
-4.119817	boxes	-0.30103
-4.119817	boy	-0.30103
-4.119817	boycotted	-0.30103
-4.119817	boycotting	-0.30103
-4.119817	boys	-0.30103
-4.119817	braces	-0.30103
-4.119817	brain-children	-0.30103
-4.119817	brains	-0.30103
-4.119817	brandy	-0.30103
-4.119817	brash	-0.30103
-4.119817	brass	-0.30103
-4.119817	breach	-0.30103
-4.119817	bread-and-butter	-0.30103
-4.119817	break	-0.30103
-4.119817	breaking	-0.30103
-4.119817	breaks	-0.30103
-4.119817	breathing	-0.30103
-4.119817	breathless	-0.30103
-4.119817	breeding	-0.30103
-4.119817	breeze	-0.30103
-4.119817	breezily	-0.30103
-4.119817	bridal	-0.30103
-4.119817	brief	-0.30103
-4.119817	briefing	-0.30103
-4.119817	brigadiers	-0.30103
-4.119817	bright	-0.30103
-4.119817	brighter	-0.30103
-4.119817	brightly	-0.30103
-4.119817	brilliant	-0.30103
-4.119817	brilliantly	-0.30103
-4.119817	brilliantly-written	-0.30103
-4.119817	bring	-0.30103
-4.119817	bringing	-0.30103
-4.119817	brings	-0.30103
-4.119817	broad	-0.30103
-4.119817	broadcast	-0.30103
-4.119817	broadcasting	-0.30103
-4.119817	broke	-0.30103
-4.119817	broken	-0.30103
-4.119817	brother	-0.30103
-4.119817	brought	-0.30103
-4.119817	brown	-0.30103
-4.119817	brutal	-0.30103
-4.119817	buck	-0.30103
-4.119817	budge	-0.30103
-4.119817	budgerigar	-0.30103
-4.119817	budget	-0.30103
-4.119817	budgetary	-0.30103
-4.119817	build	-0.30103
-4.119817	builders	-0.30103
-4.119817	building	-0.30103
-4.119817	builds	-0.30103
-4.119817	built	-0.30103
-4.119817	bulk	-0.30103
-4.119817	bulky	-0.30103
-4.119817	bulletins	-0.30103
-4.119817	bullying	-0.30103
-4.119817	bumps	-0.30103
-4.119817	burden	-0.30103
-4.119817	burdens	-0.30103
-4.119817	burst	-0.30103
-4.119817	busi-	-0.30103
-4.119817	business	-0.30103
-4.119817	bustling	-0.30103
-4.119817	but	-0.30103
-4.119817	butt	-0.30103
-4.119817	button	-0.30103
-4.119817	buy	-0.30103
-4.119817	buying	-0.30103
-4.119817	by	-0.30103
-4.119817	by-	-0.30103
-4.119817	by-elections	-0.30103
-4.119817	by-passed	-0.30103
-4.119817	cabinet	-0.30103
-4.119817	cable	-0.30103
-4.119817	cables	-0.30103
-4.119817	call	-0.30103
-4.119817	call-out	-0.30103
-4.119817	called	-0.30103
-4.119817	calling	-0.30103
-4.119817	calls	-0.30103
-4.119817	cally	-0.30103
-4.119817	calm	-0.30103
-4.119817	came	-0.30103
-4.119817	cameras	-0.30103
-4.119817	campaign	-0.30103
-4.119817	campaigns	-0.30103
-4.119817	can	-0.30103
-4.119817	can-	-0.30103
-4.119817	canals	-0.30103
-4.119817	canard	-0.30103
-4.119817	cancelled	-0.30103
-4.119817	cancerous	-0.30103
-4.119817	candi-	-0.30103
-4.119817	candidate	-0.30103
-4.119817	cannot	-0.30103
-4.119817	canon	-0.30103
-4.119817	capa-	-0.30103
-4.119817	capable	-0.30103
-4.119817	capacity	-0.30103
-4.119817	capital	-0.30103
-4.119817	capsule	-0.30103
-4.119817	captain	-0.30103
-4.119817	captured	-0.30103
-4.119817	car	-0.30103
-4.119817	cardboard	-0.30103
-4.119817	care	-0.30103
-4.119817	career	-0.30103
-4.119817	careful	-0.30103
-4.119817	carefully	-0.30103
-4.119817	caricature	-0.30103
-4.119817	carnival	-0.30103
-4.119817	carried	-0.30103
-4.119817	carries	-0.30103
-4.119817	carrot	-0.30103
-4.119817	carry	-0.30103
-4.119817	carrying	-0.30103
-4.119817	cars	-0.30103
-4.119817	case	-0.30103
-4.119817	cases	-0.30103
-4.119817	cash	-0.30103
-4.119817	cast	-0.30103
-4.119817	catch	-0.30103
-4.119817	category	-0.30103
-4.119817	cattle	-0.30103
-4.119817	caught	-0.30103
-4.119817	cause	-0.30103
-4.119817	caused	-0.30103
-4.119817	causes	-0.30103
-4.119817	cease	-0.30103
-4.119817	ceasefire	-0.30103
-4.119817	ceiling	-0.30103
-4.119817	ceived	-0.30103
-4.119817	censure	-0.30103
-4.119817	censured	-0.30103
-4.119817	cent	-0.30103
-4.119817	cent.	-0.30103
-4.119817	centage	-0.30103
-4.119817	centigrade	-0.30103
-4.119817	central	-0.30103
-4.119817	centre	-0.30103
-4.119817	centuries	-0.30103
-4.119817	century	-0.30103
-4.119817	ceramic	-0.30103
-4.119817	ceremonial	-0.30103
-4.119817	certain	-0.30103
-4.119817	certainly	-0.30103
-4.119817	certificate	-0.30103
-4.119817	chain	-0.30103
-4.119817	chair	-0.30103
-4.119817	chairbacks	-0.30103
-4.119817	chairman	-0.30103
-4.119817	challenge	-0.30103
-4.119817	challenger	-0.30103
-4.119817	chamber	-0.30103
-4.119817	champion	-0.30103
-4.119817	chance	-0.30103
-4.119817	chancery	-0.30103
-4.119817	chances	-0.30103
-4.119817	change	-0.30103
-4.119817	changed	-0.30103
-4.119817	changes	-0.30103
-4.119817	changing	-0.30103
-4.119817	chaos	-0.30103
-4.119817	chap	-0.30103
-4.119817	chaperon	-0.30103
-4.119817	chapter	-0.30103
-4.119817	charac-	-0.30103
-4.119817	character	-0.30103
-4.119817	character-actors	-0.30103
-4.119817	characterisation	-0.30103
-4.119817	characters	-0.30103
-4.119817	charge	-0.30103
-4.119817	charged	-0.30103
-4.119817	charges	-0.30103
-4.119817	charming	-0.30103
-4.119817	charts	-0.30103
-4.119817	chat	-0.30103
-4.119817	chatty	-0.30103
-4.119817	cheap	-0.30103
-4.119817	cheaper	-0.30103
-4.119817	cheapness	-0.30103
-4.119817	cheating	-0.30103
-4.119817	check	-0.30103
-4.119817	cheer	-0.30103
-4.119817	cheered	-0.30103
-4.119817	cheering	-0.30103
-4.119817	chemical	-0.30103
-4.119817	chias	-0.30103
-4.119817	chicanery	-0.30103
-4.119817	chief	-0.30103
-4.119817	chiefly	-0.30103
-4.119817	chiefs	-0.30103
-4.119817	child	-0.30103
-4.119817	child-like	-0.30103
-4.119817	children	-0.30103
-4.119817	chilling	-0.30103
-4.119817	chilly	-0.30103
-4.119817	chimpanzees	-0.30103
-4.119817	chine	-0.30103
-4.119817	chines	-0.30103
-4.119817	choice	-0.30103
-4.119817	choose	-0.30103
-4.119817	chosen	-0.30103
-4.119817	chums	-0.30103
-4.119817	church	-0.30103
-4.119817	churchyard	-0.30103
-4.119817	cide	-0.30103
-4.119817	ciency	-0.30103
-4.119817	cinema	-0.30103
-4.119817	cinematic	-0.30103
-4.119817	circles	-0.30103
-4.119817	circulation	-0.30103
-4.119817	circumstances	-0.30103
-4.119817	cisterns	-0.30103
-4.119817	cited	-0.30103
-4.119817	cities	-0.30103
-4.119817	citizen	-0.30103
-4.119817	citizens	-0.30103
-4.119817	city	-0.30103
-4.119817	civil	-0.30103
-4.119817	claim	-0.30103
-4.119817	claimed	-0.30103
-4.119817	claiming	-0.30103
-4.119817	claims	-0.30103
-4.119817	clamp	-0.30103
-4.119817	clapping	-0.30103
-4.119817	clarification	-0.30103
-4.119817	clash	-0.30103
-4.119817	class	-0.30103
-4.119817	classes	-0.30103
-4.119817	clay	-0.30103
-4.119817	clean	-0.30103
-4.119817	cleaned	-0.30103
-4.119817	cleaning	-0.30103
-4.119817	clear	-0.30103
-4.119817	clear-cut	-0.30103
-4.119817	cleared	-0.30103
-4.119817	clearer	-0.30103
-4.119817	clearly	-0.30103
-4.119817	clerk	-0.30103
-4.119817	cliche-ridden	-0.30103
-4.119817	climax	-0.30103
-4.119817	clings	-0.30103
-4.119817	cloak	-0.30103
-4.119817	clock	-0.30103
-4.119817	close	-0.30103
-4.119817	closed	-0.30103
-4.119817	closely	-0.30103
-4.119817	club	-0.30103
-4.119817	clumsily	-0.30103
-4.119817	clumsy	-0.30103
-4.119817	co-operate	-0.30103
-4.119817	co-operation	-0.30103
-4.119817	coached	-0.30103
-4.119817	coastline	-0.30103
-4.119817	coat	-0.30103
-4.119817	cocoon	-0.30103
-4.119817	codex	-0.30103
-4.119817	cog	-0.30103
-4.119817	coherent	-0.30103
-4.119817	coinage	-0.30103
-4.119817	coincides	-0.30103
-4.119817	cold	-0.30103
-4.119817	collar	-0.30103
-4.119817	colleagues	-0.30103
-4.119817	collective	-0.30103
-4.119817	college	-0.30103
-4.119817	colour	-0.30103
-4.119817	coloured	-0.30103
-4.119817	colouring	-0.30103
-4.119817	colours	-0.30103
-4.119817	column	-0.30103
-4.119817	columns	-0.30103
-4.119817	com-	-0.30103
-4.119817	combination	-0.30103
-4.119817	combined	-0.30103
-4.119817	come	-0.30103
-4.119817	comedy	-0.30103
-4.119817	comes	-0.30103
-4.119817	comfort	-0.30103
-4.119817	comfortable	-0.30103
-4.119817	comforter	-0.30103
-4.119817	comi-	-0.30103
-4.119817	comically	-0.30103
-4.119817	comics	-0.30103
-4.119817	coming	-0.30103
-4.119817	command	-0.30103
-4.119817	commanding	-0.30103
-4.119817	commandments	-0.30103
-4.119817	comment	-0.30103
-4.119817	commentator	-0.30103
-4.119817	commented	-0.30103
-4.119817	comments	-0.30103
-4.119817	commerce	-0.30103
-4.119817	commercial	-0.30103
-4.119817	commit	-0.30103
-4.119817	commitments	-0.30103
-4.119817	committed	-0.30103
-4.119817	committee	-0.30103
-4.119817	committee's	-0.30103
-4.119817	committees	-0.30103
-4.119817	common	-0.30103
-4.119817	commonest	-0.30103
-4.119817	communique	-0.30103
-4.119817	communists'	-0.30103
-4.119817	companies	-0.30103
-4.119817	companionship	-0.30103
-4.119817	company	-0.30103
-4.119817	comparable	-0.30103
-4.119817	comparative	-0.30103
-4.119817	compared	-0.30103
-4.119817	comparisons	-0.30103
-4.119817	compartments	-0.30103
-4.119817	compatriots	-0.30103
-4.119817	compelled	-0.30103
-4.119817	competition	-0.30103
-4.119817	complained	-0.30103
-4.119817	complaining	-0.30103
-4.119817	complaints	-0.30103
-4.119817	complete	-0.30103
-4.119817	completely	-0.30103
-4.119817	complex	-0.30103
-4.119817	complexities	-0.30103
-4.119817	complicated	-0.30103
-4.119817	complicates	-0.30103
-4.119817	complication	-0.30103
-4.119817	composed	-0.30103
-4.119817	composer	-0.30103
-4.119817	composition	-0.30103
-4.119817	comprehensive	-0.30103
-4.119817	compressed	-0.30103
-4.119817	compulsory	-0.30103
-4.119817	con-	-0.30103
-4.119817	concealed	-0.30103
-4.119817	concei-	-0.30103
-4.119817	conceive	-0.30103
-4.119817	conceived	-0.30103
-4.119817	concentrate	-0.30103
-4.119817	concentrated	-0.30103
-4.119817	concentration	-0.30103
-4.119817	concept	-0.30103
-4.119817	conception	-0.30103
-4.119817	concern	-0.30103
-4.119817	concerned	-0.30103
-4.119817	concessions	-0.30103
-4.119817	conciliators	-0.30103
-4.119817	concluded	-0.30103
-4.119817	conclusion	-0.30103
-4.119817	concrete	-0.30103
-4.119817	concurred	-0.30103
-4.119817	condemn	-0.30103
-4.119817	condemnation	-0.30103
-4.119817	condemned	-0.30103
-4.119817	condition	-0.30103
-4.119817	conditions	-0.30103
-4.119817	conduct	-0.30103
-4.119817	conducted	-0.30103
-4.119817	conducting	-0.30103
-4.119817	conference	-0.30103
-4.119817	conference's	-0.30103
-4.119817	conferences	-0.30103
-4.119817	confident	-0.30103
-4.119817	confined	-0.30103
-4.119817	confused	-0.30103
-4.119817	confusion	-0.30103
-4.119817	congestion	-0.30103
-4.119817	congregation	-0.30103
-4.119817	congress	-0.30103
-4.119817	connection	-0.30103
-4.119817	connexion	-0.30103
-4.119817	connivance	-0.30103
-4.119817	conquer	-0.30103
-4.119817	conquered	-0.30103
-4.119817	conscious	-0.30103
-4.119817	consequences	-0.30103
-4.119817	consequently	-0.30103
-4.119817	consider	-0.30103
-4.119817	considerable	-0.30103
-4.119817	considerably	-0.30103
-4.119817	consideration	-0.30103
-4.119817	considered	-0.30103
-4.119817	considering	-0.30103
-4.119817	consistent	-0.30103
-4.119817	consisting	-0.30103
-4.119817	conspicuous	-0.30103
-4.119817	constables	-0.30103
-4.119817	constancy	-0.30103
-4.119817	constituencies	-0.30103
-4.119817	constitute	-0.30103
-4.119817	construction	-0.30103
-4.119817	consult	-0.30103
-4.119817	consultations	-0.30103
-4.119817	consultative	-0.30103
-4.119817	consumed	-0.30103
-4.119817	contact	-0.30103
-4.119817	contain	-0.30103
-4.119817	contains	-0.30103
-4.119817	contemplate	-0.30103
-4.119817	contemplated	-0.30103
-4.119817	contemporaneous	-0.30103
-4.119817	contemporary	-0.30103
-4.119817	contempt	-0.30103
-4.119817	content	-0.30103
-4.119817	contest	-0.30103
-4.119817	contests	-0.30103
-4.119817	context	-0.30103
-4.119817	contingency	-0.30103
-4.119817	continue	-0.30103
-4.119817	continued	-0.30103
-4.119817	continues	-0.30103
-4.119817	continuously	-0.30103
-4.119817	contract	-0.30103
-4.119817	contractors	-0.30103
-4.119817	contranatant	-0.30103
-4.119817	contrary	-0.30103
-4.119817	contrasting	-0.30103
-4.119817	contribution	-0.30103
-4.119817	control	-0.30103
-4.119817	controlled	-0.30103
-4.119817	controlling	-0.30103
-4.119817	controls	-0.30103
-4.119817	convenience	-0.30103
-4.119817	convenient	-0.30103
-4.119817	conveniently	-0.30103
-4.119817	convents	-0.30103
-4.119817	conversation	-0.30103
-4.119817	conveys	-0.30103
-4.119817	convicted	-0.30103
-4.119817	convinced	-0.30103
-4.119817	convivial	-0.30103
-4.119817	cool	-0.30103
-4.119817	coolness	-0.30103
-4.119817	cooperate	-0.30103
-4.119817	coordinate	-0.30103
-4.119817	copper	-0.30103
-4.119817	cordial	-0.30103
-4.119817	corn	-0.30103
-4.119817	corner	-0.30103
-4.119817	corporation	-0.30103
-4.119817	correct	-0.30103
-4.119817	correspond	-0.30103
-4.119817	correspondent	-0.30103
-4.119817	corresponding	-0.30103
-4.119817	corridors	-0.30103
-4.119817	cost	-0.30103
-4.119817	costs	-0.30103
-4.119817	cot	-0.30103
-4.119817	cottage	-0.30103
-4.119817	cottons	-0.30103
-4.119817	couched	-0.30103
-4.119817	could	-0.30103
-4.119817	council	-0.30103
-4.119817	council's	-0.30103
-4.119817	counselling	-0.30103
-4.119817	counted	-0.30103
-4.119817	countries	-0.30103
-4.119817	country	-0.30103
-4.119817	country's	-0.30103
-4.119817	couple	-0.30103
-4.119817	coupled	-0.30103
-4.119817	courageous	-0.30103
-4.119817	course	-0.30103
-4.119817	court	-0.30103
-4.119817	courtesy	-0.30103
-4.119817	courtship	-0.30103
-4.119817	cover	-0.30103
-4.119817	covered	-0.30103
-4.119817	covering	-0.30103
-4.119817	covers	-0.30103
-4.119817	craft	-0.30103
-4.119817	craftsman	-0.30103
-4.119817	craggy	-0.30103
-4.119817	cramped	-0.30103
-4.119817	crash	-0.30103
-4.119817	crazy	-0.30103
-4.119817	creak	-0.30103
-4.119817	create	-0.30103
-4.119817	created	-0.30103
-4.119817	creating	-0.30103
-4.119817	creative	-0.30103
-4.119817	creature	-0.30103
-4.119817	creatures	-0.30103
-4.119817	credit	-0.30103
-4.119817	creditor	-0.30103
-4.119817	creeping	-0.30103
-4.119817	cricket	-0.30103
-4.119817	cries	-0.30103
-4.119817	crime	-0.30103
-4.119817	crippled	-0.30103
-4.119817	crisis	-0.30103
-4.119817	critic	-0.30103
-4.119817	criticisms	-0.30103
-4.119817	critics	-0.30103
-4.119817	crochet	-0.30103
-4.119817	crocheted	-0.30103
-4.119817	crooks	-0.30103
-4.119817	cross	-0.30103
-4.119817	crowd	-0.30103
-4.119817	crowded	-0.30103
-4.119817	crowding	-0.30103
-4.119817	crowds	-0.30103
-4.119817	crowning	-0.30103
-4.119817	cruel	-0.30103
-4.119817	crusade	-0.30103
-4.119817	cry	-0.30103
-4.119817	cuffs	-0.30103
-4.119817	cult	-0.30103
-4.119817	cultural	-0.30103
-4.119817	cup	-0.30103
-4.119817	cupboard	-0.30103
-4.119817	cups	-0.30103
-4.119817	curb	-0.30103
-4.119817	cure	-0.30103
-4.119817	curious	-0.30103
-4.119817	curiously	-0.30103
-4.119817	currency	-0.30103
-4.119817	current	-0.30103
-4.119817	curriculum	-0.30103
-4.119817	curtain	-0.30103
-4.119817	cushions	-0.30103
-4.119817	customers	-0.30103
-4.119817	cut	-0.30103
-4.119817	cut-rate	-0.30103
-4.119817	cute	-0.30103
-4.119817	cuts	-0.30103
-4.119817	cutters	-0.30103
-4.119817	cynical	-0.30103
-4.119817	daily	-0.30103
-4.119817	dairy	-0.30103
-4.119817	damage	-0.30103
-4.119817	damaged	-0.30103
-4.119817	damaging	-0.30103
-4.119817	damsel	-0.30103
-4.119817	danger	-0.30103
-4.119817	dangerous	-0.30103
-4.119817	dangers	-0.30103
-4.119817	dangled	-0.30103
-4.119817	darndest	-0.30103
-4.119817	dashed	-0.30103
-4.119817	date	-0.30103
-4.119817	dates	-0.30103
-4.119817	daughter	-0.30103
-4.119817	daughters	-0.30103
-4.119817	day	-0.30103
-4.119817	day-time	-0.30103
-4.119817	daylight	-0.30103
-4.119817	days	-0.30103
-4.119817	daytime	-0.30103
-4.119817	dazzling	-0.30103
-4.119817	dc.	-0.30103
-4.119817	de	-0.30103
-4.119817	de-	-0.30103
-4.119817	dead	-0.30103
-4.119817	deal	-0.30103
-4.119817	dealers	-0.30103
-4.119817	dealing	-0.30103
-4.119817	deals	-0.30103
-4.119817	dealt	-0.30103
-4.119817	dear	-0.30103
-4.119817	dearer	-0.30103
-4.119817	death	-0.30103
-4.119817	deaths	-0.30103
-4.119817	debate	-0.30103
-4.119817	debates	-0.30103
-4.119817	debt	-0.30103
-4.119817	deceitful	-0.30103
-4.119817	deceive	-0.30103
-4.119817	deceived	-0.30103
-4.119817	decide	-0.30103
-4.119817	decided	-0.30103
-4.119817	decides	-0.30103
-4.119817	decimal	-0.30103
-4.119817	decision	-0.30103
-4.119817	decisions	-0.30103
-4.119817	decisive	-0.30103
-4.119817	decisively	-0.30103
-4.119817	declare	-0.30103
-4.119817	declared	-0.30103
-4.119817	declaring	-0.30103
-4.119817	decline	-0.30103
-4.119817	decorated	-0.30103
-4.119817	decorating	-0.30103
-4.119817	dedicated	-0.30103
-4.119817	deeds	-0.30103
-4.119817	deep	-0.30103
-4.119817	deeply	-0.30103
-4.119817	defeat	-0.30103
-4.119817	defence	-0.30103
-4.119817	defences	-0.30103
-4.119817	defend	-0.30103
-4.119817	defended	-0.30103
-4.119817	defiance	-0.30103
-4.119817	deficient	-0.30103
-4.119817	defile	-0.30103
-4.119817	definite	-0.30103
-4.119817	degree	-0.30103
-4.119817	delay	-0.30103
-4.119817	delayed	-0.30103
-4.119817	dele-	-0.30103
-4.119817	delegates	-0.30103
-4.119817	delegation	-0.30103
-4.119817	delegations	-0.30103
-4.119817	deliber-	-0.30103
-4.119817	deliberate	-0.30103
-4.119817	deliberately	-0.30103
-4.119817	delicate	-0.30103
-4.119817	delighted	-0.30103
-4.119817	delineation	-0.30103
-4.119817	delivered	-0.30103
-4.119817	demand	-0.30103
-4.119817	demanded	-0.30103
-4.119817	demands	-0.30103
-4.119817	democracy	-0.30103
-4.119817	demolish	-0.30103
-4.119817	demon-	-0.30103
-4.119817	demonstrated	-0.30103
-4.119817	demonstration	-0.30103
-4.119817	demonstrations	-0.30103
-4.119817	demonstrators	-0.30103
-4.119817	denied	-0.30103
-4.119817	denounce	-0.30103
-4.119817	denounced	-0.30103
-4.119817	deny	-0.30103
-4.119817	depend	-0.30103
-4.119817	dependent	-0.30103
-4.119817	depending	-0.30103
-4.119817	depends	-0.30103
-4.119817	depict	-0.30103
-4.119817	deplored	-0.30103
-4.119817	deposits	-0.30103
-4.119817	depot	-0.30103
-4.119817	deprived	-0.30103
-4.119817	dept.	-0.30103
-4.119817	depth	-0.30103
-4.119817	derived	-0.30103
-4.119817	des	-0.30103
-4.119817	descended	-0.30103
-4.119817	descent	-0.30103
-4.119817	descents	-0.30103
-4.119817	describe	-0.30103
-4.119817	described	-0.30103
-4.119817	describes	-0.30103
-4.119817	desert	-0.30103
-4.119817	deserted	-0.30103
-4.119817	desertion	-0.30103
-4.119817	design	-0.30103
-4.119817	designed	-0.30103
-4.119817	designers	-0.30103
-4.119817	designs	-0.30103
-4.119817	desire	-0.30103
-4.119817	desired	-0.30103
-4.119817	desolation	-0.30103
-4.119817	despair	-0.30103
-4.119817	desperately	-0.30103
-4.119817	despite	-0.30103
-4.119817	destination	-0.30103
-4.119817	destiny	-0.30103
-4.119817	destroy	-0.30103
-4.119817	destroying	-0.30103
-4.119817	destroys	-0.30103
-4.119817	destruction	-0.30103
-4.119817	destructive	-0.30103
-4.119817	detail	-0.30103
-4.119817	detailed	-0.30103
-4.119817	details	-0.30103
-4.119817	detect	-0.30103
-4.119817	deterioration	-0.30103
-4.119817	determination	-0.30103
-4.119817	determining	-0.30103
-4.119817	develop	-0.30103
-4.119817	developed	-0.30103
-4.119817	development	-0.30103
-4.119817	devilment	-0.30103
-4.119817	devoted	-0.30103
-4.119817	devotion	-0.30103
-4.119817	dexterity	-0.30103
-4.119817	dge	-0.30103
-4.119817	diabetic	-0.30103
-4.119817	diagrams	-0.30103
-4.119817	diamond	-0.30103
-4.119817	diamond-stone	-0.30103
-4.119817	diaries	-0.30103
-4.119817	dictate	-0.30103
-4.119817	dictating	-0.30103
-4.119817	did	-0.30103
-4.119817	didn't	-0.30103
-4.119817	died	-0.30103
-4.119817	dieldrin	-0.30103
-4.119817	dies	-0.30103
-4.119817	differed	-0.30103
-4.119817	difference	-0.30103
-4.119817	different	-0.30103
-4.119817	differently	-0.30103
-4.119817	difficult	-0.30103
-4.119817	difficulties	-0.30103
-4.119817	difficulty	-0.30103
-4.119817	dignified	-0.30103
-4.119817	diligently	-0.30103
-4.119817	dim	-0.30103
-4.119817	dimensions	-0.30103
-4.119817	ding	-0.30103
-4.119817	dinghy	-0.30103
-4.119817	dingy	-0.30103
-4.119817	dinner	-0.30103
-4.119817	dip	-0.30103
-4.119817	dip-in	-0.30103
-4.119817	diplomacy	-0.30103
-4.119817	diplomatist	-0.30103
-4.119817	dipping-in	-0.30103
-4.119817	direct	-0.30103
-4.119817	directed	-0.30103
-4.119817	direction	-0.30103
-4.119817	directions	-0.30103
-4.119817	directive	-0.30103
-4.119817	directly	-0.30103
-4.119817	director	-0.30103
-4.119817	directors	-0.30103
-4.119817	dis-	-0.30103
-4.119817	disadvantages	-0.30103
-4.119817	disagree	-0.30103
-4.119817	disappear	-0.30103
-4.119817	disappointing	-0.30103
-4.119817	disarmament	-0.30103
-4.119817	disarming	-0.30103
-4.119817	disaster	-0.30103
-4.119817	disastrous	-0.30103
-4.119817	disband	-0.30103
-4.119817	disc	-0.30103
-4.119817	disclosed	-0.30103
-4.119817	discontent	-0.30103
-4.119817	discounted	-0.30103
-4.119817	discreditable	-0.30103
-4.119817	discretion	-0.30103
-4.119817	discrimination	-0.30103
-4.119817	discuss	-0.30103
-4.119817	discussed	-0.30103
-4.119817	discussion	-0.30103
-4.119817	discussions	-0.30103
-4.119817	disdain	-0.30103
-4.119817	disguise	-0.30103
-4.119817	dishonest	-0.30103
-4.119817	dislike	-0.30103
-4.119817	disliked	-0.30103
-4.119817	dislocation	-0.30103
-4.119817	dislocations	-0.30103
-4.119817	dismayed	-0.30103
-4.119817	dismissed	-0.30103
-4.119817	disorder	-0.30103
-4.119817	disorderly	-0.30103
-4.119817	dispatched	-0.30103
-4.119817	dispense	-0.30103
-4.119817	dispersed	-0.30103
-4.119817	display	-0.30103
-4.119817	disposal	-0.30103
-4.119817	disposed	-0.30103
-4.119817	disrepu-	-0.30103
-4.119817	distance	-0.30103
-4.119817	distinct	-0.30103
-4.119817	distinction	-0.30103
-4.119817	distinctive	-0.30103
-4.119817	distorted	-0.30103
-4.119817	distress	-0.30103
-4.119817	districts	-0.30103
-4.119817	disturbance	-0.30103
-4.119817	disturbances	-0.30103
-4.119817	disturbed	-0.30103
-4.119817	disturbing	-0.30103
-4.119817	ditty	-0.30103
-4.119817	diverse	-0.30103
-4.119817	diverting	-0.30103
-4.119817	divine	-0.30103
-4.119817	division	-0.30103
-4.119817	divisions	-0.30103
-4.119817	do	-0.30103
-4.119817	dockyard	-0.30103
-4.119817	doctor	-0.30103
-4.119817	doctors	-0.30103
-4.119817	documents	-0.30103
-4.119817	does	-0.30103
-4.119817	doesn't	-0.30103
-4.119817	doilies	-0.30103
-4.119817	doing	-0.30103
-4.119817	doll's	-0.30103
-4.119817	dollar	-0.30103
-4.119817	dollars	-0.30103
-4.119817	dominance	-0.30103
-4.119817	dominated	-0.30103
-4.119817	domination	-0.30103
-4.119817	don't	-0.30103
-4.119817	done	-0.30103
-4.119817	door	-0.30103
-4.119817	doorposts	-0.30103
-4.119817	doorway	-0.30103
-4.119817	double	-0.30103
-4.119817	double-crosses	-0.30103
-4.119817	doubt	-0.30103
-4.119817	doubtful	-0.30103
-4.119817	doubts	-0.30103
-4.119817	dowel	-0.30103
-4.119817	down	-0.30103
-4.119817	dozen	-0.30103
-4.119817	draft	-0.30103
-4.119817	drag	-0.30103
-4.119817	drain	-0.30103
-4.119817	drained	-0.30103
-4.119817	dramatic	-0.30103
-4.119817	dramatically	-0.30103
-4.119817	dramatist	-0.30103
-4.119817	drastic	-0.30103
-4.119817	draught	-0.30103
-4.119817	draw	-0.30103
-4.119817	drawers	-0.30103
-4.119817	drawing-rooms	-0.30103
-4.119817	drawings	-0.30103
-4.119817	draws	-0.30103
-4.119817	dressing	-0.30103
-4.119817	drew	-0.30103
-4.119817	drift	-0.30103
-4.119817	drifted	-0.30103
-4.119817	drink	-0.30103
-4.119817	drive	-0.30103
-4.119817	driven	-0.30103
-4.119817	driving	-0.30103
-4.119817	drop	-0.30103
-4.119817	dropped	-0.30103
-4.119817	drove	-0.30103
-4.119817	drudgery	-0.30103
-4.119817	drug	-0.30103
-4.119817	drugs	-0.30103
-4.119817	drunk	-0.30103
-4.119817	duced	-0.30103
-4.119817	ducks	-0.30103
-4.119817	due	-0.30103
-4.119817	dug	-0.30103
-4.119817	duke's	-0.30103
-4.119817	dull	-0.30103
-4.119817	dullness	-0.30103
-4.119817	dumbness	-0.30103
-4.119817	duplicating	-0.30103
-4.119817	during	-0.30103
-4.119817	duty	-0.30103
-4.119817	dwells	-0.30103
-4.119817	dying	-0.30103
-4.119817	dynamic	-0.30103
-4.119817	each	-0.30103
-4.119817	earlier	-0.30103
-4.119817	early	-0.30103
-4.119817	earn	-0.30103
-4.119817	earned	-0.30103
-4.119817	earnest	-0.30103
-4.119817	earth	-0.30103
-4.119817	earthly	-0.30103
-4.119817	easier	-0.30103
-4.119817	easily	-0.30103
-4.119817	east	-0.30103
-4.119817	east-	-0.30103
-4.119817	east-west	-0.30103
-4.119817	easterly	-0.30103
-4.119817	easy	-0.30103
-4.119817	eat	-0.30103
-4.119817	eating	-0.30103
-4.119817	eccentric	-0.30103
-4.119817	ecclesiastical	-0.30103
-4.119817	echo-sounders	-0.30103
-4.119817	economic	-0.30103
-4.119817	economy	-0.30103
-4.119817	edge	-0.30103
-4.119817	edges	-0.30103
-4.119817	edging	-0.30103
-4.119817	edgings	-0.30103
-4.119817	edifice	-0.30103
-4.119817	editor	-0.30103
-4.119817	editorial	-0.30103
-4.119817	editress	-0.30103
-4.119817	educate	-0.30103
-4.119817	education	-0.30103
-4.119817	eerie	-0.30103
-4.119817	effect	-0.30103
-4.119817	effected	-0.30103
-4.119817	effective	-0.30103
-4.119817	effectively	-0.30103
-4.119817	effects	-0.30103
-4.119817	effervescent	-0.30103
-4.119817	effi-	-0.30103
-4.119817	efficiency	-0.30103
-4.119817	efficient	-0.30103
-4.119817	effort	-0.30103
-4.119817	efforts	-0.30103
-4.119817	egg-case	-0.30103
-4.119817	egghead	-0.30103
-4.119817	eggs	-0.30103
-4.119817	egocentric	-0.30103
-4.119817	eight	-0.30103
-4.119817	eight-round	-0.30103
-4.119817	either	-0.30103
-4.119817	elaborate	-0.30103
-4.119817	elastic	-0.30103
-4.119817	elder	-0.30103
-4.119817	elderly	-0.30103
-4.119817	elect	-0.30103
-4.119817	elected	-0.30103
-4.119817	election	-0.30103
-4.119817	elections	-0.30103
-4.119817	electoral	-0.30103
-4.119817	electorate	-0.30103
-4.119817	electricity	-0.30103
-4.119817	electrocution	-0.30103
-4.119817	electronics	-0.30103
-4.119817	elegant	-0.30103
-4.119817	elements	-0.30103
-4.119817	elephant	-0.30103
-4.119817	eleven	-0.30103
-4.119817	eleventh	-0.30103
-4.119817	eliminated	-0.30103
-4.119817	else	-0.30103
-4.119817	elsewhere	-0.30103
-4.119817	embassies	-0.30103
-4.119817	emblems	-0.30103
-4.119817	emissaries	-0.30103
-4.119817	emit	-0.30103
-4.119817	emotion	-0.30103
-4.119817	emotionalism	-0.30103
-4.119817	emphasis	-0.30103
-4.119817	emphasizing	-0.30103
-4.119817	empties	-0.30103
-4.119817	emptiness	-0.30103
-4.119817	enable	-0.30103
-4.119817	enables	-0.30103
-4.119817	encircled	-0.30103
-4.119817	encouraging	-0.30103
-4.119817	end	-0.30103
-4.119817	endearing	-0.30103
-4.119817	ended	-0.30103
-4.119817	ending	-0.30103
-4.119817	endless	-0.30103
-4.119817	endowed	-0.30103
-4.119817	ends	-0.30103
-4.119817	enduring	-0.30103
-4.119817	enemy	-0.30103
-4.119817	energies	-0.30103
-4.119817	energy	-0.30103
-4.119817	enforce	-0.30103
-4.119817	engagement	-0.30103
-4.119817	engineering	-0.30103
-4.119817	engineers	-0.30103
-4.119817	enhanced	-0.30103
-4.119817	enigma	-0.30103
-4.119817	enjoy	-0.30103
-4.119817	enjoyment	-0.30103
-4.119817	enlarged	-0.30103
-4.119817	enlargement	-0.30103
-4.119817	enlivened	-0.30103
-4.119817	ennui	-0.30103
-4.119817	enormous	-0.30103
-4.119817	enormously	-0.30103
-4.119817	enough	-0.30103
-4.119817	ensembles	-0.30103
-4.119817	ensure	-0.30103
-4.119817	ensuring	-0.30103
-4.119817	enterprises	-0.30103
-4.119817	entertain	-0.30103
-4.119817	enthusiasm	-0.30103
-4.119817	enthusiastic	-0.30103
-4.119817	enthusiastically	-0.30103
-4.119817	entirely	-0.30103
-4.119817	entrance	-0.30103
-4.119817	envisages	-0.30103
-4.119817	ephemeral	-0.30103
-4.119817	epilogue	-0.30103
-4.119817	equal	-0.30103
-4.119817	equally	-0.30103
-4.119817	equipped	-0.30103
-4.119817	era	-0.30103
-4.119817	ernment	-0.30103
-4.119817	error	-0.30103
-4.119817	eruption	-0.30103
-4.119817	escape	-0.30103
-4.119817	escorted	-0.30103
-4.119817	especially	-0.30103
-4.119817	essay	-0.30103
-4.119817	essential	-0.30103
-4.119817	establish	-0.30103
-4.119817	established	-0.30103
-4.119817	establishment	-0.30103
-4.119817	estranged	-0.30103
-4.119817	etc.	-0.30103
-4.119817	eternal	-0.30103
-4.119817	eve	-0.30103
-4.119817	even	-0.30103
-4.119817	evening	-0.30103
-4.119817	evenings	-0.30103
-4.119817	events	-0.30103
-4.119817	eventual	-0.30103
-4.119817	eventually	-0.30103
-4.119817	ever	-0.30103
-4.119817	every	-0.30103
-4.119817	everybody	-0.30103
-4.119817	everyday	-0.30103
-4.119817	everyone	-0.30103
-4.119817	everyone's	-0.30103
-4.119817	everything	-0.30103
-4.119817	everywhere	-0.30103
-4.119817	evidence	-0.30103
-4.119817	evident	-0.30103
-4.119817	evil	-0.30103
-4.119817	ex-	-0.30103
-4.119817	ex-Eoka	-0.30103
-4.119817	exact	-0.30103
-4.119817	exacting	-0.30103
-4.119817	exactly	-0.30103
-4.119817	examination	-0.30103
-4.119817	examine	-0.30103
-4.119817	examining	-0.30103
-4.119817	example	-0.30103
-4.119817	exams	-0.30103
-4.119817	exceedingly	-0.30103
-4.119817	excellent	-0.30103
-4.119817	except	-0.30103
-4.119817	exceptional	-0.30103
-4.119817	exchanges	-0.30103
-4.119817	exciting	-0.30103
-4.119817	excluded	-0.30103
-4.119817	excluding	-0.30103
-4.119817	exclusion	-0.30103
-4.119817	excuse	-0.30103
-4.119817	executed	-0.30103
-4.119817	executive	-0.30103
-4.119817	executive's	-0.30103
-4.119817	exercise	-0.30103
-4.119817	exercised	-0.30103
-4.119817	exhausting	-0.30103
-4.119817	exhaustion	-0.30103
-4.119817	exhibit	-0.30103
-4.119817	exhibition	-0.30103
-4.119817	existed	-0.30103
-4.119817	existence	-0.30103
-4.119817	existing	-0.30103
-4.119817	exit	-0.30103
-4.119817	expansion	-0.30103
-4.119817	expect	-0.30103
-4.119817	expectancy	-0.30103
-4.119817	expectant	-0.30103
-4.119817	expected	-0.30103
-4.119817	expel	-0.30103
-4.119817	expenditure	-0.30103
-4.119817	expensive	-0.30103
-4.119817	experience	-0.30103
-4.119817	experienced	-0.30103
-4.119817	experiences	-0.30103
-4.119817	experiment	-0.30103
-4.119817	expert	-0.30103
-4.119817	experts	-0.30103
-4.119817	explain	-0.30103
-4.119817	explained	-0.30103
-4.119817	explains	-0.30103
-4.119817	explanation	-0.30103
-4.119817	explanations	-0.30103
-4.119817	explanatory	-0.30103
-4.119817	explicably	-0.30103
-4.119817	exploited	-0.30103
-4.119817	exports	-0.30103
-4.119817	expose	-0.30103
-4.119817	expound	-0.30103
-4.119817	expressed	-0.30103
-4.119817	expression	-0.30103
-4.119817	expulsion	-0.30103
-4.119817	exquisite	-0.30103
-4.119817	extended	-0.30103
-4.119817	extensions	-0.30103
-4.119817	extent	-0.30103
-4.119817	extra	-0.30103
-4.119817	extraordinary	-0.30103
-4.119817	extreme	-0.30103
-4.119817	extremely	-0.30103
-4.119817	eye-	-0.30103
-4.119817	eyeballs	-0.30103
-4.119817	eyes	-0.30103
-4.119817	face	-0.30103
-4.119817	faced	-0.30103
-4.119817	faces	-0.30103
-4.119817	facilities	-0.30103
-4.119817	facing	-0.30103
-4.119817	fact	-0.30103
-4.119817	factor	-0.30103
-4.119817	factors	-0.30103
-4.119817	factory	-0.30103
-4.119817	facts	-0.30103
-4.119817	factual	-0.30103
-4.119817	fahrenheit	-0.30103
-4.119817	failed	-0.30103
-4.119817	failing	-0.30103
-4.119817	fails	-0.30103
-4.119817	failure	-0.30103
-4.119817	fair	-0.30103
-4.119817	fairly	-0.30103
-4.119817	faith	-0.30103
-4.119817	fall	-0.30103
-4.119817	fall-out	-0.30103
-4.119817	fallen	-0.30103
-4.119817	falling	-0.30103
-4.119817	falls	-0.30103
-4.119817	false	-0.30103
-4.119817	fame	-0.30103
-4.119817	familiar	-0.30103
-4.119817	families	-0.30103
-4.119817	family	-0.30103
-4.119817	fanatics	-0.30103
-4.119817	fans	-0.30103
-4.119817	far	-0.30103
-4.119817	farce	-0.30103
-4.119817	fared	-0.30103
-4.119817	farewell	-0.30103
-4.119817	farmers	-0.30103
-4.119817	farming	-0.30103
-4.119817	farther	-0.30103
-4.119817	fascinating	-0.30103
-4.119817	fashion	-0.30103
-4.119817	fashioned	-0.30103
-4.119817	fast	-0.30103
-4.119817	fastened	-0.30103
-4.119817	faster	-0.30103
-4.119817	fastest	-0.30103
-4.119817	fatal	-0.30103
-4.119817	fated	-0.30103
-4.119817	father	-0.30103
-4.119817	father-in-	-0.30103
-4.119817	father-in-law	-0.30103
-4.119817	father-to-be	-0.30103
-4.119817	fatigue	-0.30103
-4.119817	faults	-0.30103
-4.119817	favour	-0.30103
-4.119817	favoured	-0.30103
-4.119817	fear	-0.30103
-4.119817	feared	-0.30103
-4.119817	fearful	-0.30103
-4.119817	fearlessly	-0.30103
-4.119817	fears	-0.30103
-4.119817	feat	-0.30103
-4.119817	feather-weight	-0.30103
-4.119817	feathered	-0.30103
-4.119817	featuring	-0.30103
-4.119817	fed	-0.30103
-4.119817	federal	-0.30103
-4.119817	federation	-0.30103
-4.119817	feeding	-0.30103
-4.119817	feel	-0.30103
-4.119817	feeling	-0.30103
-4.119817	feelings	-0.30103
-4.119817	feels	-0.30103
-4.119817	feet	-0.30103
-4.119817	fell	-0.30103
-4.119817	fellow	-0.30103
-4.119817	fellows	-0.30103
-4.119817	felt	-0.30103
-4.119817	feminine	-0.30103
-4.119817	ference	-0.30103
-4.119817	ferocity	-0.30103
-4.119817	festival	-0.30103
-4.119817	feudal	-0.30103
-4.119817	fever	-0.30103
-4.119817	few	-0.30103
-4.119817	fewer	-0.30103
-4.119817	fiddling	-0.30103
-4.119817	fidelity	-0.30103
-4.119817	field	-0.30103
-4.119817	fields	-0.30103
-4.119817	fierce	-0.30103
-4.119817	fifty	-0.30103
-4.119817	fight	-0.30103
-4.119817	fighter	-0.30103
-4.119817	fighters	-0.30103
-4.119817	fighting	-0.30103
-4.119817	figment	-0.30103
-4.119817	figure	-0.30103
-4.119817	figures	-0.30103
-4.119817	fill	-0.30103
-4.119817	filled	-0.30103
-4.119817	fillings	-0.30103
-4.119817	film	-0.30103
-4.119817	filmed	-0.30103
-4.119817	films	-0.30103
-4.119817	final	-0.30103
-4.119817	finally	-0.30103
-4.119817	financial	-0.30103
-4.119817	financing	-0.30103
-4.119817	find	-0.30103
-4.119817	findings	-0.30103
-4.119817	finds	-0.30103
-4.119817	fine	-0.30103
-4.119817	fine-lace	-0.30103
-4.119817	finer	-0.30103
-4.119817	finger	-0.30103
-4.119817	fingers	-0.30103
-4.119817	finish	-0.30103
-4.119817	finished	-0.30103
-4.119817	finishing	-0.30103
-4.119817	firing	-0.30103
-4.119817	firm	-0.30103
-4.119817	firmly	-0.30103
-4.119817	first	-0.30103
-4.119817	first-class	-0.30103
-4.119817	fish	-0.30103
-4.119817	fisheries	-0.30103
-4.119817	fishermen	-0.30103
-4.119817	fishery	-0.30103
-4.119817	fishing	-0.30103
-4.119817	fishings	-0.30103
-4.119817	fit	-0.30103
-4.119817	fitments	-0.30103
-4.119817	fits	-0.30103
-4.119817	fittings	-0.30103
-4.119817	five	-0.30103
-4.119817	five-	-0.30103
-4.119817	five-day	-0.30103
-4.119817	five-year	-0.30103
-4.119817	fixed	-0.30103
-4.119817	fixing	-0.30103
-4.119817	fizzles	-0.30103
-4.119817	flabby	-0.30103
-4.119817	flagrant	-0.30103
-4.119817	flapping	-0.30103
-4.119817	flat	-0.30103
-4.119817	flatly	-0.30103
-4.119817	flawed	-0.30103
-4.119817	flection	-0.30103
-4.119817	fleeing	-0.30103
-4.119817	fleet	-0.30103
-4.119817	flew	-0.30103
-4.119817	flexible	-0.30103
-4.119817	flict	-0.30103
-4.119817	flies	-0.30103
-4.119817	floor	-0.30103
-4.119817	floundered	-0.30103
-4.119817	flower	-0.30103
-4.119817	fluenced	-0.30103
-4.119817	fly	-0.30103
-4.119817	flying	-0.30103
-4.119817	fog	-0.30103
-4.119817	folk	-0.30103
-4.119817	folklore	-0.30103
-4.119817	follow	-0.30103
-4.119817	followed	-0.30103
-4.119817	followers	-0.30103
-4.119817	following	-0.30103
-4.119817	follows	-0.30103
-4.119817	folly	-0.30103
-4.119817	fontein	-0.30103
-4.119817	food	-0.30103
-4.119817	foods	-0.30103
-4.119817	foolish	-0.30103
-4.119817	foot	-0.30103
-4.119817	footing	-0.30103
-4.119817	footrest	-0.30103
-4.119817	footrope	-0.30103
-4.119817	for	-0.30103
-4.119817	force	-0.30103
-4.119817	forced	-0.30103
-4.119817	forces	-0.30103
-4.119817	forecast	-0.30103
-4.119817	forefinger	-0.30103
-4.119817	foreign	-0.30103
-4.119817	foreigners	-0.30103
-4.119817	forget	-0.30103
-4.119817	forlorn	-0.30103
-4.119817	form	-0.30103
-4.119817	formal	-0.30103
-4.119817	formed	-0.30103
-4.119817	former	-0.30103
-4.119817	formerly	-0.30103
-4.119817	forms	-0.30103
-4.119817	formula	-0.30103
-4.119817	forth-	-0.30103
-4.119817	fortnight	-0.30103
-4.119817	fortunate	-0.30103
-4.119817	forty	-0.30103
-4.119817	forty-five	-0.30103
-4.119817	forward	-0.30103
-4.119817	foster	-0.30103
-4.119817	fought	-0.30103
-4.119817	found	-0.30103
-4.119817	foundations	-0.30103
-4.119817	founded	-0.30103
-4.119817	four	-0.30103
-4.119817	fourth	-0.30103
-4.119817	fragile	-0.30103
-4.119817	fragment	-0.30103
-4.119817	fragments	-0.30103
-4.119817	frail	-0.30103
-4.119817	frame	-0.30103
-4.119817	framed	-0.30103
-4.119817	frames	-0.30103
-4.119817	framework	-0.30103
-4.119817	framing	-0.30103
-4.119817	frantically	-0.30103
-4.119817	fraudulent	-0.30103
-4.119817	free	-0.30103
-4.119817	free-lance	-0.30103
-4.119817	freeboard	-0.30103
-4.119817	freedom	-0.30103
-4.119817	freedoms	-0.30103
-4.119817	frequent	-0.30103
-4.119817	frequently	-0.30103
-4.119817	fresh	-0.30103
-4.119817	friend	-0.30103
-4.119817	friendly	-0.30103
-4.119817	friends	-0.30103
-4.119817	friendship	-0.30103
-4.119817	frightened	-0.30103
-4.119817	frightening	-0.30103
-4.119817	fringes	-0.30103
-4.119817	fringing	-0.30103
-4.119817	from	-0.30103
-4.119817	front	-0.30103
-4.119817	frostbite	-0.30103
-4.119817	frozen	-0.30103
-4.119817	fruit	-0.30103
-4.119817	frustration	-0.30103
-4.119817	fry	-0.30103
-4.119817	ft.	-0.30103
-4.119817	fuel	-0.30103
-4.119817	fulfil	-0.30103
-4.119817	fulfilment	-0.30103
-4.119817	fulfils	-0.30103
-4.119817	full	-0.30103
-4.119817	full-blooded	-0.30103
-4.119817	fuller	-0.30103
-4.119817	fully	-0.30103
-4.119817	fun	-0.30103
-4.119817	function	-0.30103
-4.119817	functions	-0.30103
-4.119817	fundamentally	-0.30103
-4.119817	funds	-0.30103
-4.119817	funny	-0.30103
-4.119817	furniture	-0.30103
-4.119817	further	-0.30103
-4.119817	fussy	-0.30103
-4.119817	future	-0.30103
-4.119817	gain	-0.30103
-4.119817	gala	-0.30103
-4.119817	gallant	-0.30103
-4.119817	gallery	-0.30103
-4.119817	gallon	-0.30103
-4.119817	galvanised	-0.30103
-4.119817	galvanized	-0.30103
-4.119817	game	-0.30103
-4.119817	gang	-0.30103
-4.119817	ganged	-0.30103
-4.119817	gaps	-0.30103
-4.119817	garages	-0.30103
-4.119817	garden	-0.30103
-4.119817	gardener	-0.30103
-4.119817	gardeners	-0.30103
-4.119817	gardening	-0.30103
-4.119817	gardens	-0.30103
-4.119817	gate	-0.30103
-4.119817	gates	-0.30103
-4.119817	gather	-0.30103
-4.119817	gather-in	-0.30103
-4.119817	gathered	-0.30103
-4.119817	gathering	-0.30103
-4.119817	gaudy	-0.30103
-4.119817	gauge	-0.30103
-4.119817	gave	-0.30103
-4.119817	gawky	-0.30103
-4.119817	gear	-0.30103
-4.119817	general	-0.30103
-4.119817	generally	-0.30103
-4.119817	generals	-0.30103
-4.119817	generate	-0.30103
-4.119817	generated	-0.30103
-4.119817	generation	-0.30103
-4.119817	generations	-0.30103
-4.119817	generous	-0.30103
-4.119817	generously	-0.30103
-4.119817	gentle	-0.30103
-4.119817	genuine	-0.30103
-4.119817	geography	-0.30103
-4.119817	gesture	-0.30103
-4.119817	get	-0.30103
-4.119817	gets	-0.30103
-4.119817	getting	-0.30103
-4.119817	ghost	-0.30103
-4.119817	gift	-0.30103
-4.119817	girl	-0.30103
-4.119817	girls	-0.30103
-4.119817	give	-0.30103
-4.119817	given	-0.30103
-4.119817	gives	-0.30103
-4.119817	giving	-0.30103
-4.119817	glad	-0.30103
-4.119817	glance	-0.30103
-4.119817	glaring	-0.30103
-4.119817	glass	-0.30103
-4.119817	glasspaper	-0.30103
-4.119817	glorious	-0.30103
-4.119817	glossy	-0.30103
-4.119817	gloves	-0.30103
-4.119817	glower	-0.30103
-4.119817	glue	-0.30103
-4.119817	glued	-0.30103
-4.119817	gluing	-0.30103
-4.119817	go	-0.30103
-4.119817	goes	-0.30103
-4.119817	going	-0.30103
-4.119817	going-out	-0.30103
-4.119817	golf-course	-0.30103
-4.119817	gone	-0.30103
-4.119817	good	-0.30103
-4.119817	goods	-0.30103
-4.119817	goodwill	-0.30103
-4.119817	gossamer	-0.30103
-4.119817	gossip	-0.30103
-4.119817	got	-0.30103
-4.119817	govern	-0.30103
-4.119817	government	-0.30103
-4.119817	governments	-0.30103
-4.119817	gown	-0.30103
-4.119817	grade	-0.30103
-4.119817	grained	-0.30103
-4.119817	gral	-0.30103
-4.119817	granted	-0.30103
-4.119817	grants	-0.30103
-4.119817	grapher	-0.30103
-4.119817	grasp	-0.30103
-4.119817	grasped	-0.30103
-4.119817	grass	-0.30103
-4.119817	grasshopper	-0.30103
-4.119817	gratify	-0.30103
-4.119817	gravelly	-0.30103
-4.119817	gravely	-0.30103
-4.119817	great	-0.30103
-4.119817	greater	-0.30103
-4.119817	greatest	-0.30103
-4.119817	greatly	-0.30103
-4.119817	greedy	-0.30103
-4.119817	green	-0.30103
-4.119817	greenhouse	-0.30103
-4.119817	greeted	-0.30103
-4.119817	greeting	-0.30103
-4.119817	grew	-0.30103
-4.119817	greys	-0.30103
-4.119817	grip	-0.30103
-4.119817	gripped	-0.30103
-4.119817	gripping	-0.30103
-4.119817	groove	-0.30103
-4.119817	gross	-0.30103
-4.119817	grotesque	-0.30103
-4.119817	ground	-0.30103
-4.119817	groundless	-0.30103
-4.119817	grounds	-0.30103
-4.119817	group	-0.30103
-4.119817	grow	-0.30103
-4.119817	growing	-0.30103
-4.119817	grown	-0.30103
-4.119817	grows	-0.30103
-4.119817	growth	-0.30103
-4.119817	grumblers	-0.30103
-4.119817	guarded	-0.30103
-4.119817	guards	-0.30103
-4.119817	guest	-0.30103
-4.119817	guests	-0.30103
-4.119817	guffaw	-0.30103
-4.119817	guide	-0.30103
-4.119817	guilty	-0.30103
-4.119817	guitar	-0.30103
-4.119817	gummed	-0.30103
-4.119817	gunwale	-0.30103
-4.119817	gunwales	-0.30103
-4.119817	habits	-0.30103
-4.119817	had	-0.30103
-4.119817	haddock	-0.30103
-4.119817	half	-0.30103
-4.119817	half-hour	-0.30103
-4.119817	halfway	-0.30103
-4.119817	hallway	-0.30103
-4.119817	halving	-0.30103
-4.119817	hammer	-0.30103
-4.119817	hammers	-0.30103
-4.119817	hand	-0.30103
-4.119817	hand-crocheted	-0.30103
-4.119817	hand-over	-0.30103
-4.119817	hand-picked	-0.30103
-4.119817	handed	-0.30103
-4.119817	handful	-0.30103
-4.119817	handiwork	-0.30103
-4.119817	handkerchief	-0.30103
-4.119817	handling	-0.30103
-4.119817	hands	-0.30103
-4.119817	handy	-0.30103
-4.119817	hanging	-0.30103
-4.119817	happen	-0.30103
-4.119817	happened	-0.30103
-4.119817	happens	-0.30103
-4.119817	happier	-0.30103
-4.119817	happy	-0.30103
-4.119817	hara-kiri	-0.30103
-4.119817	harangued	-0.30103
-4.119817	harassed	-0.30103
-4.119817	hard	-0.30103
-4.119817	hard-	-0.30103
-4.119817	hard-core	-0.30103
-4.119817	hard-hitting	-0.30103
-4.119817	hardboard	-0.30103
-4.119817	harder	-0.30103
-4.119817	hardest	-0.30103
-4.119817	hardly	-0.30103
-4.119817	hardship	-0.30103
-4.119817	hardwood	-0.30103
-4.119817	harm	-0.30103
-4.119817	harsh	-0.30103
-4.119817	harvest	-0.30103
-4.119817	has	-0.30103
-4.119817	haste	-0.30103
-4.119817	hatched	-0.30103
-4.119817	hatches	-0.30103
-4.119817	hatching	-0.30103
-4.119817	hate	-0.30103
-4.119817	hated	-0.30103
-4.119817	hauled	-0.30103
-4.119817	have	-0.30103
-4.119817	haven't	-0.30103
-4.119817	having	-0.30103
-4.119817	he	-0.30103
-4.119817	head	-0.30103
-4.119817	head-on	-0.30103
-4.119817	head-stone	-0.30103
-4.119817	head-stones	-0.30103
-4.119817	headed	-0.30103
-4.119817	headlines	-0.30103
-4.119817	headquarters	-0.30103
-4.119817	heads	-0.30103
-4.119817	headway	-0.30103
-4.119817	healing	-0.30103
-4.119817	health	-0.30103
-4.119817	healthiest	-0.30103
-4.119817	heaped	-0.30103
-4.119817	hear	-0.30103
-4.119817	heard	-0.30103
-4.119817	heart	-0.30103
-4.119817	heart-searching	-0.30103
-4.119817	hearts	-0.30103
-4.119817	heat	-0.30103
-4.119817	heavier	-0.30103
-4.119817	heavy	-0.30103
-4.119817	heck	-0.30103
-4.119817	hectoring	-0.30103
-4.119817	heed	-0.30103
-4.119817	heel	-0.30103
-4.119817	hefty	-0.30103
-4.119817	height	-0.30103
-4.119817	held	-0.30103
-4.119817	heli-hopping	-0.30103
-4.119817	hell-bound	-0.30103
-4.119817	help	-0.30103
-4.119817	helped	-0.30103
-4.119817	helping	-0.30103
-4.119817	hem	-0.30103
-4.119817	her	-0.30103
-4.119817	heralded	-0.30103
-4.119817	here	-0.30103
-4.119817	hereabouts	-0.30103
-4.119817	hereditary	-0.30103
-4.119817	heritage	-0.30103
-4.119817	heroine	-0.30103
-4.119817	herring	-0.30103
-4.119817	herrings	-0.30103
-4.119817	herself	-0.30103
-4.119817	hesitation	-0.30103
-4.119817	hewers	-0.30103
-4.119817	hiccup	-0.30103
-4.119817	hid	-0.30103
-4.119817	hidden	-0.30103
-4.119817	hides	-0.30103
-4.119817	high	-0.30103
-4.119817	high-speed	-0.30103
-4.119817	higher	-0.30103
-4.119817	highly	-0.30103
-4.119817	hill	-0.30103
-4.119817	him	-0.30103
-4.119817	him-	-0.30103
-4.119817	himself	-0.30103
-4.119817	hint	-0.30103
-4.119817	his	-0.30103
-4.119817	historians	-0.30103
-4.119817	history	-0.30103
-4.119817	hit	-0.30103
-4.119817	hitherto	-0.30103
-4.119817	hits	-0.30103
-4.119817	hobby	-0.30103
-4.119817	hockey	-0.30103
-4.119817	hold	-0.30103
-4.119817	holding	-0.30103
-4.119817	holds	-0.30103
-4.119817	hole	-0.30103
-4.119817	holes	-0.30103
-4.119817	holiday	-0.30103
-4.119817	home	-0.30103
-4.119817	homely	-0.30103
-4.119817	homes	-0.30103
-4.119817	homo-	-0.30103
-4.119817	homosexual	-0.30103
-4.119817	honesty	-0.30103
-4.119817	honeymoon	-0.30103
-4.119817	honours	-0.30103
-4.119817	hooded	-0.30103
-4.119817	hook	-0.30103
-4.119817	hooks	-0.30103
-4.119817	hoops	-0.30103
-4.119817	hope	-0.30103
-4.119817	hoped	-0.30103
-4.119817	hopeful	-0.30103
-4.119817	hopes	-0.30103
-4.119817	hoping	-0.30103
-4.119817	horizontal	-0.30103
-4.119817	horizontally	-0.30103
-4.119817	horrified	-0.30103
-4.119817	horror	-0.30103
-4.119817	hospital	-0.30103
-4.119817	hospitality	-0.30103
-4.119817	host	-0.30103
-4.119817	hostile	-0.30103
-4.119817	hostility	-0.30103
-4.119817	hot	-0.30103
-4.119817	hotbed	-0.30103
-4.119817	hotel	-0.30103
-4.119817	hour	-0.30103
-4.119817	hour's	-0.30103
-4.119817	hours	-0.30103
-4.119817	house	-0.30103
-4.119817	houseboat	-0.30103
-4.119817	household	-0.30103
